svm_type c_svc
kernel_type rbf
gamma 0.0078125
nr_class 2
total_sv 94
rho -1.23052
label 0 1
nr_sv 38 56
SV
2.445716723804186 1:0.244854 2:0.100595 3:0.964565 4:0.152377 5:0.342426 6:0.917309 7:0.0840431 8:0.550722 9:0.819518 10:0.0730981 11:0.61638 12:0.775372 13:0.0782457 14:0.577411 15:0.805697 16:0.10778 17:0.474043 18:0.877332 19:0.227528 20:0.26056 21:0.941345 22:0.403467 23:-0.0151085 24:0.919235 25:0.237748 26:0.165382 27:0.95945 28:0.0900896 29:0.371472 30:0.921406 31:0.0710655 32:0.483405 33:0.892136 34:0.0469943 35:0.473401 36:0.876628 37:0.0294978 38:0.484609 39:0.876844 40:0.0318562 41:0.515596 42:0.878166 43:0.0242798 44:0.479472 45:0.88404 46:0.0189015 47:0.458445 48:0.889405 49:0.0328886 50:0.456068 51:0.891521 52:0.065102 53:0.435005 54:0.91685 55:0.157836 56:0.201635 57:0.969374 58:-0.0861691 59:0.560903 60:0.845596 61:-0.108675 62:0.658513 63:0.768987 64:-0.0328437 65:0.508051 66:0.870351 67:0.141925 68:0.232344 69:0.965579 70:0.125886 71:0.405015 72:0.913004 73:-0.0079535 74:0.622421 75:0.803267 76:0.12711 77:0.450885 78:0.882425 79:0.209136 80:0.321809 81:0.921609 82:0.144241 83:0.500615 84:0.854161 85:-0.0152465 86:0.646103 87:0.765282 88:0.0423785 89:0.474411 90:0.880241 91:0.224674 92:0.226779 93:-0.607105 94:0.0611514 95:-0.1222 96:-0.448229 97:0.0169092 98:-0.31889 99:-0.475601 100:-0.0338648 101:-0.0630296 102:-0.557355 103:0.0856849 104:-0.0447268 105:-0.328582 106:0.183975 107:0.232075 108:-0.214244 109:0.118766 110:-0.277926 111:-0.0412124 112:0.00333362 113:0.116013 114:0.48514 115:0.0803918 116:0.44279 117:0.553236 118:-0.202733 119:-0.152184 120:-0.371313 121:-0.158331 122:0.236742 123:-0.0769638 124:0.0565019 125:0.147438 126:-0.00960886 127:0.126753 128:-0.236734 129:0.0397643 130:0.268144 131:-0.27985 132:-0.0527591 133:0.106269 134:0.274496 135:-0.0611638 136:0.188737 137:0.13992 138:0.0392904 139:0.0215624 140:0.209029 141:0.32908 142:0.313077 143:0.120346 144:-0.802649 145:-0.12886 146:0.574452 147:0.439291 148:-0.0755741 149:-0.55608 150:-1 151:-0.407925 152:-0.550695 153:-0.744736 154:-0.266304 155:-0.444554 156:-0.770505 157:1 158:0.382093 159:1 160:-0.0678704 161:-0.387132 162:-0.481347 163:-0.473456 164:-0.289646 165:-0.694409 166:-0.33212 167:-0.62986 168:-0.301942 169:0.353436 170:0.729367 171:-0.0400726 172:0.194129 173:0.591221 174:0.370333 175:-0.173204 176:-0.831858 177:-1 178:-1 179:-0.0673772 180:-1 181:0.676294 182:0.508305 183:0.0228962 184:0.213266 185:0.522967 186:0.374339 187:-0.109381 188:-0.279362 189:-0.210966 190:0.355805 191:-0.243889 192:0.363536 193:0.069576 194:-0.118521 195:0.334475 196:0.603641 197:0.013239 198:0.172389 199:-0.303968 200:-0.319067 201:-0.162291 202:0.194042 203:-0.26471 204:-0.371181 205:0.227409 206:-0.438538 207:-0.175712 208:-0.386307 209:0.181186 210:-0.149078 211:0.209008 212:0.184597 213:-0.156819 214:0.43639 215:0.424167 216:-0.338148 217:0.468955 218:-0.0251269 219:-0.410739 220:0.0185605 221:-0.140669 222:-0.351453 223:0.526192 224:-0.133104 225:-0.420416 226:0.0782502 227:-0.0239977 228:-0.280786 229:-0.133323 230:-0.00631044 231:-0.0150952 232:-0.353025 233:-0.264958 234:0.171108 235:0.0308438 236:-0.168913 237:-0.0617431 238:0.793073 239:0.227779 240:0.599508 241:0.230644 242:0.022868 243:0.154745 244:-0.353574 245:0.186949 246:-0.747822 247:-0.0898214 248:0.0575149 249:0.353133 250:0.105028 251:-0.374879 252:-0.836502 253:0.536414 254:-0.492494 255:-0.298578 256:0.725145 257:0.524681 258:0.0403241 259:-0.405253 260:-0.229309 261:0.187427 262:0.583193 263:-0.558551 264:-0.296206 265:-0.312831 266:0.540777 267:-1 268:0.838396 269:-0.358002 270:-1 
8 1:0.00184259 2:0.218286 3:0.972632 4:0.0481569 5:0.428206 6:0.891379 7:-0.00584915 8:0.600512 9:0.789302 10:-0.127549 11:0.516268 12:0.838909 13:-0.509953 14:0.416119 15:0.745252 16:-0.851021 17:0.227474 18:0.483261 19:-0.946941 20:0.246531 21:0.267683 22:-0.919646 23:0.308926 24:0.257783 25:-0.920751 26:0.301608 27:0.290537 28:-0.965852 29:0.302147 30:0.293172 31:-0.924888 32:0.331073 33:0.293752 34:-0.724901 35:0.336774 36:0.594503 37:-0.538911 38:0.271977 39:0.802049 40:-0.457525 41:0.253402 42:0.861758 43:-0.432922 44:0.207646 45:0.88649 46:-0.428556 47:0.177285 48:0.901624 49:-0.366325 50:0.151185 51:0.924339 52:-0.324286 53:0.158271 54:0.937995 55:-0.304503 56:0.122976 57:0.9462 58:-0.289118 59:0.119239 60:0.952279 61:-0.271457 62:0.0997554 63:0.958397 64:-0.260914 65:0.0871822 66:0.961892 67:-0.251568 68:0.0882646 69:0.964966 70:-0.245806 71:0.0789418 72:0.966611 73:-0.238197 74:0.0758869 75:0.968964 76:-0.231326 77:0.0583802 78:0.97081 79:-0.227287 80:0.0547924 81:0.97193 82:-0.221537 83:0.0570023 84:0.973465 85:-0.216562 86:0.0560695 87:0.974793 88:-0.211994 89:0.0515865 90:0.975926 91:0.136157 92:0.397241 93:-0.847463 94:-0.16934 95:-0.112886 96:-0.717402 97:-0.12101 98:-0.442026 99:-1 100:0.00844917 101:-0.427521 102:-0.810481 103:0.535935 104:-0.0446089 105:-0.00786597 106:0.528628 107:0.486038 108:0.642791 109:0.669163 110:-0.198806 111:0.0300189 112:0.142092 113:-0.159002 114:0.518466 115:0.0687384 116:0.314443 117:0.643676 118:-0.115258 119:-0.0305895 120:0.603097 121:-0.133437 122:0.1046 123:0.0829563 124:-0.055249 125:0.0830538 126:-0.0655098 127:-0.116693 128:-0.250815 129:-0.0647512 130:0.0869459 131:-0.2448 132:-0.186921 133:-0.0665256 134:0.320322 135:-0.226574 136:0.0735044 137:0.208364 138:-0.208509 139:-0.0808466 140:0.236986 141:0.15326 142:0.2337 143:0.280532 144:-0.250331 145:-0.329372 146:0.335699 147:-0.196331 148:-0.114737 149:-0.0720112 150:-0.323696 151:-0.26566 152:-0.195667 153:-0.159881 154:-0.116168 155:-0.110721 156:-0.0647061 157:-0.105119 158:-0.215813 159:-0.0446633 160:-0.113238 161:-0.165531 162:-0.449091 163:0.227519 164:0.204745 165:0.0443062 166:0.121949 167:-0.515285 168:-0.0114174 169:0.0427814 170:0.247807 171:-0.355996 172:-0.022407 173:0.0883206 174:-0.384075 175:-0.0829934 176:0.0196657 177:-0.255772 178:0.0449672 179:0.51786 180:-0.0607751 181:0.728802 182:0.43674 183:0.00263726 184:-0.146005 185:0.482084 186:0.330698 187:-0.349743 188:-0.134005 189:-0.435915 190:0.409736 191:0.0262698 192:0.0186821 193:0.469054 194:0.13392 195:0.432962 196:0.701984 197:0.0845129 198:0.172706 199:0.242712 200:-0.284509 201:-0.178691 202:0.218712 203:-0.209221 204:-0.384534 205:0.0101098 206:-0.587545 207:-0.14822 208:-0.442288 209:0.175904 210:-0.135113 211:0.212078 212:0.149289 213:-0.160175 214:0.437755 215:0.423917 216:-0.340856 217:0.475546 218:-0.0281693 219:-0.408745 220:0.0244783 221:-0.137948 222:-0.352151 223:0.538788 224:-0.126663 225:-0.415355 226:0.0801546 227:-0.019216 228:-0.284921 229:-0.118 230:-0.00486626 231:-0.0218041 232:-0.24512 233:-0.250114 234:0.143213 235:0.154988 236:-0.155184 237:-0.128368 238:0.490977 239:0.151094 240:0.62361 241:0.1653 242:0.0329257 243:0.154037 244:-0.268845 245:0.213257 246:-0.771109 247:0.217065 248:0.206377 249:0.168099 250:-0.194513 251:-0.359866 252:-0.565352 253:0.0302215 254:-0.648472 255:0.0459716 256:0.752215 257:0.555958 258:0.0104302 259:-0.15593 260:-0.156234 261:0.0247076 262:0.590738 263:-0.524225 264:-0.089516 265:-0.543577 266:0.38491 267:-0.904622 268:0.722155 269:-0.80666 270:0.364643 
2.272977524903827 1:0.131772 2:-0.247227 3:0.97396 4:0.0166342 5:-0.11226 6:0.998979 7:-0.0919446 8:0.0183912 9:0.994794 10:-0.011558 11:0.192609 12:0.976608 13:0.0366921 14:0.291085 15:0.949969 16:0.0909279 17:0.416142 18:0.907692 19:0.144819 20:0.54329 21:0.830894 22:0.16899 23:0.641211 24:0.757808 25:0.172471 26:0.684452 27:0.706197 28:0.125086 29:-0.346115 30:0.927316 31:0.80776 32:-0.20783 33:0.56046 34:0.13965 35:0.0200147 36:-1 37:-0.849279 38:0.174117 39:0.510861 40:0.835512 41:-0.132824 42:0.527125 43:-0.122531 44:-0.946354 45:0.302812 46:0.202262 47:-0.638509 48:-0.798026 49:0.452167 50:-0.391805 51:-0.864296 52:0.547755 53:-0.283458 54:-0.786608 55:0.290224 56:-0.293456 57:-0.915573 58:0.307688 59:-0.267137 60:-0.917842 61:0.320516 62:-0.270977 63:-0.914546 64:0.315279 65:-0.278602 66:-0.914181 67:0.31664 68:-0.264899 69:-0.913998 70:0.513384 71:-0.590629 72:-0.64599 73:0.631488 74:-0.736756 75:-0.310362 76:0.683577 77:-0.746658 78:0.0162278 79:0.68655 80:-0.646962 81:0.357354 82:0.655331 83:-0.527066 84:0.545134 85:0.6298 86:-0.464043 87:0.622921 88:0.604263 89:-0.418526 90:0.679282 91:0.119437 92:0.213359 93:-0.599031 94:-3.37667e-05 95:-0.0891889 96:0.204599 97:0.0869767 98:-0.139594 99:-0.867501 100:-0.0861951 101:-0.0591283 102:-0.883273 103:-0.0154321 104:-0.0569331 105:-0.411501 106:0.0966302 107:0.190881 108:-0.142039 109:-0.0925565 110:-0.312836 111:-0.235281 112:-0.164715 113:-0.292842 114:-0.220408 115:-0.193886 116:0.159317 117:0.270834 118:0.504505 119:0.142144 120:0.213936 121:-0.642753 122:0.320598 123:0.0118089 124:-0.0736091 125:0.220375 126:0.94246 127:-0.167752 128:-0.182844 129:-0.0859466 130:0.290002 131:-0.138136 132:0.0196398 133:0.197527 134:0.592455 135:0.221076 136:0.200181 137:0.338547 138:0.561638 139:0.126747 140:0.25 141:0.842306 142:0.456674 143:0.234328 144:0.301675 145:-0.251459 146:0.220061 147:0.570466 148:0.0231205 149:-0.157596 150:0.441039 151:-0.144316 152:-0.240796 153:0.287786 154:-0.0193614 155:-0.127584 156:0.257915 157:-0.238371 158:-0.00300455 159:-0.00346332 160:-0.332819 161:0.236099 162:-0.644291 163:-0.0469122 164:0.467436 165:-0.451559 166:-0.0659529 167:-0.433677 168:-0.66737 169:-0.0690729 170:0.226461 171:-0.871465 172:-0.0773527 173:-0.0183232 174:-0.962774 175:-0.0676184 176:-0.210914 177:-0.81528 178:0.136502 179:0.322851 180:-0.596991 181:0.500785 182:0.506422 183:-0.165188 184:0.0532144 185:0.457265 186:0.432356 187:0.0964461 188:-0.308339 189:-0.21555 190:0.492837 191:-0.309048 192:0.293988 193:0.421298 194:-0.213117 195:0.305643 196:0.764244 197:0.02398 198:0.10927 199:0.410299 200:-0.257936 201:-0.200216 202:0.244444 203:-0.240012 204:-0.412175 205:0.0489266 206:-0.613589 207:-0.187478 208:-0.430633 209:0.158931 210:-0.173826 211:-1 212:0.285711 213:-0.199664 214:0.482681 215:-0.659898 216:-0.458795 217:0.39353 218:-0.818338 219:-0.490541 220:-0.161588 221:-1 222:-0.310182 223:-1 224:-0.969224 225:-0.0669568 226:0.247129 227:-0.279212 228:-0.583409 229:-0.558968 230:0.0381452 231:-0.137752 232:-0.142468 233:-0.210378 234:0.25163 235:0.458657 236:-0.553474 237:-0.121884 238:0.0916889 239:0.260257 240:0.611116 241:0.217124 242:0.191361 243:0.158677 244:-0.255673 245:0.156771 246:-0.770711 247:0.215842 248:0.218782 249:0.1691 250:-0.19124 251:-0.359066 252:-0.565352 253:0.0282398 254:-0.649858 255:0.0490521 256:0.752596 257:0.556146 258:0.0106165 259:-0.155694 260:-0.155668 261:0.0239766 262:0.591086 263:-0.524296 264:-0.0865259 265:-0.542682 266:0.385323 267:-0.904565 268:0.721345 269:-0.808511 270:0.363116 
4.063850665561965 1:-0.157357 2:0.0437858 3:-0.985805 4:-0.172605 5:0.0697427 6:-0.980297 7:-0.195587 8:0.0807612 9:-0.976623 10:-0.250937 11:0.136802 12:-0.956075 13:-0.244563 14:0.120809 15:-0.958036 16:-0.0921685 17:0.110847 18:-0.991413 19:0.073866 20:0.100302 21:-1 22:0.182262 23:0.0905997 24:-0.985074 25:0.306465 26:0.075517 27:-0.984548 28:0.382788 29:0.0586912 30:-0.948779 31:0.50887 32:0.0406255 33:-0.891099 34:0.522472 35:0.00316022 36:-0.865039 37:0.523008 38:0.24991 39:-0.822951 40:0.831427 41:0.245133 42:-0.520972 43:-1 44:0.187709 45:-0.0552748 46:0.692759 47:0.101568 48:-0.745601 49:-0.477505 50:0.180491 51:0.8682 52:-0.666837 53:-0.151547 54:0.728382 55:-0.992758 56:-0.124144 57:0.0219999 58:-0.876027 59:0.0426692 60:0.482628 61:-0.750115 62:0.0206317 63:0.661147 64:-0.582415 65:-0.156886 66:-0.802513 67:-0.589984 68:-0.153059 69:-0.79521 70:-0.364911 71:-0.128028 72:-0.925257 73:-0.238707 74:-0.109508 75:-0.967126 76:-0.183705 77:-0.113199 78:-0.978975 79:-0.145202 80:-0.109328 81:-0.986118 82:-0.127008 83:-0.100267 84:-0.988672 85:-0.117842 86:-0.09563 87:-0.989795 88:-0.106839 89:-0.0940635 90:-0.990513 91:0.305754 92:0.0337002 93:0.621017 94:0.11977 95:-0.0602452 96:0.768552 97:0.245773 98:-0.183394 99:0.890945 100:0.108613 101:-0.0733267 102:0.571442 103:0.267269 104:0.0348793 105:0.870339 106:-0.0800932 107:0.198679 108:0.658933 109:-0.107908 110:-0.0946516 111:-0.815017 112:-0.244209 113:-0.0650998 114:-0.924986 115:-0.399341 116:0.336553 117:-0.351835 118:-0.499099 119:-0.0143847 120:-0.584324 121:-0.310399 122:0.17404 123:-0.581928 124:-0.0863793 125:0.166901 126:-0.360106 127:-0.00892334 128:-0.339028 129:-0.0461595 130:-0.360631 131:-0.347584 132:-0.216986 133:0.708835 134:0.269981 135:-0.38985 136:-0.172238 137:0.19668 138:0.0326381 139:0.279419 140:0.197272 141:-0.643068 142:0.99418 143:0.229682 144:-0.285236 145:1 146:0.533519 147:-0.987566 148:0.546398 149:-0.0614326 150:-0.321383 151:0.273275 152:-0.505866 153:-1 154:0.00237772 155:0.0344532 156:0.340764 157:-0.264981 158:-0.103357 159:0.370215 160:-0.544415 161:-0.153537 162:-0.157479 163:-0.267714 164:0.220886 165:0.326379 166:-0.230942 167:-0.507853 168:0.216348 169:-0.214483 170:0.204058 171:-0.27204 172:-0.224264 173:0.045083 174:-0.333258 175:-0.274553 176:-0.0331039 177:-0.212733 178:-0.0582493 179:0.494856 180:-0.0377603 181:0.559479 182:0.46288 183:-0.0917046 184:-0.177945 185:0.396373 186:0.416337 187:-0.374105 188:-0.324965 189:-0.241427 190:0.374473 191:-0.280873 192:0.377972 193:0.372307 194:0.284752 195:0.320868 196:0.704142 197:0.190591 198:0.111252 199:0.285091 200:-0.167743 201:-0.193725 202:0.225173 203:-0.15426 204:-0.404138 205:0.0325761 206:-0.539422 207:-0.174175 208:-0.416492 209:0.213811 210:-0.159802 211:0.242201 212:0.176612 213:-0.184024 214:0.439586 215:0.372431 216:-0.440095 217:0.483881 218:1 219:-0.373829 220:0.0456135 221:1 222:-0.358782 223:0.611736 224:0.977852 225:-0.375171 226:0.465188 227:0.965101 228:-0.0894172 229:-0.0669047 230:0.640054 231:-0.172245 232:-0.178588 233:-0.274468 234:0.304448 235:0.061303 236:-0.406587 237:-0.0680777 238:0.389172 239:0.212693 240:0.633282 241:0.22505 242:0.056429 243:0.15734 244:-0.268548 245:0.206692 246:-0.770546 247:0.216803 248:0.210785 249:0.168349 250:-0.19703 251:-0.359218 252:-0.56654 253:0.0337604 254:-0.648934 255:0.05 256:0.752008 257:0.555864 258:0.0107096 259:-0.156048 260:-0.155781 261:0.0236842 262:0.591318 263:-0.52351 264:-0.0898897 265:-0.544248 266:0.385013 267:-0.904848 268:0.723572 269:-0.803885 270:0.369989 
3.559864502207048 1:-0.109555 2:0.771692 3:-0.62941 4:-0.0920012 5:0.814481 6:-0.56235 7:-0.193022 8:0.825151 9:-0.528277 10:-0.239842 11:0.890836 12:-0.388426 13:-0.318254 14:0.953794 15:0.0166428 16:-0.385991 17:0.893075 18:0.253054 19:-0.372347 20:0.911832 21:0.207288 22:-0.379906 23:0.92719 24:0.129581 25:-0.388425 26:0.923819 27:-0.01063 28:-0.439207 29:0.919121 30:-0.0382083 31:-0.441747 32:0.974958 33:-0.0565744 34:-0.470199 35:0.888023 36:-0.0428674 37:-0.530703 38:0.859139 39:-0.0161885 40:-0.606392 41:0.83923 42:0.0599938 43:-0.696914 44:0.744412 45:0.023835 46:-0.476203 47:0.530911 48:0.726385 49:-0.611025 50:-0.00957664 51:-0.869889 52:0.251531 53:1 54:0.245927 55:0.758988 56:0.676556 57:0.0448675 58:0.841641 59:0.540798 60:-0.183119 61:0.683003 62:0.705945 63:-0.280691 64:0.461138 65:0.851271 66:-0.336432 67:0.0292213 68:0.971646 69:-0.349267 70:-0.621883 71:0.757756 72:-0.292796 73:-0.869685 74:0.508617 75:-0.0858601 76:-0.504002 77:0.812419 78:0.298836 79:0.135719 80:0.991254 81:0.0168419 82:0.130475 83:0.995181 84:-0.00658264 85:0.133344 86:0.994378 87:0.0246964 88:0.134071 89:0.994473 90:0.0178517 91:0.21988 92:-0.401689 93:-0.185641 94:-0.0778997 95:-0.299045 96:0.472281 97:0.179137 98:-0.206906 99:0.37728 100:0.0131507 101:-0.075949 102:-0.22548 103:0.168577 104:-0.0184863 105:-0.225387 106:0.289038 107:0.275409 108:0.0600555 109:0.208851 110:-0.19272 111:0.170955 112:-0.051201 113:-0.284758 114:-0.0556549 115:-0.0307381 116:0.27625 117:-0.517326 118:-0.157756 119:-0.0799084 120:-0.691001 121:-0.07629 122:0.124875 123:-0.627695 124:0.107583 125:0.140933 126:-0.449582 127:0.19056 128:-0.22431 129:-0.20476 130:0.364954 131:-0.206598 132:-0.191765 133:0.261539 134:0.352477 135:-0.125336 136:-0.395465 137:-0.310327 138:-0.761624 139:0.0336076 140:0.151723 141:0.893263 142:0.321807 143:1 144:-0.627659 145:-0.652483 146:0.148334 147:0.350159 148:-0.6215 149:0.54907 150:-0.218807 151:-1 152:0.0871066 153:0.26661 154:-0.451342 155:0.134432 156:0.29847 157:-0.156612 158:-0.192291 159:0.222687 160:0.43653 161:-0.559127 162:-0.441428 163:0.0452871 164:-0.986038 165:0.153706 166:0.861884 167:-0.99142 168:-0.514435 169:0.865544 170:-0.38455 171:0.0825949 172:-0.347665 173:-0.605985 174:0.187677 175:-0.523376 176:-0.322353 177:0.112988 178:-0.489038 179:0.383211 180:0.560925 181:0.554485 182:0.82312 183:0.0678494 184:-0.107769 185:0.362705 186:0.422293 187:-0.416677 188:-0.342325 189:-0.257905 190:0.324172 191:-0.285635 192:0.318784 193:0.0986689 194:-0.136945 195:0.274907 196:0.668613 197:0.0208993 198:0.137975 199:0.46385 200:-0.17311 201:-0.145094 202:0.20358 203:-0.0178938 204:-0.368842 205:0.0994758 206:-0.692314 207:-0.150585 208:-0.374799 209:0.0804366 210:-0.148194 211:0.272568 212:0.0325901 213:-0.181687 214:0.475283 215:0.306127 216:-0.374129 217:0.511384 218:-0.108627 219:-0.438514 220:0.0667486 221:-0.213624 222:-0.383736 223:0.547384 224:-0.174377 225:-0.487626 226:-0.715174 227:1 228:0.653056 229:-1 230:0.00401859 231:0.547437 232:-0.21795 233:-0.220757 234:0.462998 235:0.504884 236:0.136863 237:0.00726609 238:0.413854 239:0.112547 240:0.524746 241:0.172138 242:0.0278439 243:-0.125565 244:-0.277386 245:0.224476 246:-1 247:0.156631 248:0.115235 249:-0.605156 250:1 251:-0.826402 252:1 253:-0.721707 254:0.918239 255:0.363981 256:0.742765 257:0.580698 258:0.00903334 259:-0.150395 260:-0.221435 261:0.0179825 262:0.617085 263:-0.568706 264:-0.0891422 265:-0.545366 266:0.394011 267:-0.904735 268:0.724585 269:-0.810823 270:0.377625 
1.987084626896113 1:0.111029 2:-0.988424 3:0.413735 4:0.142417 5:-0.969418 6:0.444337 7:0.159774 8:-0.952769 9:0.462229 10:0.199158 11:-0.955482 12:0.438378 13:0.177729 14:-0.923525 15:0.512048 16:0.18015 17:-0.854681 18:0.515768 19:0.187266 20:-0.861656 21:0.475279 22:0.102114 23:-0.717321 24:0.696468 25:0.079562 26:-0.602859 27:0.793207 28:0.0302773 29:-0.497342 30:0.86583 31:0.0254176 32:-0.392312 33:0.927469 34:0.0191155 35:-0.306647 36:0.96226 37:0.0191351 38:-0.164527 39:0.987807 40:0.0564631 41:-0.959075 42:-0.285817 43:0.032716 44:-0.00190124 45:-1 46:0.525839 47:0.123591 48:0.830505 49:-0.710828 50:0.403213 51:0.597636 52:0.613163 53:0.326894 54:0.734409 55:-0.860778 56:0.0330662 57:-0.508856 58:-0.632876 59:-0.0830927 60:-0.773043 61:-0.900862 62:-0.0979475 63:-0.426965 64:-0.94033 65:-0.0924788 66:-0.332448 67:-0.928604 68:-0.0859543 69:-0.362954 70:-0.781879 71:0.603485 72:-0.233165 73:-0.748241 74:0.53036 75:0.427361 76:-0.525723 77:0.485469 78:0.697183 79:-0.522892 80:0.464938 81:0.711646 82:-0.493703 83:0.401579 84:0.771496 85:-0.551272 86:0.400051 87:0.733136 88:-0.519302 89:0.387103 90:0.76242 91:0.150418 92:0.675965 93:-0.875163 94:-0.220125 95:0.398078 96:0.0993163 97:-0.0472241 98:0.37935 99:0.156075 100:-0.136958 101:0.382943 102:-0.0812002 103:-0.0355673 104:0.24557 105:0.143831 106:0.0896742 107:0.404906 108:0.460657 109:-0.139659 110:-0.172968 111:0.614333 112:0.0659601 113:-0.258954 114:-0.898143 115:0.116788 116:0.208684 117:-0.497627 118:-0.0224508 119:-0.243483 120:-0.783769 121:0.0134178 122:-0.0790507 123:-0.756595 124:0.168157 125:-0.0502727 126:-0.550362 127:0.235556 128:-0.451934 129:-0.284197 130:0.310399 131:0.0112182 132:0.396167 133:-0.205991 134:0.00949447 135:0.968238 136:-0.632531 137:-0.865539 138:-0.261035 139:0.20685 140:0.439912 141:-0.572351 142:0.155067 143:0.150449 144:-0.753564 145:0.0843888 146:0.426308 147:0.501893 148:0.307093 149:-0.0758348 150:1 151:0.441818 152:-0.0898071 153:0.525514 154:0.705248 155:0.0319709 156:0.445433 157:0.680886 158:-0.00643832 159:0.60725 160:0.164504 161:-0.771761 162:-0.209992 163:0.350163 164:-0.253652 165:-0.208027 166:-0.155353 167:-0.712954 168:-0.598066 169:-0.366467 170:0.22551 171:-0.84715 172:-0.32961 173:-0.29014 174:-0.894363 175:0.0848761 176:-1 177:-0.704244 178:-0.0145623 179:0.334142 180:-0.452625 181:0.641113 182:0.490301 183:-0.0385999 184:-0.00495425 185:0.586071 186:0.460697 187:-0.285948 188:-0.335514 189:-0.244038 190:0.234718 191:-0.25254 192:0.358696 193:0.245094 194:-0.0686099 195:0.366638 196:0.600266 197:0.106495 198:0.124653 199:0.74573 200:-0.184443 201:-0.14908 202:0.258821 203:-0.183548 204:-0.407029 205:0.0958562 206:-0.564792 207:-0.175476 208:-0.376262 209:0.194314 210:-0.160156 211:0.272129 212:0.161027 213:-0.183785 214:0.476073 215:0.421473 216:-0.3691 217:-1 218:-0.0519949 219:-0.46207 220:-0.657995 221:0.969575 222:0.066181 223:-0.211653 224:0.927156 225:-1 226:0.0934297 227:-1 228:-0.732265 229:-0.422561 230:0.163632 231:-0.0614016 232:-0.318202 233:-0.227496 234:0.0652799 235:0.119914 236:0.0336644 237:-0.126728 238:0.490329 239:0.191042 240:0.623811 241:0.218911 242:0.0448362 243:0.145857 244:-0.291408 245:0.214188 246:-0.771307 247:0.215842 248:0.18823 249:0.168182 250:-0.2037 251:-0.361771 252:-0.57961 253:0.0384316 254:-0.662176 255:-0.0478673 256:0.752769 257:0.549326 258:-0.0726392 259:-0.112236 260:-0.180593 261:-0.0241228 262:0.616737 263:-0.505489 264:-0.0850308 265:-0.54395 266:0.383358 267:-0.904226 268:0.72661 269:-0.789084 270:0.381443 
8 1:0.0130034 2:-0.670079 3:0.80097 4:-0.21111 5:-0.00740583 6:0.978459 7:0.0055413 8:-0.0180713 9:1 10:-0.0666256 11:-0.0378614 12:1 13:-0.0666803 14:-0.0381304 15:1 16:-0.0604291 17:-0.00165136 18:1 19:-0.0217437 20:-0.015821 21:1 22:-0.0123978 23:-0.0298561 24:1 25:-0.0106361 26:-0.0399796 27:1 28:-0.0396097 29:-0.0425358 30:1 31:-0.0150431 32:-0.0423752 33:1 34:-0.00415108 35:-0.0718424 36:1 37:-0.00815677 38:-0.05058 39:1 40:-0.00469675 41:-0.0253297 42:1 43:-0.0123457 44:-0.0416731 45:1 46:-0.0293733 47:-0.0567878 48:1 49:-0.0154101 50:-0.0512324 51:1 52:-0.00142857 53:-0.0298826 54:1 55:-0.000152991 56:-0.0493074 57:1 58:-0.000255089 59:-0.0421345 60:0.999796 61:0.000254985 62:-0.0473253 63:0.999489 64:0.000509996 65:-0.0509534 66:0.999285 67:0.000968943 68:-0.0410081 69:0.999285 70:0.00117269 71:-0.0477051 72:0.999183 73:0.00132558 74:-0.0448109 75:0.999183 76:0.00158058 77:-0.0538378 78:0.999081 79:0.00163149 80:-0.0537634 81:0.999183 82:0.0018865 83:-0.0468526 84:0.999081 85:0.00219265 86:-0.0437005 87:0.999082 88:0.00249885 89:-0.0446264 90:0.999082 91:0.439021 92:0.199864 93:-0.95404 94:-0.232889 95:0.544093 96:-0.275326 97:0.228113 98:0.307604 99:0.757063 100:-0.0660262 101:0.397653 102:0.125074 103:0.00352734 104:0.358965 105:0.410649 106:0.137054 107:0.456289 108:0.332562 109:-0.0274824 110:-0.13048 111:0.0940544 112:-0.117987 113:-0.136035 114:-0.217499 115:-0.140179 116:0.285988 117:0.21343 118:-0.240727 119:-0.078147 120:0.0638896 121:-0.116722 122:0.104483 123:-0.150755 124:0.0614654 125:0.115323 126:-0.0604228 127:0.109044 128:-0.25915 129:0.0498595 130:0.266439 131:-0.281608 132:0.00279065 133:0.112684 134:0.28686 135:-0.0336061 136:0.196881 137:0.148284 138:-0.0478137 139:0.0106573 140:0.199381 141:0.276023 142:0.32986 143:0.227582 144:-0.169069 145:-0.260211 146:0.293436 147:-0.159767 148:-0.0574866 149:-0.106933 150:-0.289444 151:-0.223482 152:-0.219072 153:-0.145076 154:-0.0754925 155:-0.138284 156:-0.0496858 157:-0.0683526 158:-0.245772 159:-0.0318895 160:-0.0845658 161:-0.197438 162:-0.441844 163:0.256446 164:0.18344 165:0.0517411 166:0.147323 167:-0.53116 168:-0.00559959 169:0.0696494 170:0.227201 171:-0.35158 172:-0.00110411 173:0.0718429 174:-0.379469 175:-0.0480075 176:-0.00639135 177:-0.251019 178:0.0774524 179:0.507835 180:-0.0558932 181:0.609158 182:-1 183:0.0487893 184:-0.0515824 185:0.382329 186:0.480824 187:-0.390305 188:-0.0826601 189:-0.246069 190:0.31756 191:-0.265159 192:0.332456 193:0.242487 194:-0.115358 195:0.350937 196:0.697557 197:0.0855121 198:0.148997 199:0.262104 200:-0.224109 201:-0.167018 202:0.218712 203:-0.206581 204:-0.384704 205:0.00954818 206:-0.586792 207:-0.148043 208:-0.441508 209:0.176176 210:-0.134936 211:0.211932 212:0.149578 213:-0.160714 214:0.438545 215:0.424566 216:-0.340663 217:0.475546 218:-0.0279127 219:-0.408977 220:0.022557 221:-0.137867 222:-0.351671 223:0.538907 224:-0.127299 225:-0.414849 226:0.0797065 227:-0.0194301 228:-0.28505 229:-0.118195 230:-0.00492905 231:-0.0215854 232:-0.246352 233:-0.250238 234:0.142734 235:0.155373 236:-0.156002 237:-0.127846 238:0.490977 239:0.151065 240:0.62361 241:0.165223 242:0.0334021 243:0.153958 244:-0.268675 245:0.213257 246:-0.771109 247:0.217763 248:0.206274 249:0.1691 250:-0.193002 251:-0.358799 252:-0.567015 253:0.0296553 254:-0.64878 255:0.0483412 256:0.752942 257:0.555723 258:0.0105234 259:-0.156872 260:-0.154705 261:0.022076 262:0.591666 263:-0.524368 264:-0.0898897 265:-0.543875 266:0.384289 267:-0.905018 268:0.72337 269:-0.803885 270:0.366934 
2.792616270801615 1:-0.0687023 2:-0.624953 3:-0.826704 4:-0.0907691 5:-0.524322 6:-0.885049 7:-0.239507 8:-0.372888 9:-0.920988 10:-0.0687831 11:-0.136695 12:-0.995301 13:-0.000767617 14:-0.0134232 15:-1 16:0.0710778 17:-0.329033 18:-0.947662 19:0.480545 20:-0.209257 21:-0.865186 22:0.109522 23:0.309132 24:-0.951439 25:-0.619917 26:0.141077 27:-0.808971 28:-0.235484 29:-0.360736 30:-0.942558 31:0.577031 32:0.00880311 33:-0.847995 34:0.539896 35:-0.299589 36:-0.810789 37:-0.00312933 38:-0.756845 39:-0.671824 40:-0.224729 41:-0.866967 42:-0.448672 43:-0.378909 44:-0.92467 45:-0.0998826 46:-0.198702 47:-0.953018 48:0.33946 49:0.093081 50:-1 51:0.17976 52:0.401224 53:-0.916649 54:0.193013 55:-0.272885 56:-0.907967 57:0.406054 58:-0.344421 59:-0.876805 60:0.413346 61:0.582131 62:-0.636074 63:0.535521 64:0.582619 65:-0.638136 66:0.534532 67:0.582641 68:-0.623733 69:0.534447 70:0.582624 71:-0.637272 72:0.534487 73:0.404609 74:-0.448481 75:0.805003 76:0.274053 77:-0.30718 78:0.915289 79:0.197614 80:-0.223028 81:0.957028 82:0.166675 83:-0.180336 84:0.969893 85:0.146091 86:-0.152977 87:0.977345 88:0.136009 89:-0.142068 90:0.980618 91:0.257438 92:0.627262 93:0.286628 94:-0.125713 95:0.170302 96:0.377439 97:0.0402888 98:-0.119911 99:0.577807 100:0.306896 101:-0.0551629 102:0.762326 103:0.556143 104:-0.449244 105:0.799744 106:0.360239 107:0.0144654 108:-0.0638162 109:-0.713269 110:-0.50679 111:-0.885739 112:-0.402798 113:-0.626586 114:-0.881964 115:-0.0233069 116:0.10508 117:-0.348962 118:-0.471993 119:0.0136801 120:-0.374533 121:-1 122:-0.303838 123:0.149227 124:-0.173987 125:0.116193 126:-0.249548 127:0.556451 128:0.0543563 129:0.13793 130:0.83037 131:1 132:-0.349779 133:0.305515 134:0.814119 135:-0.570592 136:0.235576 137:0.823464 138:-0.859123 139:-0.0618618 140:0.615958 141:-0.470515 142:-0.30834 143:0.646535 144:-0.796728 145:-0.157179 146:0.154416 147:-0.210797 148:0.0632274 149:0.169194 150:-0.767893 151:-0.517386 152:-0.303988 153:-0.15436 154:-0.422979 155:-0.174321 156:0.231274 157:-0.33313 158:-0.235557 159:0.169523 160:-0.327829 161:-0.223523 162:-0.332066 163:0.275623 164:-0.00879671 165:-0.0680525 166:0.291221 167:-0.708293 168:-0.183623 169:0.342943 170:-0.0463912 171:-0.492696 172:0.290641 173:-0.235302 174:-0.530638 175:0.227957 176:-0.323828 177:-0.375042 178:0.283405 179:0.358307 180:-0.143768 181:0.590329 182:0.534822 183:0.0472309 184:-0.273416 185:0.412342 186:0.703137 187:-0.39897 188:-0.188556 189:0.0962576 190:0.0765541 191:-0.0292857 192:0.440812 193:0.227254 194:0.0417984 195:0.0806927 196:0.962423 197:-0.0850958 198:-0.749742 199:0.418518 200:-0.354912 201:-1 202:0.127641 203:-0.381375 204:-1 205:-0.195519 206:-0.545011 207:-1 208:-0.448432 209:0.289471 210:-1 211:-0.236645 212:0.172427 213:0.0440436 214:0.628414 215:0.507184 216:-0.431519 217:0.700004 218:-0.499331 219:-1 220:0.197787 221:-0.404826 222:-0.339107 223:0.674417 224:-0.365355 225:-0.45726 226:0.181538 227:-0.231895 228:-0.450963 229:-0.504236 230:-0.191605 231:0.190549 232:-0.108034 233:0.770643 234:-0.141296 235:0.12176 236:-1 237:0.027164 238:0.70365 239:-0.249052 240:0.594672 241:0.164834 242:0.056429 243:0.152621 244:-0.269482 245:0.21311 246:-0.771076 247:0.217239 248:0.206787 249:0.168683 250:-0.192625 251:-0.359561 252:-0.568441 253:0.031354 254:-0.649242 255:0.0511848 256:0.752423 257:0.556099 258:0.0100577 259:-0.15593 260:-0.156121 261:0.0219298 262:0.592247 263:-0.523438 264:-0.0917585 265:-0.542608 266:0.385427 267:-0.904565 268:0.722965 269:-0.805273 270:0.365407 
1.70286282248419 1:0.689287 2:-0.776944 3:0.239214 4:-0.00195092 5:-0.19058 6:-0.991323 7:-0.0416624 8:-0.107415 9:-0.999183 10:-0.073509 11:-0.0648064 12:-0.998978 13:-0.108029 14:0.0114979 15:-0.993363 16:-0.00739209 17:-0.0861802 18:-0.999387 19:0.216708 20:-0.40812 21:-0.895179 22:0.0269047 23:-0.563554 24:-0.832848 25:-0.132534 26:-0.690784 27:-0.740731 28:-0.208123 29:-0.73047 30:-0.690186 31:-0.288308 32:-0.943682 33:-0.39084 34:-0.243479 35:-1 36:-0.216901 37:-0.154158 38:-1 39:0.0504098 40:0.0369614 41:-0.974147 42:0.224182 43:-0.193621 44:-0.836185 45:-0.515847 46:-0.492539 47:0.463374 48:-0.806485 49:-0.70152 50:0.751112 51:-0.0849997 52:0.134592 53:0.762113 54:0.693141 55:0.745831 56:0.66074 57:0.203614 58:0.67369 59:-0.430328 60:-0.612405 61:-0.832832 62:-0.287461 63:0.479096 64:-0.442166 65:0.689513 66:0.600429 67:0.491866 68:0.401103 69:-0.784383 70:0.474736 71:0.324798 72:0.823148 73:-0.102478 74:0.991409 75:0.293109 76:0.0621527 77:0.994941 78:0.122576 79:-0.0387478 80:1 81:-0.0122486 82:-0.0500178 83:1 84:-0.070572 85:-0.049513 86:1 87:-0.0706195 88:-0.0494161 89:1 90:-0.0701826 91:0.144763 92:0.449261 93:0.431712 94:0.000776633 95:0.183624 96:0.720012 97:0.180281 98:-0.0513906 99:0.677972 100:-0.00245298 101:-0.00591602 102:0.340035 103:-0.189447 104:0.0153021 105:1 106:0.08239 107:0.258868 108:0.862532 109:-0.0589337 110:-0.071972 111:-0.0859863 112:-0.115309 113:0.0319075 114:-1 115:-0.00413781 116:0.448458 117:-0.405751 118:-0.00946088 119:0.187999 120:-0.697647 121:0.066987 122:0.406329 123:-0.825333 124:0.20531 125:0.342024 126:-0.662616 127:0.19683 128:-0.0814826 129:-0.355321 130:0.201169 131:-0.144988 132:-0.389269 133:0.17868 134:0.137353 135:0.0382637 136:0.326911 137:-0.832083 138:0.227981 139:0.0328145 140:-0.759379 141:0.0615373 142:-0.267535 143:-0.774582 144:-0.59626 145:-0.85819 146:-1 147:-1 148:-1 149:-0.164989 150:0.0826921 151:-0.262061 152:-0.516308 153:-0.488017 154:-1 155:-1 156:-0.712479 157:-0.724152 158:-0.0281569 159:0.623802 160:-0.347155 161:0.652751 162:-0.90739 163:0.699567 164:-0.0341377 165:0.0106972 166:0.780835 167:-0.883533 168:0.436259 169:0.533787 170:0.189792 171:-0.358839 172:0.401442 173:0.0945162 174:-0.857364 175:0.167713 176:-0.0526057 177:-0.713073 178:0.146743 179:0.524614 180:-0.433396 181:0.566065 182:0.4732 183:0.0707264 184:-0.165122 185:0.440335 186:0.40956 187:-0.372347 188:-0.337918 189:-0.248564 190:0.24483 191:-0.303254 192:0.303074 193:0.128173 194:-0.080022 195:0.412694 196:0.857107 197:0.128393 198:0.184759 199:0.532811 200:-0.0500762 201:-0.167872 202:0.274344 203:-0.310572 204:-0.395122 205:0.125312 206:-0.692512 207:-0.176185 208:-0.360414 209:0.0695615 210:-0.179247 211:0.267547 212:0.014888 213:-0.227409 214:0.463719 215:0.295201 216:-0.421911 217:0.487063 218:-0.114235 219:-0.469999 220:0.0123352 221:-0.222886 222:-0.408778 223:-0.111841 224:-0.119068 225:-0.0471178 226:-0.486977 227:-0.0949025 228:0.313994 229:-0.613374 230:-0.188057 231:0.479837 232:-0.344011 233:-0.557288 234:1 235:0.514499 236:-0.630714 237:0.404777 238:0.182973 239:-1 240:0.331332 241:-1 242:-1 243:1 244:0.585026 245:-1 246:-0.522541 247:0.480721 248:-1 249:-1 250:0.260839 251:1 252:0.149952 253:0.00162786 254:1 255:-0.183886 256:1 257:0.851516 258:1 259:1 260:-1 261:0.0858187 262:1 263:-1 264:-0.246496 265:-0.543204 266:0.393287 267:-0.904565 268:0.722965 269:-0.80666 270:0.368461 
3.446470667030243 1:0.187997 2:-0.0385337 3:-0.982946 4:0.371804 5:0.177687 6:-0.905263 7:-0.0427912 8:-0.141959 9:-0.996529 10:-0.377819 11:-0.311252 12:-0.893151 13:0.297886 14:0.930905 15:-0.229018 16:0.0540191 17:0.742182 18:0.674827 19:-0.822826 20:-0.0074241 21:0.585321 22:-0.0998508 23:0.201774 24:-0.979042 25:0.231491 26:-0.976819 27:-0.0455795 28:0.0874384 29:-0.990491 30:-0.136192 31:0.244735 32:-0.950134 33:0.368977 34:0.351202 35:-0.8718 36:0.449903 37:0.390756 38:-0.833359 39:0.411475 40:0.390954 41:-0.819657 42:0.41083 43:0.385391 44:-0.821489 45:0.413566 46:0.093984 47:-0.673326 48:0.747481 49:0.0641225 50:-0.541787 51:0.842663 52:0.0605102 53:-0.443757 54:0.895194 55:0.0462543 56:-0.35375 57:0.940279 58:0.0419877 59:-0.313122 60:0.951972 61:0.0389107 62:-0.289482 63:0.960033 64:0.0363117 65:-0.269915 66:0.965979 67:0.034117 68:-0.240326 69:0.970584 70:0.0324785 71:-0.233744 72:0.974167 73:0.0311002 74:-0.217373 75:0.977029 76:0.0289094 77:-0.201053 78:0.981323 79:0.0274294 80:-0.188455 81:0.983668 82:0.026768 83:-0.17398 84:0.984896 85:0.0254449 86:-0.158395 87:0.986937 88:0.0244276 89:-0.147799 90:0.988881 91:0.828559 92:-0.112711 93:0.580896 94:0.422995 95:-0.800931 96:1 97:-0.219319 98:-0.12542 99:-0.0853474 100:-0.14786 101:0.180775 102:-0.507462 103:0.212669 104:-0.268626 105:-0.554224 106:-0.244873 107:0.0397484 108:-1 109:0.23551 110:0.0512445 111:-1 112:0.97014 113:0.674768 114:-0.407944 115:-0.852221 116:0.454165 117:0.348296 118:-0.438805 119:0.66287 120:-0.0222329 121:-0.191505 122:0.51005 123:-0.00646261 124:-0.040985 125:0.449894 126:0.00378702 127:-0.122136 128:-0.0127867 129:0.114222 130:0.0828057 131:-0.0774968 132:0.00521272 133:-0.028237 134:0.38518 135:-0.0962901 136:0.341282 137:0.203256 138:-0.321045 139:0.1149 140:0.119862 141:0.037887 142:0.453764 143:0.0403488 144:-0.410518 145:-0.136189 146:0.110062 147:-0.36013 148:0.0839887 149:-0.294991 150:-0.534629 151:-0.112097 152:-0.389924 153:-0.28184 154:0.0169837 155:-0.355789 156:-0.195937 157:0.0106642 158:-0.428191 159:-0.156029 160:-0.0602486 161:-0.373857 162:-0.480219 163:0.276056 164:0.0904689 165:0.0208634 166:0.163383 167:-0.585813 168:-0.0231256 169:0.0787592 170:0.15735 171:-0.362407 172:0.0111061 173:0.000395465 174:-0.388908 175:-0.0442422 176:-0.0719436 177:-0.258659 178:0.0830533 179:0.471218 180:-0.0618711 181:0.591169 182:0.667257 183:0.186646 184:0.172116 185:0.521524 186:-0.415824 187:0.0513626 188:-0.537825 189:-0.968436 190:-0.214105 191:-0.792778 192:-0.749321 193:-0.49554 194:0.0160869 195:-0.816919 196:-1 197:0.313655 198:0.241218 199:-1 200:0.162206 201:-0.318888 202:0.0929306 203:0.272144 204:-0.692118 205:-0.282202 206:-0.0604115 207:0.335639 208:-0.0181889 209:0.358178 210:0.375759 211:0.592952 212:-0.552685 213:-0.137464 214:0.571995 215:0.186989 216:-0.310098 217:0.452551 218:-0.16196 219:-0.408653 220:0.023095 221:-0.176659 222:-0.351671 223:0.538071 224:-0.125549 225:-0.415355 226:0.0802106 227:-0.018538 228:-0.285308 229:-0.118325 230:-0.00467789 231:-0.0218041 232:-0.246093 233:-0.250693 234:0.141584 235:0.15368 236:-0.155911 237:-0.127846 238:0.489601 239:0.151736 240:0.623166 241:0.165922 242:0.0334551 243:0.154273 244:-0.268633 245:0.214041 246:-0.771109 247:0.217763 248:0.206889 249:0.167849 250:-0.192373 251:-0.35979 252:-0.56654 253:0.0306462 254:-0.645084 255:0.0488152 256:0.7527 257:0.556005 258:0.0118272 259:-0.157461 260:-0.156121 261:0.0229532 262:0.590157 263:-0.523796 264:-0.0876472 265:-0.543353 266:0.385737 267:-0.905018 268:0.714054 269:-0.802498 270:0.36617 
2.374216790899789 1:0.0652277 2:-0.152688 3:0.994486 4:0.0393264 5:-0.0902019 6:0.99949 7:-0.0418676 8:0.0245749 9:0.99755 10:-0.0144347 11:0.126897 12:0.988968 13:0.0224656 14:0.210225 15:0.972738 16:0.0538124 17:0.300547 18:0.954408 19:0.0745943 20:0.347192 21:0.936841 22:0.0711456 23:0.394627 24:0.919746 25:0.0189781 26:0.42119 27:0.906041 28:0.478976 29:0.82229 30:-0.321375 31:-0.0894284 32:-0.873913 33:0.558284 34:0.166607 35:-0.655852 36:-0.781971 37:0.429231 38:-0.493581 39:-0.768135 40:0.748315 41:-0.384237 42:-0.538714 43:0.873765 44:0.077848 45:0.479916 46:0.847322 47:0.0661213 48:0.509791 49:0.849519 50:0.071223 51:0.504669 52:0.850918 53:0.0939168 54:0.521222 55:0.599674 56:0.0271217 57:0.800827 58:0.4486 59:0.0420276 60:0.893726 61:0.397624 62:0.0432841 63:0.916999 64:0.274174 65:0.0479873 66:0.960768 67:0.238513 68:0.0577054 69:0.970175 70:0.20053 71:0.0521674 72:0.978659 73:0.174059 74:0.053614 75:0.983767 76:0.154948 77:0.0399009 78:0.986936 79:0.135821 80:0.0370942 81:0.989895 82:0.121399 83:0.0409063 84:0.991733 85:0.112845 86:0.0418605 87:0.992856 88:0.11051 89:0.0401228 90:0.993165 91:0.111138 92:0.222783 93:-0.912552 94:-0.0537228 95:0.0946711 96:0.227533 97:0.15397 98:-0.141341 99:-0.819493 100:-0.00102208 101:-0.0710882 102:-1 103:0.0737801 104:-0.0822302 105:-0.580122 106:0.190012 107:0.144591 108:-0.426174 109:0.0437322 110:-0.316682 111:-0.663905 112:-0.0682964 113:-0.27282 114:-0.66498 115:-0.0396048 116:0.186694 117:-0.0713315 118:-0.498724 119:-0.609735 120:0.656606 121:-0.173307 122:0.543276 123:-0.0417719 124:-0.300243 125:-0.299818 126:1 127:-0.0450301 128:0.121603 129:0.564351 130:0.0269118 131:0.0999939 132:0.415385 133:-0.304325 134:0.268799 135:0.598926 136:0.050511 137:0.179888 138:0.00921627 139:-0.0550709 140:0.160653 141:0.207717 142:0.34001 143:0.194043 144:-0.403896 145:-0.0626868 146:0.244899 147:-0.410852 148:0.191648 149:-0.171935 150:-0.653663 151:0.109251 152:-0.222192 153:-0.356289 154:0.243037 155:-0.126129 156:-0.272778 157:0.240605 158:-0.239677 159:-0.183736 160:0.124943 161:-0.200582 162:-0.507663 163:0.398158 164:0.183359 165:0.0242015 166:0.239722 167:-0.526904 168:-0.0185441 169:0.126499 170:0.232484 171:-0.357024 172:0.0542313 173:0.0756657 174:-0.384226 175:0.00407907 176:-0.00131105 177:-0.255263 178:0.120979 179:0.513322 180:-0.0596792 181:0.601335 182:0.46853 183:0.0148645 184:0.0800256 185:0.479967 186:0.333984 187:-0.118046 188:-0.375376 189:-0.30264 190:0.431257 191:-0.320317 192:0.194378 193:0.343351 194:-0.212292 195:0.192311 196:0.734027 197:0.0202331 198:0.0151455 199:0.335688 200:-0.250853 201:-0.167815 202:0.229704 203:-0.223926 204:-0.457634 205:0.0137294 206:-0.594442 207:-0.248729 208:0.0370118 209:0.615761 210:0.404926 211:-0.341002 212:1 213:0.238015 214:0.544738 215:0.994861 216:-0.433131 217:0.222146 218:-0.062185 219:-0.545674 220:0.228913 221:0.712812 222:-0.185673 223:0.543742 224:-0.565717 225:-0.333873 226:-0.0152355 227:0.0955091 228:-0.285954 229:-0.108391 230:0.0693206 231:-0.0226063 232:-0.241878 233:-0.245814 234:0.143501 235:0.155142 236:-0.152638 237:-0.127995 238:0.492595 239:0.151795 240:0.623086 241:0.165378 242:0.0327669 243:0.15443 244:-0.268803 245:0.213943 246:-0.771175 247:0.217152 248:0.207505 249:0.168766 250:-0.193002 251:-0.359637 252:-0.56654 253:0.0297969 254:-0.647856 255:0.05 256:0.752735 257:0.556052 258:0.010989 259:-0.153103 260:-0.155894 261:0.0245614 262:0.591434 263:-0.522795 264:-0.0887685 265:-0.542608 266:0.384082 267:-0.904339 268:0.721547 269:-0.807123 270:0.369989 
8 1:0.27044 2:0.975776 3:0.0284401 4:0.222097 5:0.955139 6:-0.187178 7:0.0721396 8:0.794659 9:-0.596978 10:-0.197103 11:0.748229 12:-0.628071 13:-0.268615 14:0.609177 15:-0.737799 16:-0.649315 17:0.424089 18:-0.636392 19:-0.674782 20:0.196252 21:-0.72771 22:-0.502855 23:0.125148 24:-0.859224 25:-0.593743 26:-0.229615 27:-0.808037 28:-0.673684 29:-0.387628 30:-0.70802 31:-0.584604 32:-0.501777 33:-0.697337 34:-0.545329 35:-0.537449 36:-0.682186 37:-0.478787 38:-0.645373 39:-0.615676 40:-0.424852 41:-0.660038 42:-0.620552 43:-0.411934 44:-0.655516 45:-0.638953 46:-0.419655 47:-0.620051 48:-0.745601 49:-0.360844 50:-0.575802 51:-0.814805 52:-0.259286 53:-0.515795 54:-0.820931 55:-0.111836 56:-0.535375 57:-0.851156 58:-0.13433 59:-0.542188 60:-0.844165 61:-0.11102 62:-0.557801 63:-0.840642 64:-0.108833 65:-0.558157 66:-0.841132 67:-0.114386 68:-0.538041 69:-0.843726 70:-0.1111 71:-0.539524 72:-0.850309 73:-0.111655 74:-0.527815 75:-0.85462 76:-0.112018 77:-0.519331 78:-0.857114 79:-0.112165 80:-0.517209 81:-0.857814 82:-0.117116 83:-0.485954 84:-0.86998 85:-0.123451 86:-0.469563 87:-0.8756 88:-0.129073 89:-0.466735 90:-0.876466 91:0.233464 92:0.270507 93:-0.549345 94:-0.199527 95:-0.0308889 96:0.000559354 97:-0.221035 98:-0.290273 99:-0.475667 100:-0.55015 101:0.281571 102:-0.109125 103:0.629997 104:-0.601262 105:0.19239 106:0.1824 107:-0.133082 108:-0.213608 109:0.0939044 110:-0.340223 111:-0.0149004 112:0.213209 113:-0.354087 114:-0.364438 115:0.245144 116:0.305663 117:0.144074 118:-0.075612 119:-0.107034 120:0.0656024 121:0.00406369 122:0.0997949 123:-0.10252 124:0.093174 125:0.201731 126:-0.0588402 127:0.132885 128:-0.140964 129:0.0355617 130:0.245616 131:-0.166151 132:-0.0363837 133:0.0532998 134:0.333868 135:-0.0719669 136:0.130189 137:0.199489 138:-0.0451805 139:0.00416378 140:0.319332 141:0.153026 142:0.231534 143:0.412206 144:-0.224932 145:-0.291874 146:0.321632 147:-0.180388 148:-0.0270525 149:-0.144851 150:-0.275566 151:-0.225407 152:-0.254898 153:-0.132334 154:-0.0835598 155:-0.168671 156:-0.0461283 157:-0.0449929 158:-0.262168 159:-0.035038 160:-0.0607023 161:-0.189636 162:-0.446537 163:0.263055 164:0.163909 165:0.0622108 166:0.134047 167:-0.543118 168:0.00407243 169:0.0772601 170:0.218747 171:-0.348979 172:0.0118854 173:0.0884524 174:-0.38483 175:-0.0368685 176:0.0231072 177:-0.258574 178:0.0819331 179:0.492007 180:-0.0490186 181:0.622594 182:0.628687 183:-0.074083 184:0.140059 185:0.500168 186:0.289932 187:-0.0586462 188:-0.276023 189:-0.246765 190:0.639463 191:-0.394683 192:0.285156 193:1 194:-0.385948 195:0.150442 196:0.724563 197:-0.508326 198:-0.193165 199:0.203673 200:0.0999163 201:-0.168669 202:0.225537 203:-0.324058 204:-0.612298 205:0.0157264 206:-0.331351 207:-0.203677 208:-0.333788 209:0.186002 210:-0.0469035 211:0.360304 212:0.056209 213:-0.210271 214:0.515685 215:0.366843 216:-0.375484 217:0.496609 218:-0.0147536 219:-0.444032 220:0.0470737 221:-0.126899 222:-0.365195 223:0.531803 224:-0.128134 225:-0.451086 226:0.0686719 227:-0.0150766 228:-0.298101 229:-0.154098 230:-0.00354766 231:-0.0217312 232:-0.295636 233:-0.239322 234:0.130752 235:0.0927621 236:-0.151956 237:-0.117413 238:0.430525 239:0.181179 240:0.615871 241:0.118371 242:0.143878 243:0.214126 244:-0.255545 245:0.271458 246:-0.780152 247:0.233047 248:0.212118 249:0.168349 250:-0.179787 251:-0.348397 252:-0.564876 253:0.0211621 254:-0.643391 255:0.0516588 256:0.747888 257:0.55323 258:-0.000186254 259:-0.166294 260:-0.15986 261:0.0138889 262:0.589693 263:-0.524654 264:-0.100729 265:-0.546783 266:0.381497 267:-0.905357 268:0.716687 269:-0.833488 270:0.361588 
2.884291326688882 1:0.0405896 2:-0.37628 3:0.94843 4:-0.0288531 5:-0.327188 6:0.963555 7:-0.359466 8:-0.273522 9:0.909045 10:-0.639801 11:-0.208904 12:0.760458 13:-0.805537 14:-0.167656 15:0.58689 16:-0.9206 17:-0.0889669 18:0.397496 19:-1 20:-0.0393733 21:0.172689 22:-1 23:0.00840509 24:-0.0844962 25:-0.924296 26:0.327342 27:-0.282551 28:-0.711331 29:0.690389 30:0.290684 31:-0.0149393 32:0.682323 33:0.774324 34:0.979398 35:0.0436111 36:0.225003 37:0.344072 38:0.196391 39:-0.926025 40:0.0452318 41:0.16255 42:-1 43:-0.309979 44:0.253687 45:-0.923442 46:-0.171894 47:0.329034 48:-0.980053 49:-0.16072 50:0.33424 51:-1 52:0.0163265 53:0.0886873 54:-1 55:-0.0461523 56:-0.0149143 57:-1 58:-0.0685169 59:-0.0403165 60:-1 61:-0.0750166 62:-0.0572158 63:-0.999898 64:-0.0797634 65:-0.0676907 66:-0.998263 67:-0.0834821 68:-0.0630612 69:-0.99714 70:-0.0848927 71:-0.0723544 72:-0.996324 73:-0.0868767 74:-0.0721748 75:-0.995712 76:-0.0886657 77:-0.0828473 78:-0.994897 79:-0.0896299 80:-0.0841179 81:-0.994896 82:-0.0903992 83:-0.0781218 84:-0.994591 85:-0.0910203 86:-0.076412 87:-0.994285 88:-0.0916416 89:-0.0787103 90:-0.993369 91:0.284116 92:0.143546 93:-0.59282 94:0.390039 95:-0.135345 96:-0.078931 97:0.254066 98:-0.0994895 99:-0.843003 100:0.184519 101:-0.0016309 102:-0.847963 103:0.38786 104:0.0110564 105:-0.349311 106:0.520031 107:0.249497 108:-0.0755034 109:0.399206 110:-0.231304 111:-0.112298 112:0.154002 113:-0.213395 114:-0.126428 115:-0.621179 116:0.320829 117:-0.00582245 118:-0.174876 119:-0.614432 120:0.211675 121:-0.42086 122:-0.411896 123:-0.284531 124:-0.636412 125:-0.0749097 126:0.0726882 127:-1 128:-0.492675 129:0.259073 130:-0.421213 131:-0.683585 132:0.25079 133:0.0337257 134:0.319436 135:0.188149 136:0.303119 137:0.0496409 138:0.39526 139:0.18276 140:0.204048 141:0.426949 142:0.555134 143:0.30968 144:-0.0842228 145:-0.115839 146:0.557724 147:-0.126897 148:0.064407 149:0.141155 150:-0.300387 151:-0.239717 152:-0.0687431 153:-0.155148 154:-0.0945992 155:0.0230687 156:-0.0657338 157:-0.0758684 158:-0.121899 159:-0.0375568 160:-0.0753108 161:-0.126754 162:-0.440299 163:0.274648 164:0.203051 165:0.0509825 166:0.153961 167:-0.520014 168:-0.00625409 169:0.072417 170:0.239776 171:-0.351943 172:0.00227317 173:0.0827841 174:-0.379847 175:-0.0423596 176:0.00540806 177:-0.251783 178:0.0785726 179:0.508363 180:-0.0561921 181:0.585777 182:0.527138 183:-0.159314 184:0.0217404 185:1 186:0.474354 187:-0.220897 188:-0.134072 189:-0.191181 190:0.33208 191:-0.0488889 192:0.377123 193:0.24976 194:0.266328 195:0.401941 196:0.693406 197:0.304246 198:0.19142 199:0.244639 200:-0.112065 201:-0.137805 202:0.213286 203:-0.101858 204:-0.365015 205:-0.153145 206:-0.709716 207:0.17518 208:-0.862876 209:0.0300618 210:0.24477 211:0.271983 212:-0.48789 213:0.436901 214:0.351996 215:-1 216:-0.503095 217:0.201311 218:0.399886 219:-0.463368 220:-0.260808 221:0.190064 222:-0.330163 223:0.551921 224:-0.117 225:-0.414849 226:0.0812749 227:-0.0218923 228:-0.286471 229:-0.116247 230:-0.00549416 231:-0.0208561 232:-0.245834 233:-0.250403 234:0.143788 235:0.155757 236:-0.155911 237:-0.128144 238:0.491139 239:0.150715 240:0.623408 241:0.167398 242:0.0313377 243:0.154037 244:-0.268378 245:0.214237 246:-0.771109 247:0.218811 248:0.203814 249:0.168432 250:-0.193002 251:-0.360437 252:-0.569392 253:0.0271074 254:-0.646162 255:0.0459716 256:0.753358 257:0.556569 258:0.0101509 259:-0.155341 260:-0.156347 261:0.0241228 262:0.589693 263:-0.524225 264:-0.0883947 265:-0.542682 266:0.385841 267:-0.905131 268:0.725597 269:-0.810823 270:0.369225 
0.0233144331269462 1:-0.101974 2:-0.405434 3:0.93444 4:-0.108019 5:-0.220949 6:0.981114 7:-0.141919 8:0.409777 9:0.89169 10:0.0111471 11:0.938655 12:0.348996 13:0.0313699 14:0.943847 15:-0.34174 16:-0.012458 17:0.734544 18:-0.684948 19:-0.175094 20:0.214889 21:-0.968574 22:-0.496579 23:-0.124633 24:-0.862393 25:-0.346611 26:-0.787797 27:0.5077 28:0.397529 29:-0.629346 30:0.659495 31:0.807138 32:-0.268194 33:-0.56792 34:0.918823 35:-0.422627 36:-0.145831 37:0.88006 38:-0.468007 39:-0.136168 40:0.874209 41:-0.433745 42:-0.199159 43:0.882819 44:-0.444633 45:-0.131833 46:0.880831 47:-0.468408 48:-0.157746 49:0.882615 50:-0.462348 51:-0.169419 52:0.496633 53:-0.542476 54:-0.683028 55:0.355092 56:-0.433682 57:-0.837885 58:0.29524 59:-0.365415 60:-0.889843 61:0.255342 62:-0.319685 63:-0.920474 64:0.23929 65:-0.302542 66:-0.930221 67:0.21332 68:-0.257653 69:-0.945559 70:0.193596 71:-0.239482 72:-0.956093 73:0.171306 74:-0.205494 75:-0.966718 76:0.159537 77:-0.195478 78:-0.971219 79:0.149587 80:-0.18259 81:-0.975299 82:0.138021 83:-0.159422 84:-0.979487 85:0.131508 86:-0.147968 87:-0.981631 88:0.123872 89:-0.138383 90:-0.983372 91:0.00577821 92:0.0122889 93:-0.469474 94:-0.304744 95:-0.216812 96:0.270603 97:0.187073 98:-0.418447 99:-0.227988 100:0.0271872 101:-0.46065 102:-0.566291 103:0.104424 104:-0.303299 105:0.164561 106:0.261607 107:0.0816981 108:0.428547 109:0.230942 110:-0.0676657 111:0.380142 112:-0.0212269 113:-0.0199154 114:-0.0732875 115:-0.149299 116:0.691264 117:-0.271039 118:0.541072 119:0.404533 120:-0.0177795 121:-0.799474 122:0.349956 123:0.0327243 124:-0.0741874 125:0.124286 126:-0.122993 127:-0.107459 128:-0.245483 129:0.110385 130:0.139187 131:-0.215936 132:0.00895114 133:0.0414628 134:0.267196 135:-0.390821 136:0.193581 137:0.129641 138:-0.317026 139:0.0373748 140:0.184033 141:-0.0221721 142:0.670783 143:0.234519 144:-0.0377873 145:0.126654 146:0.273096 147:0.0730356 148:0.271469 149:-0.134527 150:0.0426582 151:0.123813 152:-0.279563 153:0.0860385 154:0.241593 155:-0.262658 156:0.230009 157:0.27402 158:-0.371877 159:0.307156 160:0.182288 161:-0.376652 162:-0.255554 163:0.483532 164:0.0531838 165:0.203475 166:0.305353 167:-0.630468 168:0.0842121 169:0.19119 170:0.0880271 171:-0.310873 172:0.0915113 173:-0.0470604 174:-0.351757 175:0.0296517 176:-0.14569 177:-0.228438 178:0.150264 179:0.450958 180:-0.0388562 181:0.63824 182:0.470112 183:0.157037 184:0.564376 185:0.481699 186:0.513991 187:0.416803 188:-0.414703 189:-0.201857 190:1 191:-0.354762 192:0.3277 193:0.98957 194:-0.299464 195:0.296222 196:1 197:-0.0916736 198:0.0677187 199:1 200:-1 201:-0.450145 202:0.0917279 203:-1 204:-0.648275 205:-0.426423 206:-0.799778 207:-0.759489 208:-0.286 209:0.354333 210:0.083024 211:0.42869 212:-0.335498 213:-0.127157 214:0.330915 215:0.434295 216:-0.32235 217:0.489109 218:-0.0309917 219:-0.408142 220:0.0261692 221:-0.13612 222:-0.351496 223:0.539265 224:-0.127179 225:-0.414545 226:0.0799305 227:-0.0193588 228:-0.284662 229:-0.11839 230:-0.00461509 231:-0.0216583 232:-0.245055 233:-0.250196 234:0.14283 235:0.156219 236:-0.156048 237:-0.128666 238:0.493485 239:0.151678 240:0.623408 241:0.166 242:0.0331904 243:0.154037 244:-0.268633 245:0.213649 246:-0.771175 247:0.21951 248:0.206889 249:0.169183 250:-0.192499 251:-0.359485 252:-0.567966 253:0.034185 254:-0.645238 255:0.0507109 256:0.753254 257:0.556663 258:0.0111753 259:-0.155459 260:-0.156121 261:0.0236842 262:0.588881 263:-0.525012 264:-0.0872734 265:-0.542682 266:0.386668 267:-0.904735 268:0.727015 269:-0.808048 270:0.364643 
1.475090011221026 1:-0.0168992 2:-0.0479661 3:-1 4:0.0339871 5:-0.0118813 6:-1 7:0.0473063 8:0.0102884 9:-0.999388 10:0.0309755 11:0.00516534 12:-1 13:0.0367944 14:0.0129953 15:-0.998366 16:0.0580512 17:0.128187 18:-0.992742 19:0.0531627 20:0.167068 21:-0.992425 22:0.188436 23:0.14103 24:-0.978122 25:0.333055 26:0.0959408 27:-0.973969 28:0.524789 29:0.187014 30:-0.856913 31:0.793962 32:0.326371 33:-0.565848 34:0.898324 35:0.359107 36:-0.270536 37:0.906428 38:0.43109 39:0.00788934 40:0.836124 41:0.515491 42:0.268075 43:0.602469 44:0.500848 45:0.627826 46:0.249175 47:0.486131 48:0.832802 49:-0.16827 50:0.507876 51:0.850894 52:-0.596531 53:0.860939 54:0.0107769 55:-0.845173 56:-0.0668224 57:-0.53152 58:-0.121575 59:-0.824083 60:0.597486 61:0.444643 62:-0.718494 63:-0.573853 64:-0.148307 65:-0.703602 66:-0.725889 67:0.122342 68:-0.973431 69:-0.284 70:0.290369 71:-0.893965 72:0.422576 73:0.105333 74:-0.881211 75:0.515773 76:-0.179524 77:-0.697724 78:0.70943 79:0.48343 80:-0.192674 81:0.856078 82:-0.669301 83:0.434591 84:0.602796 85:-0.0876549 86:0.658574 87:-0.751097 88:0.0240196 89:0.988639 90:0.170254 91:0.268994 92:0.200769 93:0.392336 94:-0.0452811 95:0.0278236 96:0.558421 97:0.0683159 98:-0.0604595 99:0.441225 100:-0.0434723 101:0.0323942 102:0.109498 103:0.0213845 104:0.0508005 105:0.164731 106:0.139023 107:0.275283 108:0.140303 109:-0.0685937 110:-0.17004 111:0.410089 112:-0.215261 113:-0.0443814 114:0.161451 115:-0.337781 116:0.247556 117:-0.461513 118:-0.475972 119:-0.155766 120:-0.772875 121:-0.348685 122:-0.000703194 123:-0.896305 124:-0.171 125:-0.00140856 126:-0.857167 127:-0.142463 128:-0.382668 129:-0.582852 130:0.182599 131:-0.405615 132:-0.591828 133:0.23727 134:0.228922 135:-0.815506 136:0.585108 137:0.0871828 138:-0.808745 139:1 140:0.0365285 141:-1 142:1 143:-0.229937 144:0.463576 145:-0.0626156 146:0.538018 147:-0.15275 148:-0.595785 149:0.562261 150:0.556781 151:-0.237792 152:0.323972 153:0.400643 154:0.195737 155:-0.138027 156:-1 157:-0.247207 158:0.165765 159:-1 160:0.0728609 161:-0.436623 162:-0.593858 163:-0.420477 164:-1 165:0.33389 166:0.242184 167:-1 168:-0.212348 169:0.0221402 170:-1 171:0.172055 172:-0.201533 173:-0.549433 174:0.00924982 175:-0.0128648 176:-0.260079 177:-0.789219 178:0.113458 179:0.471218 180:-0.907642 181:0.570838 182:0.495348 183:-0.0192999 184:-0.0630064 185:0.439469 186:0.419418 187:-0.244506 188:-0.315617 189:-0.215782 190:0.309911 191:-0.291587 192:0.325153 193:0.226156 194:-0.122783 195:0.337425 196:0.639669 197:0.0819317 198:0.0967409 199:0.219982 200:-0.237417 201:-0.165594 202:0.259185 203:-0.238022 204:-0.41209 205:-0.0682726 206:-0.447219 207:-0.149403 208:-0.500414 209:0.311842 210:-0.147958 211:0.16163 212:0.315006 213:-0.186421 214:0.406331 215:0.598483 216:-0.381029 217:0.448422 218:0.0968972 219:-0.443522 220:-0.0104907 221:0.00166545 222:-0.389713 223:0.537653 224:0.0318297 225:-0.510805 226:0.0457066 227:0.151926 228:-0.429901 229:1 230:0.151199 231:-0.167651 232:0.811231 233:-0.409882 234:-0.268884 235:0.795939 236:-0.702998 237:-1 238:0.573278 239:-0.272016 240:0.725173 241:0.128084 242:0.224763 243:0.390932 244:0.103297 245:0.815452 246:-0.771804 247:0.939566 248:-0.180234 249:0.187119 250:0.799132 251:-0.216903 252:-0.0727186 253:1 254:0.137886 255:1 256:0.67959 257:-1 258:-0.534457 259:0.565658 260:1 261:1 262:-1 263:1 264:-1 265:-0.694326 266:1 267:-0.973314 268:0.820575 269:-0.658187 270:0.416571 
3.185165894626619 1:-0.117873 2:-0.288601 3:-0.964769 4:-0.0495944 5:-0.303426 6:-0.968761 7:0.00985121 8:-0.22192 9:-0.986831 10:-0.0813171 11:-0.256829 12:-0.976812 13:-0.146205 14:-0.259319 15:-0.967633 16:-0.159473 17:-0.249561 18:-0.959008 19:-0.284228 20:-0.42686 21:-0.865698 22:-0.312516 23:-0.539834 24:-0.787251 25:-0.341606 26:-0.554455 27:-0.790926 28:-0.391908 29:-0.652147 30:-0.701177 31:-0.256043 32:-0.579966 33:-0.82779 34:-0.253421 35:-0.533762 36:-0.839914 37:-0.265685 38:-0.45718 39:-0.861475 40:-0.269042 41:-0.384237 42:-0.886576 43:-0.295988 44:-0.347413 45:-0.892411 46:-0.359338 47:-0.330502 48:-0.936609 49:-0.462199 50:-0.392852 51:-0.873793 52:-0.374184 53:-0.883991 54:0.337351 55:-0.459942 56:-0.700865 57:-0.579501 58:-0.635529 59:-0.740135 60:-0.300736 61:-0.409863 62:-0.789961 63:0.505673 64:-0.617911 65:-0.632627 66:-0.503269 67:-0.385894 68:-0.548543 69:-0.751392 70:-0.581196 71:-0.509137 72:-0.652525 73:-0.545019 74:-0.487936 75:-0.69464 76:-0.548055 77:-0.483921 78:-0.692999 79:-0.548078 80:-0.482842 81:-0.693171 82:-0.548055 83:-0.474472 84:-0.693014 85:-0.350365 86:-0.267161 87:-0.898969 88:-0.266255 89:-0.191198 90:-0.945527 91:0.291615 92:0.216677 93:0.271971 94:-0.00482863 95:0.177611 96:0.741703 97:-0.00103671 98:-0.0532715 99:0.881264 100:-0.0618697 101:0.112532 102:0.523969 103:0.171664 104:0.128755 105:0.428425 106:0.229452 107:0.369182 108:0.278813 109:0.179347 110:-0.0532541 111:-0.0777729 112:0.024418 113:0.0558381 114:-0.427273 115:-0.243287 116:0.359221 117:0.51866 118:-0.077414 119:0.0882457 120:0.411874 121:-0.0835484 122:0.200586 123:-0.8758 124:0.0792473 125:0.131867 126:-0.649842 127:0.15025 128:-0.294352 129:-0.310509 130:0.305772 131:-0.341216 132:-0.352675 133:0.163272 134:0.236391 135:-0.323997 136:0.244518 137:0.0664964 138:-0.224586 139:0.0939824 140:0.175328 141:0.230901 142:0.396583 143:-0.0635143 144:-0.755279 145:-0.156041 146:0.192434 147:-0.265397 148:0.255819 149:-0.462146 150:-0.700547 151:-0.806686 152:0.164521 153:-0.862569 154:0.388587 155:-0.519452 156:-0.204791 157:-0.346232 158:0.00721092 159:0.00418297 160:0.191906 161:-0.461776 162:-1 163:0.402492 164:0.420547 165:-0.0382369 166:0.270236 167:-0.349232 168:-0.116792 169:0.201338 170:0.458734 171:-0.403176 172:0.184387 173:0.265225 174:-0.414958 175:-0.153906 176:-0.0801377 177:-0.150764 178:-0.31365 179:0.380256 180:-0.029989 181:0.626086 182:0.518325 183:-0.0841525 184:-0.0526316 185:0.466115 186:0.351132 187:-0.313826 188:-0.365961 189:-0.234871 190:0.436054 191:-0.392381 192:0.351732 193:0.180184 194:-0.149044 195:0.344276 196:0.697667 197:0.104996 198:0.156371 199:0.297804 200:-0.179806 201:-0.146803 202:0.195021 203:-0.208449 204:-0.439051 205:0.102409 206:-0.578983 207:-0.0979071 208:-0.385527 209:0.142114 210:-0.194626 211:0.181078 212:0.153234 213:-0.142018 214:0.416315 215:0.427709 216:-0.321318 217:0.453006 218:-0.0254202 219:-0.394788 220:-0.0186374 221:-0.137095 222:-0.339194 223:0.514193 224:-0.133025 225:-0.386305 226:0.0735451 227:-0.0344532 228:-0.244734 229:-0.102159 230:-0.0366696 231:0.00364618 232:-1 233:-0.479347 234:0.187404 235:-0.6991 236:-0.23256 237:0.00599918 238:-0.29368 239:0.0239568 240:0.801951 241:0.857037 242:-0.437563 243:-1 244:-0.522606 245:0.982902 246:-0.855543 247:0.0215274 248:-0.558848 249:0.209143 250:-0.0409666 251:-0.262436 252:-0.583413 253:0.0191804 254:-0.68481 255:0.0492891 256:0.753185 257:0.556522 258:0.0108959 259:-0.156636 260:-0.155668 261:0.0233918 262:0.592827 263:-0.52401 264:-0.0928798 265:-0.544174 266:0.38553 267:-0.904678 268:0.724382 269:-0.802035 270:0.358534 
5.485450485019652 1:0.0955515 2:-0.174125 3:0.989686 4:0.0430229 5:-0.355959 6:0.954877 7:0.00913289 8:-0.126286 9:0.996938 10:-0.609082 11:0.414346 12:0.672302 13:-0.750473 14:0.549922 15:0.354299 16:-0.688292 17:0.615131 18:-0.396269 19:-0.204432 20:0.32026 21:-0.933361 22:0.236483 23:0.607487 24:-0.771405 25:0.122419 26:0.827827 27:0.542442 28:-0.495838 29:0.248466 30:0.855462 31:0.256562 32:0.252119 33:0.938866 34:0.0914775 35:0.417466 36:0.901138 37:0.362233 38:0.428925 39:0.829201 40:0.511436 41:0.449969 42:0.752846 43:0.518313 44:0.431581 45:0.742459 46:0.196084 47:0.163442 48:0.962404 49:0.0784983 50:0.062536 51:0.994935 52:0.0589796 53:0.0570971 54:0.998774 55:0.0448264 56:0.0227695 57:0.999796 58:0.0384164 59:0.0245963 60:1 61:0.0324851 62:0.0125492 63:1 64:0.0272338 65:0.00286017 66:1 67:0.0254475 68:0.00971384 69:1 70:0.0230969 71:0.00116872 72:1 73:0.0221271 74:0.0025985 75:1 76:0.0199358 77:-0.0100656 78:1 79:0.0185582 80:-0.011473 81:1 82:0.0173864 83:-0.00574123 84:0.999898 85:0.0163684 86:-0.00414005 87:0.999898 88:0.0159621 89:-0.00583419 90:0.999898 91:0.177834 92:0.140003 93:-0.673436 94:-0.369576 95:-0.162697 96:0.234431 97:0.419655 98:-0.260312 99:-0.624959 100:0.345871 101:-0.194461 102:-0.55779 103:0.467005 104:-0.163782 105:-0.0878887 106:0.379729 107:0.155283 108:0.41848 109:-0.155609 110:-0.091264 111:0.666231 112:-0.42639 113:-0.595535 114:-0.341715 115:-0.495524 116:0.0342818 117:-0.128633 118:-0.122616 119:-0.0979333 120:-0.523415 121:-0.2188 122:0.370935 123:-0.467893 124:-0.130232 125:0.256742 126:-0.229991 127:0.00127476 128:-0.085417 129:-0.0345568 130:0.212068 131:-0.0848948 132:0.203875 133:0.0700304 134:0.335893 135:0.250574 136:0.354535 137:0.334717 138:-0.00990922 139:0.168435 140:0.331718 141:0.26202 142:0.533006 143:0.389741 144:-0.174133 145:-0.069731 146:0.424598 147:-0.155335 148:0.118748 149:0.0054805 150:-0.328855 151:-0.095527 152:-0.143697 153:-0.181239 154:-0.0251359 155:-0.0959983 156:-0.0622554 157:-0.0385944 158:-0.221822 159:-0.0337786 160:-0.0708647 161:-0.181368 162:-0.442319 163:0.273239 164:0.195061 165:0.0514377 166:0.153854 167:-0.523189 168:-0.00567231 169:0.0792205 170:0.236289 171:-0.35158 172:0.00552056 173:0.0817295 174:-0.379469 175:-0.0370254 176:-0.000327761 177:-0.251104 178:0.0835334 179:0.506674 180:-0.0559928 181:0.581446 182:0.419036 183:-0.0182211 184:-0.2121 185:0.404358 186:0.367254 187:-0.221273 188:-0.307138 189:-0.219901 190:0.717119 191:-0.211984 192:0.349015 193:0.650062 194:0.307026 195:0.308307 196:0.863693 197:0.326395 198:0.141147 199:0.649159 200:-0.100603 201:-0.165822 202:0.29577 203:-0.100234 204:-0.350428 205:0.171493 206:-0.4559 207:-0.0507863 208:-1 209:0.410106 210:-0.149608 211:-0.315022 212:0.257859 213:-0.27367 214:0.873409 215:0.649172 216:0.120196 217:0.506535 218:0.321445 219:-0.465733 220:-0.32137 221:-0.414859 222:-0.391022 223:0.582127 224:-0.441301 225:-0.424465 226:0.0717526 227:-0.109426 228:-0.285825 229:-0.116377 230:0.0190569 231:-0.0214395 232:-0.245574 233:-0.254745 234:0.143405 235:0.15568 236:-0.156048 237:-0.128368 238:0.4913 239:0.150919 240:0.62369 241:0.166388 242:0.0336668 243:0.154273 244:-0.268803 245:0.213257 246:-0.771109 247:0.217414 248:0.20853 249:0.168432 250:-0.192751 251:-0.359599 252:-0.567015 253:0.0309293 254:-0.648626 255:0.0483412 256:0.7527 257:0.55624 258:0.0108959 259:-0.156283 260:-0.156064 261:0.0244152 262:0.591434 263:-0.524296 264:-0.0883947 265:-0.542086 266:0.384599 267:-0.904905 268:0.724382 269:-0.810823 270:0.361588 
4.238215435899511 1:0.341722 2:0.132751 3:0.931376 4:0.161413 5:0.390271 6:0.895768 7:-0.0556183 8:0.497628 9:0.855349 10:-0.184774 11:0.537888 12:0.814904 13:-0.23965 14:0.541473 15:0.798652 16:-0.273404 17:0.547631 18:0.7931 19:-0.380046 20:0.53602 21:0.758624 22:-0.540408 23:0.521477 24:0.665695 25:-0.34463 26:0.305183 27:0.887996 28:-0.259028 29:-0.0121677 30:0.975115 31:-0.992945 32:0.265351 33:-0.00590612 34:-0.794803 35:0.468661 36:-0.386217 37:-0.678141 38:0.645476 39:-0.379508 40:-0.66214 41:0.693636 42:-0.378833 43:-0.427778 44:0.825086 45:0.412545 46:-0.328132 47:0.646689 48:0.708736 49:-0.337057 50:0.648543 51:0.69609 52:-0.19 53:0.410032 54:0.909597 55:-0.108063 56:0.250783 57:0.965596 58:-0.0849446 59:0.220404 60:0.976293 61:-0.0667551 62:0.184197 63:0.982827 64:-0.0525296 65:0.157415 66:0.987025 67:-0.0321791 68:0.134051 69:0.992135 70:-0.0243206 71:0.117828 72:0.993567 73:-0.00927909 74:0.0991144 75:0.995916 76:-0.00249834 77:0.0768595 78:0.996632 79:0.00142755 80:0.0712559 81:0.99704 82:0.00678122 83:0.0714579 84:0.997449 85:0.0112692 86:0.0689497 87:0.997755 88:0.0141262 89:0.0647902 90:0.997858 91:-0.15761 92:-0.30285 93:-0.625489 94:-0.0277224 95:-0.135994 96:0.200932 97:0.317628 98:-0.0649604 99:-0.86783 100:0.240324 101:0.0694253 102:-0.909647 103:0.371987 104:0.108648 105:-0.45864 106:0.467402 107:0.399497 108:-0.308378 109:0.386326 110:-0.059857 111:-0.533653 112:1 113:0.340061 114:0.358136 115:0.0332714 116:0.346769 117:-0.0807192 118:0.74358 119:-0.459958 120:-0.046761 121:-0.650523 122:-0.354234 123:0.933788 124:0.0390574 125:0.099393 126:0.467499 127:-0.223566 128:-0.402081 129:0.558139 130:0.299196 131:-0.317082 132:1 133:0.0710885 134:0.247067 135:0.119255 136:0.0780285 137:0.23435 138:0.00512785 139:-0.0618122 140:0.271091 141:0.202349 142:0.244866 143:0.450773 144:-0.509155 145:-0.295147 146:0.505196 147:-0.473454 148:-0.212174 149:0.0838644 150:-0.59121 151:-0.382652 152:-0.0476791 153:-0.318791 154:-0.21357 155:0.0846137 156:-0.151666 157:-0.199777 158:-0.0503906 159:-0.13435 160:-0.174576 161:-0.00541485 162:-0.478496 163:0.178007 164:0.272698 165:0.0292087 166:0.0952891 167:-0.481642 168:-0.0163624 169:0.0281365 170:0.282997 171:-0.35648 172:-0.0394233 173:0.127867 174:-0.383849 175:-0.0869156 176:0.0552278 177:-0.254839 178:0.0425668 179:0.535377 180:-0.0587825 181:0.590418 182:0.455799 183:-0.0328458 184:0.288221 185:0.7775 186:0.32772 187:-0.179455 188:-0.26307 189:-0.302582 190:0.373436 191:-0.266349 192:0.210513 193:0.28791 194:-0.157157 195:0.213341 196:0.714104 197:0.0462948 198:0.0344937 199:0.332734 200:-0.206379 201:-0.24822 202:0.154661 203:-0.0961714 204:-0.332058 205:-0.279955 206:-0.58703 207:0.0013007 208:-0.478617 209:0.140211 210:-0.223145 211:0.546257 212:0.725329 213:-0.286493 214:0.366648 215:0.551487 216:-0.271989 217:0.570178 218:-0.106098 219:-0.225726 220:0.0967221 221:-0.236778 222:-0.355466 223:0.539444 224:-0.268137 225:-0.415355 226:0.07741 227:0.00479954 228:-0.284274 229:-0.117741 230:0.000219766 231:-0.0201998 232:-0.24525 233:-0.250734 234:0.143117 235:0.15468 236:-0.156138 237:-0.128442 238:0.491058 239:0.151707 240:0.62369 241:0.165844 242:0.0337727 243:0.153958 244:-0.268718 245:0.213159 246:-0.771175 247:0.21689 248:0.205762 249:0.168182 250:-0.19187 251:-0.359599 252:-0.567728 253:0.0303631 254:-0.647702 255:0.0473934 256:0.752562 257:0.555629 258:0.0106165 259:-0.157225 260:-0.155951 261:0.0236842 262:0.592711 263:-0.523581 264:-0.0883947 265:-0.542608 266:0.38553 267:-0.904509 268:0.721952 269:-0.803423 270:0.36617 
2.430558604334113 1:0.216004 2:-0.199957 3:0.96773 4:0.234726 5:-0.223187 6:0.958348 7:0.0872242 8:-0.219575 9:0.981421 10:0.285766 11:-0.327973 12:0.918995 13:0.477611 14:-0.465854 15:0.782214 16:0.603515 17:-0.495304 18:0.647738 19:0.679671 20:-0.537248 21:0.520319 22:0.662843 23:-0.516423 24:0.558963 25:0.653389 26:-0.588256 27:0.495152 28:-0.766159 29:-0.581697 30:0.38846 31:0.398589 32:0.787851 33:-0.582634 34:0.0707733 35:0.910144 36:-0.431648 37:0.350639 38:0.222377 39:-0.917623 40:-0.260772 41:0.110844 42:-0.972003 43:-0.268107 44:-0.452957 45:-0.852294 46:-0.156814 47:-0.692098 48:-0.775364 49:-0.223291 50:-0.660893 51:-0.797288 52:-0.213061 53:-0.650907 54:-0.739006 55:-0.0802183 56:-0.296216 57:-0.956409 58:-0.0311719 59:-0.164261 60:-0.989373 61:-0.0155541 62:-0.131341 63:-0.996013 64:-0.0101999 65:-0.118962 66:-0.997037 67:-0.00566067 68:-0.0974009 69:-0.997753 70:0.0034161 71:-0.0827667 72:-0.999183 73:0.00448659 74:-0.07769 75:-0.999081 76:0.00739306 77:-0.0784081 78:-0.999081 79:0.00887121 80:-0.0754746 81:-0.999592 82:0.0106562 83:-0.0648965 84:-0.999592 85:0.0116771 86:-0.0594429 87:-0.999592 88:0.0130042 89:-0.0579324 90:-0.99898 91:0.200086 92:0.0795386 93:-0.564748 94:-0.157994 95:-0.109054 96:0.288005 97:0.159761 98:-0.0874647 99:-0.592624 100:-0.139343 101:0.208916 102:-0.85361 103:-0.144474 104:0.24557 105:-0.282919 106:-0.0338944 107:0.537421 108:-0.0778755 109:-0.19657 110:0.0244309 111:-0.184184 112:-0.198963 113:-0.0324964 114:-0.191747 115:-0.164584 116:0.0262202 117:0.172442 118:-0.00157681 119:-0.271019 120:0.110548 121:-0.685383 122:-1 123:0.0622173 124:1 125:0.611699 126:0.206025 127:0.0169854 128:-0.828648 129:0.328644 130:1 131:-0.696683 132:0.185236 133:-0.406626 134:0.482826 135:-0.393085 136:0.522248 137:0.80316 138:-0.284111 139:0.347824 140:0.692649 141:0.0655827 142:0.661242 143:0.84376 144:-0.465836 145:-0.0806176 146:0.666646 147:-0.350097 148:0.054341 149:-0.0442264 150:-0.317913 151:-0.163898 152:-0.308609 153:-0.0928948 154:-0.153278 155:-0.361866 156:-0.0102376 157:-0.185761 158:-0.484162 159:0.0116494 160:-0.162054 161:-0.458515 162:-0.399073 163:0.191983 164:0.0564119 165:0.0917988 166:0.119914 167:-0.57541 168:0.0023271 169:0.052583 170:0.1974 171:-0.349403 172:-0.00617003 173:0.0391511 174:-0.377581 175:-0.0552243 176:-0.0383481 177:-0.24966 178:0.06241 179:0.492218 180:-0.0547973 181:0.569468 182:0.435007 183:-0.0556222 184:0.0468031 185:0.61137 186:0.506598 187:-0.414291 188:-0.382186 189:-0.24897 190:0.161081 191:-0.39254 192:0.30248 193:0.0831618 194:-0.301939 195:0.330098 196:0.635684 197:-0.0207327 198:0.140354 199:0.179787 200:-0.242997 201:-0.172997 202:0.216223 203:-0.180624 204:-0.391253 205:-1 206:1 207:-0.0551023 208:-0.0887989 209:-0.838777 210:0.48848 211:0.623318 212:-1 213:-0.774329 214:0.31928 215:0.176262 216:0.0841501 217:0.16642 218:-0.281198 219:-0.758091 220:-0.546171 221:0.638882 222:-0.241558 223:0.851237 224:-0.531919 225:-0.344602 226:-0.0324315 227:-0.0415187 228:-0.265538 229:-0.0989125 230:-0.0146302 231:-0.02195 232:-0.244407 233:-0.250196 234:0.143597 235:0.154527 236:-0.156411 237:-0.127622 238:0.492514 239:0.151182 240:0.623408 241:0.165844 242:0.0336139 243:0.153093 244:-0.268335 245:0.213306 246:-0.770811 247:0.21689 248:0.206787 249:0.168516 250:-0.191744 251:-0.359409 252:-0.565589 253:0.0312124 254:-0.647702 255:0.0495261 256:0.751973 257:0.556334 258:0.0110821 259:-0.156401 260:-0.155838 261:0.022807 262:0.592711 263:-0.52351 264:-0.0940011 265:-0.543055 266:0.384289 267:-0.905131 268:0.721345 269:-0.808048 270:0.365407 
2.327704519745925 1:-0.157462 2:-0.0414277 3:-0.988767 4:-0.170962 5:-0.024988 6:-0.986524 7:-0.167676 8:-0.0165787 9:-0.988261 10:-0.147994 11:0.093349 12:-0.983043 13:-0.142623 14:0.276753 15:-0.94272 16:-0.194521 17:0.432759 18:-0.882239 19:-0.258219 20:0.334187 21:-0.91514 22:-0.0716601 23:0.0577012 24:-1 25:-0.591762 26:-0.265254 27:-0.797978 28:-0.84803 29:-0.468609 30:-0.419877 31:-0.827057 32:-0.624911 33:-0.0448658 34:-0.452263 35:-0.807858 36:0.463952 37:-0.0572 38:-0.839753 39:0.556148 40:0.768634 41:-0.572012 42:-0.274638 43:0.496296 44:0.878526 45:0.0478232 46:-0.170742 47:0.224896 48:0.964493 49:0.618575 50:-0.0114606 51:0.775445 52:0.483878 53:-0.587193 54:0.655345 55:0.437503 56:-0.501088 57:0.760298 58:0.387786 59:-0.843439 60:0.437257 61:0.506961 62:-0.896735 63:-0.0365941 64:0.181559 65:-0.747352 66:-0.675828 67:0.245958 68:-0.989289 69:0.0666462 70:0.456585 71:-0.866128 72:-0.317711 73:0.360049 74:-0.804741 75:-0.518632 76:0.472901 77:-0.729417 78:-0.51929 79:0.467931 80:-0.739672 81:-0.50689 82:0.529598 83:-0.805926 84:-0.283054 85:0.556473 86:-0.803936 87:0.212879 88:0.509511 89:-0.71914 90:0.476997 91:0.292476 92:0.196019 93:0.273834 94:0.101604 95:0.0175666 96:0.552766 97:0.0919816 98:-0.0573022 99:0.383207 100:-0.00361134 101:-0.00623581 102:-0.0295696 103:0.0329218 104:-0.0855323 105:0.157234 106:0.142895 107:0.0733962 108:0.388394 109:0.177026 110:-0.344989 111:0.439453 112:-0.361484 113:-0.297232 114:-0.324931 115:0.0521871 116:0.42088 117:-0.495011 118:0.0463283 119:0.201973 120:-0.855229 121:0.142229 122:0.477176 123:-1 124:0.285208 125:0.45896 126:-1 127:0.267252 128:0.0649687 129:-0.693854 130:0.163785 131:0.0848948 132:-0.800284 133:-0.156461 134:0.505781 135:-0.810072 136:-1 137:0.765555 138:-0.176149 139:-0.341578 140:-1 141:0.229423 142:0.092607 143:0.475275 144:-0.826256 145:-0.505337 146:-0.34419 147:-0.486073 148:-0.0384555 149:-0.211254 150:-0.685067 151:0.258881 152:1 153:-0.248165 154:0.0211447 155:0.602226 156:0.0830468 157:-0.065001 158:0.538072 159:0.497414 160:1 161:-0.678137 162:1 163:0.188407 164:1 165:-0.0120628 166:-0.430407 167:-0.428745 168:1 169:-0.914783 170:-0.00993342 171:1 172:-0.419108 173:0.185473 174:1 175:-0.40775 176:-0.0390036 177:0.940068 178:0.0785726 179:0.598375 180:0.718043 181:0.592539 182:0.429206 183:0.0510669 184:-0.0879524 185:0.383098 186:0.414078 187:-0.243376 188:-0.342325 189:-0.234407 190:0.155507 191:-0.284206 192:0.279891 193:0.0194868 194:-0.205142 195:0.28585 196:0.804754 197:0.0653622 198:0.239553 199:0.559394 200:-0.162463 201:-0.192415 202:0.263632 203:-0.205768 204:-0.423146 205:0.0690215 206:-0.767075 207:-0.228272 208:-0.421515 209:-0.00485493 210:-0.226209 211:0.193508 212:-0.0921904 213:-0.253835 214:0.415453 215:0.158751 216:-0.435001 217:0.444179 218:-0.200337 219:-0.468747 220:1 221:-0.0736047 222:-1 223:1 224:-0.81435 225:-0.814161 226:0.50703 227:0.0033008 228:-0.745574 229:-0.154228 230:0.105174 231:-0.410632 232:-0.460217 233:-0.285218 234:-0.0268405 235:-0.101146 236:-0.163458 237:-0.257145 238:-1 239:0.156901 240:0.79518 241:0.631172 242:1 243:-0.0274097 244:-0.549673 245:-0.125514 246:-0.877141 247:0.493821 248:0.525733 249:0.0692417 250:-0.634133 251:-0.464078 252:-0.572006 253:0.10213 254:-0.0535068 255:0.0450237 256:0.746815 257:0.504927 258:0.0111753 259:-0.154752 260:-0.154875 261:0.0232456 262:0.588997 263:-0.52401 264:-0.0887685 265:-0.544174 266:0.384806 267:-0.904565 268:0.721952 269:-0.796485 270:0.364643 
0.9762216549082696 1:0.039642 2:-0.133716 3:0.997651 4:0.0456926 5:-0.0610048 6:1 7:-0.0324269 8:0.0919559 9:0.991629 10:0.187343 11:0.260344 12:0.940344 13:0.424697 14:0.436547 15:0.784766 16:0.610339 17:0.587883 18:0.551035 19:0.665314 20:0.700374 21:0.307708 22:0.495756 23:0.840045 24:-0.280274 25:0.566006 26:0.678121 27:-0.512263 28:0.525638 29:-0.67362 30:-0.542434 31:-0.784625 32:-0.0887419 33:-0.662211 34:0.0814329 35:0.765617 36:-0.649882 37:0.623147 38:-0.411292 39:-0.676742 40:-0.613028 41:-0.0836299 42:-0.792944 43:0.43786 44:0.314732 45:-0.843924 46:0.734646 47:-0.0967437 48:-0.70435 49:0.633468 50:0.00559946 51:-0.830317 52:0.837449 53:-0.197972 54:-0.506921 55:0.899944 56:-0.295473 57:-0.331734 58:0.790011 59:-0.263287 60:0.556203 61:0.784793 62:-0.265234 63:0.564142 64:0.424725 65:-0.153814 66:0.893645 67:0.100209 68:0.323917 69:0.946274 70:0.0163667 71:0.307374 72:0.955685 73:0.0143775 74:0.30954 75:0.955692 76:0.113853 77:0.218913 78:0.968055 79:0.089324 80:0.061172 81:0.993774 82:0.0663336 83:0.0313717 84:0.997347 85:0.0582836 86:0.0231536 87:0.998163 88:0.0524759 89:0.0154555 90:0.998572 91:0.152385 92:0.0685314 93:-0.695423 94:0.142327 95:-0.0509314 96:-0.0732753 97:-0.000321739 98:-0.111514 99:-0.820744 100:-0.226288 101:-0.0666112 102:-0.721741 103:-0.230012 104:-0.0750951 105:-0.162402 106:-0.0544345 107:0.157296 108:0.155115 109:-0.049648 110:-0.327936 111:0.498692 112:0.65262 113:0.570694 114:0.0900112 115:-0.399932 116:0.277767 117:0.492497 118:0.437753 119:-0.428194 120:0.374739 121:-0.123367 122:-0.599707 123:0.0393044 124:-0.204829 125:0.0375701 126:0.0426181 127:0.543152 128:-0.485169 129:0.144965 130:-0.222966 131:-1 132:0.109309 133:0.0238725 134:0.628365 135:0.0534657 136:0.20891 137:0.185379 138:-0.112258 139:0.0737087 140:0.476126 141:0.157772 142:0.371003 143:0.54299 144:-0.320997 145:-0.344955 146:0.465023 147:-0.466129 148:-0.213511 149:0.268927 150:-0.0715715 151:-0.070254 152:0.000930177 153:-0.549906 154:0.298319 155:-0.336272 156:-0.0506344 157:0.39092 158:-0.438922 159:-0.016507 160:0.303693 161:-0.485648 162:-0.413449 163:0.588299 164:0.0388992 165:0.108034 166:0.401392 167:-0.555751 168:0.0445786 169:0.197417 170:0.291874 171:-0.303312 172:0.0572189 173:0.198392 174:-0.376902 175:-0.0491057 176:0.179777 177:-0.267657 178:0.0820931 179:0.611776 180:-0.0731294 181:0.648494 182:0.457757 183:0.0680892 184:0.241825 185:0.370401 186:0.391898 187:-0.0748462 188:-0.56954 189:-0.282449 190:0.45926 191:-0.564365 192:0.219175 193:0.305613 194:-0.631376 195:0.202303 196:0.692133 197:-0.212739 198:0.0214099 199:0.182098 200:-0.362382 201:-0.254712 202:0.295406 203:-0.387631 204:0.320873 205:0.0566026 206:-0.512942 207:1 208:-0.553811 209:0.233115 210:1 211:0.263599 212:0.0341294 213:1 214:0.410677 215:0.583367 216:1 217:0.423192 218:-0.0228177 219:0.955207 220:0.299235 221:-0.287919 222:0.931071 223:0.520043 224:0.143363 225:-0.619313 226:-0.134207 227:-0.329991 228:0.444631 229:0.108456 230:-0.16966 231:-0.0132721 232:-0.00311264 233:-0.111929 234:0.0158167 235:-0.201677 236:0.276294 237:-0.226739 238:1 239:0.320018 240:0.591246 241:0.507634 242:0.294744 243:0.0878131 244:-0.243095 245:0.237164 246:-0.790619 247:0.223964 248:0.204429 249:0.170685 250:-0.192751 251:-0.360361 252:-0.565827 253:0.0302215 254:-0.646624 255:0.0495261 256:0.752458 257:0.556334 258:0.0108028 259:-0.15911 260:-0.155838 261:0.0225146 262:0.591318 263:-0.523939 264:-0.0876472 265:-0.54231 266:0.385013 267:-0.904735 268:0.72337 269:-0.80296 270:0.368461 
2.644213545127981 1:0.18926 2:-0.255801 3:0.963135 4:0.261115 5:-0.264106 6:0.943648 7:0.1098 8:-0.216803 9:0.979584 10:-0.162994 11:-0.162469 12:0.98243 13:-0.279157 14:-0.099524 15:0.961303 16:-0.438718 17:0.0443802 18:0.899208 19:-0.530067 20:0.130408 21:0.842666 22:-0.54617 23:0.203424 24:0.813423 25:-0.513452 26:0.245954 27:0.824527 28:-0.499867 29:0.160634 30:0.874436 31:-0.426808 32:0.0491552 33:0.909025 34:-0.558653 35:0.831455 36:-0.0714798 37:-0.164418 38:0.114823 39:-0.988525 40:-0.205738 41:-0.873247 42:-0.4458 43:-0.416667 44:-0.913262 45:-0.0434339 46:-0.569925 47:-0.8536 48:0.187196 49:-0.76254 50:-0.0240201 51:0.664011 52:0.576939 53:-0.134472 54:0.804178 55:-0.333265 56:0.488138 57:0.818896 58:-0.72634 59:0.662817 60:-0.289904 61:-0.894436 62:-0.225779 63:-0.394051 64:-0.50357 65:-0.148305 66:0.852779 67:-0.696874 68:0.549068 69:0.486543 70:-0.743945 71:0.662983 72:0.204779 73:-0.951055 74:-0.288328 75:-0.1317 76:-0.608423 77:-0.25391 78:-0.756787 79:-0.627103 80:-0.255852 81:-0.740839 82:-0.627186 83:-0.248206 84:-0.740573 85:-0.627148 86:-0.244672 87:-0.740484 88:-0.62711 89:-0.246264 90:-0.739774 91:0.0459184 92:0.130881 93:-0.451463 94:-0.089583 95:-0.0120255 96:0.306339 97:0.129232 98:-0.121994 99:0.415147 100:0.0942355 101:0.111893 102:-0.982438 103:0.280717 104:0.0852965 105:-0.48556 106:0.419628 107:0.306855 108:-0.331925 109:0.35188 110:-0.229868 111:-0.545864 112:0.131037 113:-0.221532 114:-0.625413 115:0.0249113 116:0.21942 117:0.00151332 118:-0.205286 119:-0.00886566 120:0.0516255 121:-0.031155 122:-0.680633 123:0.318136 124:-0.0422861 125:-0.0840782 126:0.785327 127:-0.239897 128:-0.0674535 129:0.366512 130:0.294264 131:-0.06167 132:0.084246 133:0.190253 134:0.396574 135:-0.14843 136:0.19587 137:0.667805 138:-1 139:0.223456 140:0.331673 141:0.149759 142:0.336491 143:0.194107 144:-0.160109 145:0.172691 146:-0.526613 147:0.118894 148:0.223577 149:-0.19494 150:0.00306926 151:-0.36943 152:0.15888 153:-0.533948 154:0.36498 155:-0.132549 156:0.223369 157:-1 158:-1 159:-0.686142 160:0.209055 161:0.747191 162:-0.310087 163:0.362405 164:0.788072 165:1 166:0.12591 167:-0.292552 168:-0.0273435 169:-0.00207565 170:0.587657 171:-0.394284 172:-0.144379 173:0.564329 174:-0.479443 175:-0.204424 176:0.575221 177:-0.368846 178:-0.0588894 179:0.845724 180:-0.173558 181:0.52664 182:0.435685 183:-0.197555 184:-0.0196421 185:0.411765 186:0.381424 187:-0.275524 188:-0.216732 189:-0.144473 190:0.358657 191:-0.175317 192:0.540506 193:0.254975 194:0.0725973 195:0.586735 196:0.680235 197:0.192256 198:0.343351 199:0.186465 200:-0.174698 201:-0.0308069 202:0.196644 203:-0.183142 204:-0.284642 205:-0.0495507 206:-0.598565 207:-0.0104647 208:-0.493783 209:0.125568 210:0.00271051 211:1 212:0.439209 213:-0.177673 214:1 215:0.561614 216:-0.200864 217:1 218:0.162179 219:-0.123389 220:-0.00926104 221:0.45422 222:0.0400925 223:0.767066 224:-0.117318 225:0.266967 226:0.213746 227:0.0761682 228:0.633415 229:0.235059 230:-1 231:0.157952 232:-0.359964 233:-0.19785 234:0.351131 235:1 236:0.441775 237:0.350524 238:0.895768 239:0.374059 240:1 241:-0.0862049 242:-0.0797734 243:-0.671556 244:-0.19134 245:0.919655 246:-0.729736 247:1 248:1 249:0.668558 250:-0.233906 251:-1 252:0.0344582 253:0.748461 254:-0.533297 255:0.29218 256:0.742107 257:0.489641 258:0.0196498 259:-0.156872 260:-0.156234 261:0.025 262:0.591202 263:-0.52351 264:-0.0872734 265:-0.543055 266:0.38553 267:-0.904509 268:0.72337 269:-0.803885 270:0.368461 
3.049025095361417 1:0.0591208 2:0.00155421 3:-0.997651 4:-0.00472328 5:0.00868453 6:-0.999796 7:0.00759364 8:0.0223359 9:-1 10:0.0251194 11:0.0718356 12:-0.995403 13:0.0981014 14:0.0687203 15:-0.989994 16:0.1084 17:0.106306 18:-0.991515 19:-0.325635 20:0.0374277 21:-0.952912 22:-0.563352 23:-0.0407879 24:-0.828861 25:-0.75391 26:-0.135257 27:-0.685144 28:-0.889072 29:-0.236503 30:-0.530613 31:-0.873223 32:-0.295095 33:-0.461921 34:-0.734228 35:0.538923 36:-0.415137 37:0.885703 38:-0.161433 39:0.440369 40:-0.686849 41:-0.685472 42:0.223362 43:0.0937243 44:0.911824 45:0.430205 46:0.795382 47:0.606418 48:0.0394235 49:-0.116765 50:0.37171 51:-0.991875 52:0.241429 53:0.813127 54:-0.608152 55:-0.517874 56:0.717212 57:-0.508039 58:-0.707464 59:0.726232 60:0.174739 61:-0.52532 62:0.579177 63:0.645916 64:-0.420033 65:0.545657 66:0.738353 67:-0.394156 68:0.555684 69:0.748634 70:-0.38245 71:0.558967 72:0.752387 73:-0.0694402 74:0.0969932 75:0.993772 76:-0.0405343 77:0.0460951 78:0.997959 79:-0.0218211 80:0.0117817 81:0.999694 82:-0.0121858 83:-0.000615132 84:1 85:-0.00474224 86:-0.00894454 87:1 88:0.000866949 89:-0.0150461 90:1 91:0.157487 92:0.1299 93:0.518415 94:0.0789802 95:0.00288847 96:0.666625 97:0.107425 98:-0.0289534 99:0.666315 100:-0.185337 101:0.0508139 102:0.550839 103:-0.0501911 104:0.139723 105:0.611984 106:0.271647 107:0.213899 108:-0.519324 109:0.286356 110:-0.156662 111:-0.924626 112:0.217939 113:-0.0873173 114:-0.950011 115:0.357203 116:0.339825 117:-0.369893 118:0.136882 119:0.0167919 120:-0.506286 121:0.0604953 122:0.168005 123:-0.376946 124:-0.540081 125:-1 126:-0.840097 127:-0.228252 128:-0.774551 129:-0.172236 130:0.22388 131:-0.903584 132:-0.410699 133:-0.174845 134:0.439024 135:0.675195 136:1 137:-0.634605 138:1 139:-0.047239 140:0.269655 141:0.974716 142:0.824328 143:0.358111 144:0.542891 145:0.395332 146:0.582246 147:-0.635407 148:0.740327 149:0.0195641 150:-0.361416 151:0.08515 152:-0.0570408 153:-0.296766 154:0.0799932 155:0.0847849 156:-0.262263 157:0.0676417 158:0.00540819 159:-0.275851 160:-0.256783 161:0.323319 162:-0.620411 163:-0.0348862 164:0.478412 165:-0.0799636 166:-0.0673448 167:-0.340855 168:-0.0892299 169:-0.114391 170:0.466554 171:-0.40124 172:-0.141521 173:0.273398 174:-0.415487 175:-0.107468 176:0.0773517 177:-0.255008 178:0.0459273 179:0.530523 180:-0.0566902 181:0.621577 182:0.501902 183:-0.0443539 184:-0.133298 185:0.382137 186:0.409663 187:-0.277031 188:-0.290779 189:-0.258718 190:0.274519 191:-0.298333 192:0.34409 193:0.324139 194:0.125808 195:0.397849 196:0.744099 197:-0.316819 198:-0.127666 199:0.230127 200:-0.36294 201:-0.362337 202:0.185623 203:-0.33336 204:-0.525972 205:-0.110771 206:-0.699885 207:-0.331796 208:-0.560833 209:0.082495 210:-0.304284 211:0.0736986 212:0.0597205 213:-0.316335 214:0.328365 215:0.370535 216:-0.498001 217:-0.25393 218:0.0375163 219:1 220:0.302002 221:-0.446299 222:1 223:0.220249 224:-0.109286 225:-0.803128 226:-0.211841 227:-0.77005 228:0.116682 229:0.0730726 230:-0.68969 231:0.276307 232:0.620323 233:1 234:0.358608 235:-0.525267 236:-0.819153 237:-0.117711 238:0.591325 239:-0.108141 240:0.601604 241:0.294744 242:-0.175427 243:0.164812 244:-0.276026 245:0.197041 246:-0.772434 247:0.220471 248:0.143428 249:0.168599 250:-0.190233 251:-0.355789 252:-0.562975 253:0.0337604 254:-0.651859 255:0.0483412 256:0.752596 257:0.554829 258:0.0120134 259:-0.154752 260:-0.156007 261:0.024269 262:0.591666 263:-0.522795 264:-0.0906373 265:-0.541639 266:0.384599 267:-0.904961 268:0.724382 269:-0.803885 270:0.36617 
1.350687534657429 1:0.0795472 2:-0.335334 3:0.958438 4:0.264504 5:0.0135862 6:0.964167 7:-0.142329 8:0.655952 9:0.732136 10:-0.982843 11:-0.0583098 12:0.237857 13:-0.0387391 14:-0.833574 15:0.65581 16:0.924838 17:-0.427082 18:0.0675185 19:0.411673 20:0.894015 21:0.224179 22:-0.333402 23:0.801887 24:-0.514594 25:0.227633 26:0.126474 27:-1 28:0.778355 29:-0.540184 30:-0.356421 31:0.690113 32:-0.775275 33:-0.00176148 34:0.676626 35:-0.702412 36:0.340478 37:0.714051 38:-0.692704 39:0.156762 40:0.706249 41:-0.677099 42:0.182033 43:0.703601 44:-0.681414 45:0.184403 46:0.698518 47:-0.709716 48:0.165579 49:0.208708 50:-0.39798 51:-0.960745 52:0.14551 53:-0.116329 54:-0.982941 55:0.107247 56:-0.0725545 57:-0.992956 58:0.0963726 59:-0.0526147 60:-0.997037 61:0.0820542 62:-0.0425396 63:-1 64:0.0745614 65:-0.0394068 66:-1 67:0.0702229 68:-0.025571 69:-1 70:0.0650079 71:-0.0265618 72:-1 73:0.0612828 74:-0.0198865 75:-1 76:0.0593994 77:-0.0280287 78:-0.999592 79:0.0578158 80:-0.026393 81:-1 82:0.0552185 83:-0.0167111 84:-1 85:0.0537963 86:-0.0121135 87:-1 88:0.0526799 89:-0.0119754 90:-0.999184 91:0.798316 92:0.011535 93:-0.563878 94:0.60081 95:-1 96:0.122623 97:0.208165 98:-0.53164 99:-0.330721 100:-0.274053 101:0.38678 102:-0.715163 103:-1 104:0.446177 105:-0.132188 106:-0.731732 107:-0.0210692 108:0.176811 109:0.0566123 110:-0.453736 111:-0.093909 112:0.740947 113:-0.532844 114:1 115:-0.254771 116:0.659935 117:0.497268 118:-0.483856 119:0.682069 120:-0.140146 121:-0.231426 122:0.886141 123:-0.536572 124:-0.0632484 125:0.729403 126:-0.280014 127:0.117726 128:0.164777 129:-0.790238 130:0.175962 131:-0.0413559 132:-0.438395 133:0.0870255 134:0.361001 135:-0.321344 136:0.169204 137:0.257334 138:-0.310512 139:0.221077 140:0.0753455 141:0.864867 142:0.613466 143:-0.0622415 144:0.466615 145:-0.00789811 146:0.0370042 147:0.249946 148:0.178437 149:-0.330487 150:0.196744 151:-0.0631407 152:-0.364419 153:0.0503003 154:0.0157099 155:-0.273529 156:0.0704771 157:-0.0167581 158:-0.323204 159:0.00211397 160:-0.0555304 161:-0.237147 162:-0.438874 163:0.283207 164:0.165362 165:0.0537895 166:0.168522 167:-0.5367 168:-0.00421788 169:0.0831411 170:0.217584 171:-0.350854 172:0.0134442 173:0.060638 174:-0.378865 175:-0.0420458 176:-0.0176991 177:-0.250594 178:0.0867339 179:0.497072 180:-0.055395 181:0.657201 182:0.581528 183:-0.52841 184:1 185:0.703718 186:-1 187:1 188:-0.440208 189:-1 190:0.50632 191:-1 192:-1 193:-1 194:-1 195:-1 196:0.234899 197:0.14821 198:-1 199:0.293181 200:1 201:-0.30004 202:0.452486 203:0.177374 204:-0.407072 205:0.463243 206:-0.243628 207:0.0548067 208:-0.660311 209:-1 210:-0.284426 211:0.281098 212:-0.0048344 213:-0.107742 214:0.462534 215:0.539663 216:-0.340985 217:0.482024 218:-0.0317248 219:-0.408467 220:0.0238635 221:-0.137663 222:-0.35154 223:0.539444 224:-0.127736 225:-0.415962 226:0.0799305 227:-0.0196085 228:-0.284662 229:-0.117546 230:-0.00474068 231:-0.0214395 232:-0.246028 233:-0.250362 234:0.143213 235:0.15468 236:-0.156048 237:-0.128144 238:0.490815 239:0.151153 240:0.62361 241:0.166155 242:0.0334551 243:0.153172 244:-0.26808 245:0.213502 246:-0.771241 247:0.217763 248:0.207607 249:0.16885 250:-0.193254 251:-0.358875 252:-0.567966 253:0.0280982 254:-0.648472 255:0.0462085 256:0.752735 257:0.556099 258:0.0110821 259:-0.155105 260:-0.154818 261:0.0245614 262:0.591782 263:-0.523796 264:-0.0868996 265:-0.541937 266:0.384599 267:-0.904565 268:0.722357 269:-0.803423 270:0.365407 
2.564921817342062 1:-0.00573835 2:-0.256337 3:0.980802 4:-0.0302906 5:-0.203048 6:0.989179 7:-0.0741919 8:-0.0647689 9:0.99755 10:0.140289 11:-0.00740189 12:0.991011 13:0.474131 14:-0.00208567 15:0.882275 16:0.738951 17:0.0640933 18:0.689241 19:0.851956 20:0.129794 21:0.539359 22:0.854931 23:0.20198 24:0.501406 25:0.793535 26:-0.0133265 27:0.629971 28:0.671138 29:-0.339162 30:0.65597 31:0.502646 32:-0.483515 33:-0.762512 34:-0.750115 35:-0.670178 36:0.210645 37:0.76371 38:-0.416035 39:0.500615 40:0.538799 41:-0.169248 42:0.821352 43:0.773971 44:-0.315349 45:0.544021 46:0.780826 47:-0.355566 48:0.505822 49:0.824697 50:-0.337904 51:0.439772 52:0.828265 53:-0.320064 54:0.456765 55:0.828242 56:-0.338358 57:0.4572 58:-0.00556094 59:-0.309058 60:0.95422 61:0.00912846 62:-0.161544 63:0.988245 64:0.0128519 65:-0.120657 66:0.993768 67:0.0192259 68:-0.0637963 69:0.997855 70:0.0222811 71:-0.0517425 72:0.998775 73:0.0244723 74:-0.0329321 75:0.999387 76:0.0250344 77:-0.0350488 78:0.99949 79:0.025492 80:-0.0296857 81:0.999592 82:0.0259522 83:-0.0183514 84:0.999592 85:0.0263628 86:-0.0121135 87:0.999592 88:0.0269774 89:-0.0106448 90:0.999694 91:0.132715 92:0.188254 93:-0.917521 94:-0.115718 95:0.131926 96:0.136731 97:-0.0525149 98:0.0126293 99:0.267237 100:-0.118833 101:-0.084839 102:-0.984486 103:-0.233392 104:-0.0459652 105:-0.491807 106:-0.161466 107:0.205786 108:-0.235131 109:-0.35817 110:-0.298366 111:-0.338857 112:-0.303416 113:-0.265325 114:-0.433029 115:-0.264567 116:0.403001 117:0.143971 118:-0.518772 119:0.158525 120:0.223391 121:-0.129859 122:0.310577 123:0.567299 124:0.562441 125:0.332548 126:-0.0825797 127:-0.0170543 128:0.3265 129:-0.445493 130:0.0474306 131:-0.202413 132:0.268692 133:0.0064145 134:0.245337 135:-0.0533364 136:0.106344 137:0.141006 138:0.0678401 139:-0.148161 140:0.260187 141:0.778357 142:0.187346 143:0.289442 144:0.274484 145:-0.304113 146:0.312825 147:0.0980271 148:0.458478 149:-0.107125 150:-0.473333 151:0.26248 152:-0.292766 153:-0.272617 154:0.333475 155:-0.269677 156:-0.281711 157:0.247512 158:-0.400292 159:-0.228804 160:0.0902822 161:-0.388297 162:-0.526316 163:0.284724 164:0.0928093 165:0.017677 166:0.134475 167:-0.575545 168:-0.0101084 169:0.0693035 170:0.196978 171:-0.352306 172:-0.00110411 173:0.0379647 174:-0.379847 175:-0.0575777 176:-0.0396591 177:-0.251188 178:0.0694511 179:0.491373 180:-0.0559928 181:0.595191 182:0.485404 183:0.0959003 184:0.0204581 185:0.471214 186:0.520255 187:0.0935577 188:-0.328904 189:-0.231622 190:0.214624 191:-0.601667 192:-0.0456012 193:-0.0451489 194:-0.627801 195:-0.0481492 196:0.530922 197:-0.19567 198:-0.155103 199:-0.219212 200:-0.323445 201:-0.35892 202:0.107643 203:-0.220392 204:-0.519636 205:-0.229593 206:-0.518809 207:-0.347641 208:-0.468669 209:-0.578397 210:-0.0509693 211:0.289384 212:-0.775645 213:-0.128655 214:0.39879 215:-0.52714 216:-0.344532 217:0.480661 218:-1 219:-0.313966 220:0.0385428 221:0.431067 222:-0.503665 223:0.0494583 224:-0.587109 225:-0.327091 226:-0.227021 227:-0.0793084 228:-0.266184 229:-0.149424 230:-0.106963 231:-0.0161161 232:-0.213929 233:-0.268968 234:0.142063 235:0.158065 236:-0.159594 237:-0.128069 238:0.491139 239:0.150131 240:0.62373 241:0.165689 242:0.0331375 243:0.153801 244:-0.26825 245:0.214041 246:-0.771374 247:0.219423 248:0.207197 249:0.168599 250:-0.191744 251:-0.358608 252:-0.565114 253:0.0297969 254:-0.646932 255:0.050237 256:0.752285 257:0.556005 258:0.0115478 259:-0.157343 260:-0.154705 261:0.0261696 262:0.589461 263:-0.523438 264:-0.0865259 265:-0.543279 266:0.386151 267:-0.9053 268:0.717699 269:-0.802498 270:0.367698 
2.492401000731726 1:0.0732298 2:-0.110242 3:0.997651 4:0.0683848 5:-0.150301 6:0.993671 7:-0.0282196 8:-0.140786 9:0.995508 10:-0.293471 11:0.144576 12:0.943204 13:-0.660611 14:0.513557 15:0.538391 16:-0.689429 17:0.694912 18:0.2276 19:-0.578548 20:0.826635 21:-0.0289692 22:-0.327332 23:0.944722 24:-0.151153 25:-0.278832 26:0.947919 27:0.147005 28:-0.517896 29:0.617996 30:0.623723 31:-0.838365 32:-0.390781 33:0.430733 34:-0.761287 35:0.0488781 36:-0.654087 37:-0.681116 38:-0.22877 39:-0.710656 40:-0.240658 41:-0.97153 42:-0.0253307 43:-0.600926 44:-0.790658 45:0.168989 46:-0.696738 47:-0.0246972 48:-0.798862 49:0.582997 50:0.192632 51:-0.847201 52:0.897347 53:-0.382818 54:-0.216916 55:0.313071 56:-0.141235 57:-0.941095 58:0.200653 59:-0.0943215 60:-0.97803 61:0.45525 62:-0.131873 63:-0.885107 64:0.417891 65:-0.125953 66:-0.903862 67:0.407415 68:-0.115358 69:-0.908278 70:0.40825 71:-0.123884 72:-0.907285 73:0.40828 74:-0.121069 75:-0.906993 76:0.645643 77:-0.262788 78:-0.72229 79:0.846946 80:-0.374801 81:-0.389405 82:0.882935 83:-0.376256 84:-0.286728 85:0.908011 86:-0.371326 87:-0.19553 88:0.934928 89:-0.353634 90:-0.053147 91:0.136772 92:0.207027 93:-0.556425 94:-0.0161742 95:0.077635 96:0.26445 97:0.188575 98:-0.627502 99:0.295555 100:0.241892 101:-0.143807 102:-0.903813 103:0.416814 104:-0.192794 105:-0.325855 106:0.398366 107:-0.0196855 108:0.0253992 109:0.0466527 110:-0.431975 111:-0.0745021 112:-0.221814 113:-0.314096 114:-0.206108 115:-0.144148 116:0.247077 117:0.0162362 118:-0.123517 119:0.132809 120:-0.316707 121:0.0587063 122:0.688427 123:0.170025 124:0.216924 125:0.195738 126:0.239543 127:0.151421 128:-0.0375317 129:0.0782267 130:0.0613127 131:-0.132375 132:-0.142639 133:0.00707578 134:0.300152 135:0.241518 136:-0.158293 137:-0.63569 138:0.718523 139:-1 140:1 141:0.122841 142:-0.26652 143:0.369312 144:0.179275 145:-0.149779 146:0.115701 147:1 148:-0.233485 149:-0.0574815 150:0.656955 151:-0.211348 152:-0.182945 153:0.394151 154:-0.0464504 155:-0.113546 156:0.532076 157:0.0847044 158:-0.241137 159:0.431386 160:0.0545323 161:-0.262183 162:-0.159796 163:0.0760563 164:0.264466 165:0.165086 166:-0.205567 167:-0.384699 168:-0.209585 169:-0.352629 170:0.454507 171:-0.593286 172:-0.484185 173:0.299631 174:-0.83592 175:-0.546752 176:0.190102 177:-0.766044 178:-0.324532 179:0.573049 180:-0.636844 181:0.550507 182:0.445177 183:-0.0604172 184:-0.113948 185:0.711125 186:0.453715 187:-0.0483486 188:-0.153101 189:-0.182071 190:0.631814 191:0.0844444 192:0.480724 193:0.410045 194:0.537605 195:0.576173 196:0.714879 197:0.50358 198:0.348426 199:0.187877 200:-0.0060744 201:-0.0281875 202:0.174995 203:-0.00851021 204:-0.296209 205:-0.134673 206:-0.40413 207:-0.0674589 208:-0.570683 209:0.34404 210:-0.0875022 211:0.0482063 212:0.3532 213:-0.161254 214:-1 215:0.64094 216:-0.234266 217:0.961321 218:0.209941 219:-0.339145 220:0.424048 221:0.305996 222:0.0538784 223:0.255231 224:0.432355 225:0.509995 226:1 227:0.593484 228:-0.0465176 229:-0.382048 230:-0.497677 231:0.208561 232:-0.102523 233:0.223403 234:-0.281538 235:0.115068 236:-0.28675 237:-0.0337221 238:0.43093 239:0.144354 240:0.629695 241:0.172837 242:-0.0476947 243:0.154902 244:-0.268123 245:0.217617 246:-0.770777 247:0.218549 248:0.208325 249:0.169267 250:-0.193128 251:-0.359332 252:-0.565827 253:0.0312124 254:-0.646932 255:0.0533175 256:0.752769 257:0.55671 258:0.0125722 259:-0.15593 260:-0.154705 261:0.0255848 262:0.591202 263:-0.523796 264:-0.0928798 265:-0.542832 266:0.385013 267:-0.904678 268:0.722357 269:-0.805273 270:0.367698 
8 1:0.135773 2:0.960877 3:-0.281593 4:0.143752 5:0.947573 6:-0.278444 7:0.146024 8:0.935817 9:-0.323499 10:0.164329 11:0.916183 12:-0.365647 13:0.200348 14:0.908016 15:-0.375026 16:0.741949 17:0.689958 18:-0.0505495 19:0.878485 20:0.513287 21:0.0717576 22:0.875714 23:0.469396 24:0.204723 25:0.794369 26:0.633495 27:0.019134 28:0.705605 29:0.709918 30:-0.066722 31:0.65069 32:0.815408 33:-0.142369 34:0.612258 35:0.695249 36:-0.393601 37:0.391063 38:0.874813 39:-0.314139 40:0.223402 41:1 42:-0.222849 43:-0.0739712 44:1 45:-0.161844 46:-0.275041 47:0.946725 48:-0.316485 49:-0.430241 50:0.86352 51:-0.393764 52:-0.806837 53:0.46286 54:0.414679 55:-0.848437 56:0.209915 57:0.490174 58:-0.865007 59:0.103304 60:0.494891 61:-0.73502 62:-0.146336 63:0.663191 64:-0.740208 65:-0.275318 66:0.619125 67:-0.743383 68:-0.242951 69:0.623615 70:-0.762912 71:-0.200807 72:0.616889 73:-0.858163 74:-0.405526 75:0.330271 76:-0.897415 77:-0.386569 78:0.233313 79:-0.908739 80:-0.369141 81:0.214453 82:-0.920563 83:-0.348985 84:0.181099 85:-0.927796 86:-0.341579 87:0.148587 88:-0.9284 89:-0.358649 90:0.101704 91:0.160253 92:0.0945416 93:-0.938762 94:0.334324 95:-0.177435 96:-0.0476072 97:0.390698 98:-0.286041 99:0.0725058 100:0.204143 101:-0.157174 102:-0.138292 103:0.263668 104:-0.0894832 105:0.17166 106:-0.0746465 107:0.503019 108:-0.000173571 109:-0.276172 110:0.0540005 111:-0.402457 112:-0.268598 113:-0.0205578 114:-0.397522 115:-0.321398 116:0.3423 117:0.0654834 118:-0.393227 119:-0.0430953 120:0.225446 121:-0.271449 122:0.807208 123:0.0885377 124:-0.0632966 125:0.206904 126:-0.132546 127:0.0717657 128:-0.196304 129:-0.0959505 130:0.312896 131:0.0623977 132:-0.14543 133:0.279328 134:-0.204616 135:0.250574 136:-0.431659 137:-0.253504 138:-0.00630587 139:-0.46436 140:0.018354 141:0.462502 142:0.575706 143:0.0862343 144:-0.686794 145:-0.104525 146:0.0690027 147:-0.199286 148:0.0751022 149:-0.266378 150:-0.312041 151:-0.160718 152:-0.285384 153:-0.25041 154:0.0154552 155:-0.203082 156:-0.17728 157:-0.0517977 158:-0.185681 159:-0.268475 160:-0.024045 161:-0.035575 162:-0.544612 163:0.359913 164:0.490679 165:0.0873227 166:0.28212 167:-0.351326 168:0.127627 169:0.0668819 170:0.481454 171:-0.22117 172:0.0212379 173:0.314659 174:-0.264318 175:-0.0232193 176:0.244182 177:-0.11163 178:0.109778 179:0.579486 180:0.0444356 181:0.592186 182:0.480884 183:0.0136658 184:-0.0830565 185:0.437064 186:0.42486 187:-0.229562 188:-0.290245 189:-0.230345 190:0.371492 191:-0.233175 192:0.33891 193:0.219569 194:-0.0547229 195:0.329527 196:0.686488 197:0.0648626 198:0.140909 199:0.414922 200:-0.202 201:-0.181026 202:0.247353 203:-0.180055 204:-0.40788 205:0.104656 206:-0.613906 207:-0.23655 208:-0.36173 209:0.195634 210:-0.191503 211:0.420794 212:0.129904 213:-0.253116 214:0.596847 215:0.487378 216:-0.51496 217:0.371482 218:-0.0758206 219:-0.528703 220:-0.101564 221:-0.144163 222:-0.392941 223:0.619079 224:-0.230442 225:-0.872564 226:0.23083 227:-0.204097 228:-0.397726 229:-0.0472975 230:-0.0497928 231:-0.0346387 232:-0.250308 233:-0.349969 234:-0.0741948 235:0.0978386 236:-0.365808 237:-0.254239 238:0.467266 239:0.156026 240:0.572546 241:0.140671 242:-0.0115928 243:0.0499037 244:-0.288009 245:0.170243 246:-0.78035 247:0.151478 248:0.230059 249:0.157587 250:-0.27418 251:-0.350874 252:-0.497386 253:0.0173402 254:-0.68866 255:0.126303 256:0.764885 257:0.563954 258:0.0562488 259:-0.116947 260:-0.13754 261:0.0641813 262:0.613023 263:-0.497551 264:-0.0341992 265:-0.536271 266:0.407767 267:-0.898459 268:0.73471 269:-0.658187 270:0.409698 
8 1:0.512819 2:0.859478 3:-0.149145 4:0.7088 5:0.345623 6:0.603696 7:0.694305 8:0.395384 9:0.58626 10:0.700827 11:0.403057 12:0.575668 13:0.704519 14:0.40446 15:0.572391 16:0.718584 17:0.425431 18:0.571889 19:0.552538 20:0.396242 21:0.745522 22:0.474253 23:0.449595 24:0.767111 25:0.411992 26:0.417207 27:0.814052 28:0.365502 29:0.402249 30:0.832858 31:0.355742 32:0.418995 33:0.851 34:0.33019 35:0.345412 36:0.87632 37:0.307444 38:0.340139 39:0.889857 40:0.292322 41:0.353674 42:0.901651 43:0.257716 44:0.297467 45:0.921605 46:0.226452 47:0.266321 48:0.931596 49:0.215741 50:0.243289 51:0.94365 52:0.212857 53:0.251334 54:0.952909 55:0.201693 56:0.212993 57:0.958961 58:0.190552 59:0.206074 60:0.963928 61:0.184354 62:0.189727 63:0.966677 64:0.178091 65:0.175953 66:0.969146 67:0.172523 68:0.175007 69:0.971605 70:0.167287 71:0.162877 72:0.973656 73:0.159988 74:0.154054 75:0.976621 76:0.153419 77:0.129304 78:0.978975 79:0.14714 80:0.119206 81:0.981117 82:0.139652 83:0.114415 84:0.983467 85:0.134669 86:0.10943 87:0.985101 88:0.128461 89:0.0990788 90:0.986841 91:0.104746 92:-0.519451 93:-0.716042 94:0.540301 95:-0.26963 96:0.84363 97:-0.187502 98:-0.221147 99:0.452947 100:-0.223358 101:-0.0960954 102:0.302181 103:-0.128454 104:0.0549872 105:0.416328 106:0.0614562 107:0.37195 108:0.426059 109:0.051595 110:-0.134843 111:-0.0306004 112:-0.0279511 113:-0.16275 114:-0.351592 115:0.0544672 116:0.285389 117:0.120681 118:-0.0723832 119:-0.0836073 120:-0.0433353 121:-0.0197051 122:0.115558 123:-0.20745 124:0.134954 125:0.128947 126:-0.120224 127:0.199655 128:-0.237407 129:0.0125391 130:0.327509 131:-0.244921 132:-0.0367523 133:0.175109 134:0.314499 135:-0.0737782 136:0.23845 137:0.194765 138:-0.0835701 139:0.0430752 140:0.227742 141:0.244593 142:0.36789 143:0.269649 144:-0.19478 145:-0.223282 146:0.328349 147:-0.176695 148:-0.0218622 149:-0.0700994 150:-0.310796 151:-0.189004 152:-0.186725 153:-0.158 154:-0.0456012 155:-0.0965119 156:-0.0646271 157:-0.0328052 158:-0.201219 159:-0.0469122 160:-0.0556211 161:-0.147948 162:-0.450339 163:0.289491 164:0.214914 165:0.0425613 166:0.178051 167:-0.504881 168:-0.0130172 169:0.0947878 170:0.265983 171:-0.356782 172:0.0281224 173:0.111785 174:-0.384906 175:-0.020866 176:0.0403147 177:-0.256282 178:0.0969755 179:0.530839 180:-0.0611737 181:-1 182:0.302723 183:0.460321 184:-0.0539139 185:0.572315 186:0.439749 187:-0.265478 188:-0.358349 189:-0.220249 190:0.311208 191:-0.274365 192:0.330418 193:0.240154 194:-0.114533 195:0.350747 196:0.697723 197:0.083597 198:0.150028 199:0.262746 200:-0.223894 201:-0.167303 202:0.218768 203:-0.206784 204:-0.384874 205:0.0110459 206:-0.5881 207:-0.147866 208:-0.441703 209:0.176059 210:-0.134465 211:0.211786 212:0.149385 213:-0.159875 214:0.438868 215:0.423967 216:-0.341114 217:0.475736 218:-0.0280227 219:-0.408513 220:0.0238635 221:-0.137907 222:-0.352194 223:0.538728 224:-0.127657 225:-0.414444 226:0.0799866 227:-0.0187521 228:-0.284662 229:-0.117935 230:-0.00496044 231:-0.0211478 232:-0.245574 233:-0.25032 234:0.143117 235:0.154911 236:-0.15632 237:-0.128293 238:0.491139 239:0.151211 240:0.623529 241:0.165922 242:0.034355 243:0.154037 244:-0.269143 245:0.21311 246:-0.771175 247:0.217763 248:0.206582 249:0.168516 250:-0.19703 251:-0.359447 252:-0.566065 253:0.0309293 254:-0.648934 255:0.0492891 256:0.752492 257:0.555676 258:0.0108959 259:-0.156519 260:-0.155724 261:0.0232456 262:0.591898 263:-0.52401 264:-0.0925061 265:-0.542608 266:0.385323 267:-0.904622 268:0.722357 269:-0.806198 270:0.366934 
