svm_type c_svc
kernel_type rbf
gamma 0.0078125
nr_class 2
total_sv 81
rho -1.425
label 0 1
nr_sv 37 44
SV
0.4782562482703412 1:0.125875 2:-0.130393 3:0.988577 4:0.148989 5:-0.128456 6:0.986831 7:0.0795332 8:-0.0318196 9:0.998569 10:0.424256 11:0.281934 12:0.852779 13:0.726831 14:0.563185 15:0.37771 16:0.677643 17:0.742237 18:-0.0530133 19:0.463587 20:0.819485 21:-0.353947 22:-0.000360101 23:0.944356 24:-0.357362 25:-0.50073 26:0.760512 27:-0.440232 28:-0.798505 29:-0.614527 30:-0.309068 31:0.373275 32:-0.796708 33:-0.57111 34:-0.125609 35:0.769591 36:-0.640857 37:0.489458 38:0.221036 39:0.843364 40:0.565857 41:-0.801171 42:-0.162753 43:-0.0932099 44:-0.949694 45:-0.298933 46:0.250118 47:-0.966458 48:-0.285364 49:0.281932 50:-0.978439 51:-0.132742 52:0.287755 53:-0.975987 54:-0.104392 55:0.263297 56:-0.993312 57:-0.141136 58:0.257181 59:-0.993797 60:-0.151441 61:0.256056 62:-0.994895 63:-0.149136 64:0.256018 65:-0.995445 66:-0.146404 67:0.522668 68:-0.318141 69:-0.794699 70:0.122419 71:-0.155227 72:-0.983561 73:0.0426226 74:-0.0905516 75:-0.997346 76:-0.00168256 77:-0.0650906 78:-1 79:-0.0378301 80:-0.0715645 81:-0.999081 82:-0.0411462 83:-0.0627435 84:-0.998877 85:-0.0410484 86:-0.0520828 87:-0.999184 88:-0.0873578 89:-0.0727738 90:-0.994185 91:0.189943 92:0.23085 93:-0.814965 94:0.0364361 95:0.0292384 96:0.287073 97:-0.180236 98:-0.210063 99:0.194679 100:-0.107413 101:-0.157238 102:-0.536062 103:-0.397826 104:-0.221275 105:-0.517417 106:-0.129245 107:0.00157233 108:0.0801319 109:-0.0358501 110:-0.254186 111:0.0973252 112:0.125338 113:-0.258648 114:-0.123156 115:-0.348619 116:0.371983 117:0.29086 118:0.232017 119:0.0368131 120:0.253194 121:-0.174023 122:0.43012 123:0.141182 124:0.209166 125:-0.46049 126:0.112367 127:-0.0303531 128:-0.388181 129:-0.4655 130:0.0642684 131:-0.437087 132:-0.752475 133:0.0505885 134:1 135:0.0483139 136:0.204439 137:1 138:0.172684 139:0.042183 140:0.694714 141:0.470437 142:0.419794 143:0.747725 144:-0.614881 145:-0.203258 146:0.881869 147:-0.34825 148:-0.0916169 149:0.167538 150:-0.796539 151:-0.23252 152:-0.117232 153:-0.489715 154:-0.0810122 155:-0.16208 156:-0.413495 157:-0.331708 158:-0.769851 159:0.225026 160:0.0249524 161:-1 162:-0.144291 163:0.600764 164:-0.313292 165:0.453607 166:0.438873 167:-0.750896 168:0.332267 169:0.378292 170:-0.132939 171:-0.17018 172:0.74993 173:-0.255207 174:-0.216446 175:0.865826 176:-0.323529 177:-0.0714098 178:0.745455 179:0.48156 180:0.102992 181:0.568717 182:-0.423379 183:-0.444188 184:-0.0149793 185:0.0589837 186:0.489346 187:0.161035 188:-0.358416 189:0.28517 190:0.556141 191:-0.573737 192:0.21357 193:0.395224 194:-0.915784 195:0.610348 196:0.708957 197:-0.3801 198:-0.0306875 199:0.135354 200:-0.468458 201:-0.289676 202:-0.740943 203:-0.131398 204:-0.37528 205:1 206:-0.789432 207:-0.651709 208:-0.125274 209:-0.292578 210:-0.985623 211:-0.174693 212:-0.583327 213:-1 214:-0.114255 215:0.232339 216:-0.928424 217:-0.0213282 218:0.268222 219:-0.22452 220:-0.896322 221:-0.256926 222:-0.00287933 223:-0.659672 224:-1 225:1 226:0.0651431 227:0.617892 228:-0.840806 229:-0.0289888 230:-0.273295 231:0.0802159 232:-0.176448 233:-0.316436 234:0.176093 235:0.138989 236:-0.145091 237:-0.13731 238:0.513717 239:0.127429 240:0.623287 241:0.165145 242:0.0297496 243:0.15616 244:-0.265913 245:0.211836 246:-0.770777 247:0.218025 248:0.203096 249:0.168349 250:-0.187465 251:-0.360857 252:-0.701346 253:-0.120612 254:-0.650781 255:-0.350194 256:-0.536733 257:0.680232 258:-0.288827 259:-0.528048 260:-0.158727 261:0.0263158 262:0.590505 263:-0.525512 264:-0.101476 265:-0.132304 266:-1 267:0.0262664 268:-0.285647 269:-0.841066 270:0.549918 
5.080210462369231 1:0.0955515 2:-0.174125 3:0.987251 4:0.0430229 5:-0.355959 6:0.954877 7:0.00714616 8:-0.113054 9:0.998876 10:-0.609082 11:0.414408 12:0.672558 13:-0.750473 14:0.549922 15:0.353124 16:-0.688292 17:0.6 18:-0.396731 19:-0.204432 20:0.290129 21:-0.933347 22:0.236483 23:0.58393 24:-0.77137 25:0.122419 26:0.825808 27:0.542602 28:-0.495838 29:0.244876 30:0.855654 31:0.256562 32:0.252119 33:0.938967 34:0.0914775 35:0.425275 36:0.901138 37:0.362233 38:0.428925 39:0.828215 40:0.511436 41:0.48805 42:0.752846 43:0.518313 44:0.456884 45:0.742459 46:0.196084 47:0.161243 48:0.962404 49:0.0784983 50:0.062536 51:0.99483 52:0.0589796 53:0.0570971 54:0.998672 55:0.0448264 56:0.0227695 57:0.999796 58:0.0384164 59:0.0245963 60:1 61:0.0324851 62:0.0125492 63:1 64:0.0272338 65:0.00286017 66:1 67:0.0254475 68:0.00971384 69:1 70:0.0230969 71:0.00116872 72:1 73:0.0221271 74:0.000531406 75:1 76:0.0199358 77:-0.0100656 78:1 79:0.0185582 80:-0.011473 81:1 82:0.0173864 83:-0.00574123 84:0.999898 85:0.0163684 86:-0.00414005 87:0.999898 88:0.0159621 89:-0.00583419 90:0.999898 91:0.177834 92:0.140003 93:-0.739557 94:-0.335682 95:-0.162697 96:0.234431 97:0.306359 98:-0.260312 99:-0.669193 100:0.781385 101:-0.194461 102:-0.210964 103:0.475898 104:-0.163782 105:-0.353423 106:0.379729 107:0.155283 108:0.41848 109:-0.133449 110:0.2072 111:0.666231 112:-0.42639 113:-0.518698 114:-0.341715 115:-0.588043 116:-0.510911 117:-0.235231 118:-0.122616 119:-0.0979333 120:-0.523415 121:-0.2188 122:0.370935 123:-0.449673 124:-0.130232 125:0.291708 126:-0.229991 127:0.00127476 128:-0.12084 129:-0.0345568 130:-0.0299654 131:-0.0848948 132:0.203875 133:0.0700304 134:0.335893 135:0.270755 136:0.354535 137:0.334717 138:-0.00990922 139:0.168435 140:0.331718 141:0.26202 142:0.533006 143:0.389741 144:-0.174133 145:-0.0740873 146:0.567852 147:-0.155335 148:0.118748 149:0.0054805 150:-0.328855 151:-0.095527 152:-0.143697 153:-0.181239 154:-0.0251359 155:-0.0959983 156:-0.0622554 157:-0.0385944 158:-0.221822 159:-0.0337786 160:-0.0708647 161:-0.181368 162:-0.442319 163:0.402219 164:0.195061 165:0.0514377 166:0.239448 167:-0.0628071 168:-0.00567231 169:0.157003 170:0.236289 171:-0.35158 172:0.43498 173:0.0817295 174:-0.379469 175:0.548045 176:0.0311021 177:-0.227969 178:0.630584 179:0.506674 180:0.098933 181:0.581446 182:-0.45433 183:-0.444256 184:-0.2121 185:0.0743644 186:0.367254 187:-0.151092 188:-0.307138 189:0.295966 190:0.680784 191:0.0523025 192:0.349015 193:0.650062 194:-0.251113 195:0.7056 196:0.863693 197:0.326395 198:0.141147 199:0.649159 200:-0.100603 201:-0.165822 202:-0.48071 203:0.414567 204:-0.256691 205:0.171493 206:-0.4559 207:-0.0507863 208:-1 209:0.410106 210:-0.149608 211:-0.315022 212:0.257859 213:-0.27367 214:0.873409 215:0.649172 216:0.120196 217:0.506535 218:0.321445 219:-0.465733 220:-0.32137 221:-0.414859 222:-0.391022 223:0.582127 224:-0.441301 225:-0.424465 226:0.0717526 227:-0.109426 228:-0.285825 229:-0.116377 230:0.0190569 231:-0.0214395 232:-0.245574 233:-0.254745 234:0.143405 235:0.15568 236:-0.156048 237:-0.128368 238:0.4913 239:0.150919 240:0.62369 241:0.166388 242:0.0336668 243:0.154273 244:-0.268803 245:0.213257 246:-0.771109 247:0.217414 248:0.20853 249:0.168432 250:-0.192751 251:-0.359599 252:-0.706522 253:-0.125709 254:-0.648626 255:-0.35424 256:-0.543647 257:0.681045 258:-0.289191 259:-0.527737 260:-0.156064 261:0.0244152 262:0.591434 263:-0.524296 264:-0.0883947 265:-0.201876 266:-0.861702 267:0.0519074 268:-0.289436 269:-0.862955 270:0.459083 
3.4535188374748 1:-0.00573835 2:-0.256337 3:0.978377 4:-0.0302906 5:-0.203048 6:0.989179 7:-0.0763457 8:-0.05226 9:0.999489 10:0.140289 11:-0.00729461 12:0.991316 13:0.474131 14:-0.00208567 15:0.880643 16:0.738951 17:0.0272995 18:0.687947 19:0.851956 20:0.0912202 21:0.539674 22:0.854931 23:0.154086 24:0.501636 25:0.793535 26:-0.0252092 27:0.630141 28:0.671138 29:-0.345559 30:0.656141 31:0.502646 32:-0.483515 33:-0.762499 34:-0.750115 35:-0.647786 36:0.210645 37:0.76371 38:-0.416035 39:0.497733 40:0.538799 41:-0.14743 42:0.821352 43:0.773971 44:-0.303247 45:0.544021 46:0.780826 47:-0.359129 48:0.505822 49:0.824697 50:-0.337904 51:0.439696 52:0.828265 53:-0.320064 54:0.456691 55:0.828242 56:-0.338358 57:0.4572 58:-0.00556094 59:-0.309058 60:0.95422 61:0.00912846 62:-0.161544 63:0.988245 64:0.0128519 65:-0.120657 66:0.993768 67:0.0192259 68:-0.0637963 69:0.997855 70:0.0222811 71:-0.0517425 72:0.998775 73:0.0244723 74:-0.0350728 75:0.999387 76:0.0250344 77:-0.0350488 78:0.99949 79:0.025492 80:-0.0296857 81:0.999592 82:0.0259522 83:-0.0183514 84:0.999592 85:0.0263628 86:-0.0121135 87:0.999592 88:0.0269774 89:-0.0106448 90:0.999694 91:0.132715 92:0.188254 93:-0.993286 94:-0.0681753 95:0.131926 96:0.136731 97:-0.128129 98:0.0126293 99:0.117772 100:0.166306 101:-0.084839 102:-0.602379 103:-0.228745 104:-0.0459652 105:-0.855932 106:-0.161466 107:0.205786 108:-0.235131 109:-0.341326 110:-0.0679227 111:-0.338857 112:-0.303416 113:-0.125757 114:-0.433029 115:-0.399441 116:0.0659673 117:0.200771 118:-0.518772 119:0.158525 120:0.223391 121:-0.129859 122:0.310577 123:0.620963 124:0.562441 125:0.369624 126:-0.0825797 127:-0.0170543 128:0.30452 129:-0.445493 130:-0.245175 131:-0.202413 132:0.268692 133:0.0064145 134:0.245337 135:-0.0380596 136:0.106344 137:0.141006 138:0.0678401 139:-0.148161 140:0.260187 141:0.778357 142:0.187346 143:0.289442 144:0.274484 145:-0.309423 146:0.44484 147:0.0980271 148:0.458478 149:-0.107125 150:-0.473333 151:0.26248 152:-0.292766 153:-0.272617 154:0.333475 155:-0.269677 156:-0.281711 157:0.247512 158:-0.400292 159:-0.228804 160:0.0902822 161:-0.388297 162:-0.526316 163:0.414867 164:0.0928093 165:0.017677 166:0.218631 167:-0.165715 168:-0.0101084 169:0.146372 170:0.196978 171:-0.352306 172:0.425526 173:0.0379647 174:-0.379847 175:0.515006 176:-0.00946586 177:-0.228056 178:0.609392 179:0.491373 180:0.098933 181:0.595191 182:-0.370942 183:-0.379657 184:0.0204581 185:0.125511 186:0.520255 187:0.145647 188:-0.328904 189:0.276495 190:0.113744 191:-0.468073 192:-0.0456012 193:-0.0451489 194:-0.786741 195:0.485345 196:0.530922 197:-0.19567 198:-0.155103 199:-0.219212 200:-0.323445 201:-0.35892 202:-0.876264 203:0.22566 204:-0.450316 205:-0.229593 206:-0.518809 207:-0.347641 208:-0.468669 209:-0.578397 210:-0.0509693 211:0.289384 212:-0.775645 213:-0.128655 214:0.39879 215:-0.52714 216:-0.344532 217:0.480661 218:-1 219:-0.313966 220:0.0385428 221:0.431067 222:-0.503665 223:0.0494583 224:-0.587109 225:-0.327091 226:-0.227021 227:-0.0793084 228:-0.266184 229:-0.149424 230:-0.106963 231:-0.0161161 232:-0.213929 233:-0.268968 234:0.142063 235:0.158065 236:-0.159594 237:-0.128069 238:0.491139 239:0.150131 240:0.62373 241:0.165689 242:0.0331375 243:0.153801 244:-0.26825 245:0.214041 246:-0.771374 247:0.219423 248:0.207197 249:0.168599 250:-0.191744 251:-0.358608 252:-0.704451 253:-0.127025 254:-0.646932 255:-0.351543 256:-0.54624 257:0.680791 258:-0.288341 259:-0.529137 260:-0.154705 261:0.0261696 262:0.589461 263:-0.523438 264:-0.0865259 265:-0.20813 266:-0.857009 267:0.0475297 268:-0.320701 269:-0.85439 270:0.46563 
1.079422266595412 1:0.039642 2:-0.133716 3:0.995206 4:0.0456926 5:-0.0610048 6:1 7:-0.0344969 8:0.102624 9:0.993563 10:0.187343 11:0.260423 12:0.940642 13:0.424697 14:0.436547 15:0.783219 16:0.610339 17:0.571681 18:0.549847 19:0.665314 20:0.687092 21:0.307976 22:0.495756 23:0.830445 24:-0.280164 25:0.566006 26:0.674347 27:-0.512213 28:0.525638 29:-0.681615 30:-0.542386 31:-0.784625 32:-0.0887419 33:-0.662194 34:0.0814329 35:0.768759 36:-0.649882 37:0.623147 38:-0.411292 39:-0.686418 40:-0.613028 41:-0.0595628 42:-0.792944 43:0.43786 44:0.33797 45:-0.843924 46:0.734646 47:-0.0996267 48:-0.70435 49:0.633468 50:0.00559946 51:-0.830326 52:0.837449 53:-0.197972 54:-0.506946 55:0.899944 56:-0.295473 57:-0.331734 58:0.790011 59:-0.263287 60:0.556203 61:0.784793 62:-0.265234 63:0.564142 64:0.424725 65:-0.153814 66:0.893645 67:0.100209 68:0.323917 69:0.946274 70:0.0163667 71:0.307374 72:0.955685 73:0.0143775 74:0.308109 75:0.955692 76:0.113853 77:0.218913 78:0.968055 79:0.089324 80:0.061172 81:0.993774 82:0.0663336 83:0.0313717 84:0.997347 85:0.0582836 86:0.0231536 87:0.998163 88:0.0524759 89:0.0154555 90:0.998572 91:0.152385 92:0.0685314 93:-0.762412 94:0.203743 95:-0.0509314 96:-0.0732753 97:-0.0801013 98:-0.111514 99:-0.841887 100:0.0240801 101:-0.0666112 102:-0.361359 103:-0.225344 104:-0.0750951 105:-0.446124 106:-0.0544345 107:0.157296 108:0.155115 109:-0.024707 110:-0.107204 111:0.498692 112:0.65262 113:0.869083 114:0.0900112 115:-0.509982 116:-0.129968 117:0.758205 118:0.437753 119:-0.428194 120:0.374739 121:-0.123367 122:-0.599707 123:0.0748899 124:-0.204829 125:0.0664385 126:0.0426181 127:0.543152 128:-0.533638 129:0.144965 130:-0.598631 131:-1 132:0.109309 133:0.0238725 134:0.628365 135:0.070466 136:0.20891 137:0.185379 138:-0.112258 139:0.0737087 140:0.476126 141:0.157772 142:0.371003 143:0.54299 144:-0.320997 145:-0.350432 146:0.612343 147:-0.466129 148:-0.213511 149:0.268927 150:-0.0715715 151:-0.070254 152:0.000930177 153:-0.549906 154:0.298319 155:-0.336272 156:-0.0506344 157:0.39092 158:-0.438922 159:-0.016507 160:0.303693 161:-0.485648 162:-0.413449 163:0.749195 164:0.0388992 165:0.108034 166:0.505348 167:-0.126809 168:0.0445786 169:0.283719 170:0.291874 171:-0.303312 172:0.508759 173:0.198392 174:-0.376902 175:0.528625 176:0.21687 177:-0.245034 178:0.628417 179:0.611776 180:0.078984 181:0.648494 182:-0.405679 183:-0.395399 184:0.241825 185:0.0483865 186:0.391898 187:-0.0130792 188:-0.56954 189:0.192057 190:0.389803 191:-0.418261 192:0.219175 193:0.305613 194:-0.78879 195:0.6401 196:0.692133 197:-0.212739 198:0.0214099 199:0.182098 200:-0.362382 201:-0.254712 202:-0.481475 203:-0.0372641 204:0.511484 205:0.0566026 206:-0.512942 207:1 208:-0.553811 209:0.233115 210:1 211:0.263599 212:0.0341294 213:1 214:0.410677 215:0.583367 216:1 217:0.423192 218:-0.0228177 219:0.955207 220:0.299235 221:-0.287919 222:0.931071 223:0.520043 224:0.143363 225:-0.619313 226:-0.134207 227:-0.329991 228:0.444631 229:0.108456 230:-0.16966 231:-0.0132721 232:-0.00311264 233:-0.111929 234:0.0158167 235:-0.201677 236:0.276294 237:-0.226739 238:1 239:0.320018 240:0.591246 241:0.507634 242:0.294744 243:0.0878131 244:-0.243095 245:0.237164 246:-0.790619 247:0.223964 248:0.204429 249:0.170685 250:-0.192751 251:-0.360361 252:-0.705228 253:-0.126531 254:-0.646624 255:-0.352554 256:-0.54516 257:0.681146 258:-0.289312 259:-0.531471 260:-0.155838 261:0.0225146 262:0.591318 263:-0.523939 264:-0.0876472 265:-0.203049 266:-0.860451 267:0.0537836 268:-0.294173 269:-0.854866 270:0.466448 
2.474644728364233 1:0.0732298 2:-0.110242 3:0.995206 4:0.0683848 5:-0.150301 6:0.993671 7:-0.0302812 8:-0.127384 9:0.997445 10:-0.293471 11:0.144667 12:0.943502 13:-0.660611 14:0.513557 15:0.537057 16:-0.689429 17:0.682918 18:0.22666 19:-0.578548 20:0.81895 21:-0.0287703 22:-0.327332 23:0.941405 24:-0.151022 25:-0.278832 26:0.947309 27:0.147124 28:-0.517896 29:0.616171 30:0.623892 31:-0.838365 32:-0.390781 33:0.430807 34:-0.761287 35:0.0616296 36:-0.654087 37:-0.681116 38:-0.22877 39:-0.720528 40:-0.240658 41:-0.970783 42:-0.0253307 43:-0.600926 44:-0.786958 45:0.168989 46:-0.696738 47:-0.0273908 48:-0.798862 49:0.582997 50:0.192632 51:-0.847209 52:0.897347 53:-0.382818 54:-0.216956 55:0.313071 56:-0.141235 57:-0.941095 58:0.200653 59:-0.0943215 60:-0.97803 61:0.45525 62:-0.131873 63:-0.885107 64:0.417891 65:-0.125953 66:-0.903862 67:0.407415 68:-0.115358 69:-0.908278 70:0.40825 71:-0.123884 72:-0.907285 73:0.40828 74:-0.123392 75:-0.906993 76:0.645643 77:-0.262788 78:-0.72229 79:0.846946 80:-0.374801 81:-0.389405 82:0.882935 83:-0.376256 84:-0.286728 85:0.908011 86:-0.371326 87:-0.19553 88:0.934928 89:-0.353634 90:-0.053147 91:0.136772 92:0.207027 93:-0.617922 94:0.0367208 95:0.077635 96:0.26445 97:0.0937202 98:-0.627502 99:0.142749 100:0.643759 101:-0.143807 102:-0.528377 103:0.425403 104:-0.192794 105:-0.649474 106:0.398366 107:-0.0196855 108:0.0253992 109:0.074121 110:-0.245414 111:-0.0745021 112:-0.221814 113:-0.183793 114:-0.206108 115:-0.301107 116:-0.177984 117:-0.00352806 118:-0.123517 119:0.132809 120:-0.316707 121:0.0587063 122:0.688427 123:0.210087 124:0.216924 125:0.229008 126:0.239543 127:0.151421 128:-0.0713923 129:0.0782267 130:-0.227029 131:-0.132375 132:-0.142639 133:0.00707578 134:0.300152 135:0.261553 136:-0.158293 137:-0.63569 138:0.718523 139:-1 140:1 141:0.122841 142:-0.26652 143:0.369312 144:0.179275 145:-0.154462 146:0.227894 147:1 148:-0.233485 149:-0.0574815 150:0.656955 151:-0.211348 152:-0.182945 153:0.394151 154:-0.0464504 155:-0.113546 156:0.532076 157:0.0847044 158:-0.241137 159:0.431386 160:0.0545323 161:-0.262183 162:-0.159796 163:0.185061 164:0.264466 165:0.165086 166:-0.146636 167:0.209401 168:-0.209585 169:-0.305971 170:0.454507 171:-0.593286 172:-0.26388 173:0.299631 174:-0.83592 175:-0.271375 176:0.227519 177:-0.758817 178:0.0164961 179:0.573049 180:-0.577244 181:0.550507 182:-0.421486 183:-0.468141 184:-0.113948 185:0.309048 186:0.453715 187:0.0118956 188:-0.153101 189:0.358812 190:0.584522 191:0.448148 192:0.480724 193:0.410045 194:-0.118998 195:0.871116 196:0.714879 197:0.50358 198:0.348426 199:0.187877 200:-0.0060744 201:-0.0281875 202:-0.734651 203:0.55877 204:-0.194647 205:-0.134673 206:-0.40413 207:-0.0674589 208:-0.570683 209:0.34404 210:-0.0875022 211:0.0482063 212:0.3532 213:-0.161254 214:-1 215:0.64094 216:-0.234266 217:0.961321 218:0.209941 219:-0.339145 220:0.424048 221:0.305996 222:0.0538784 223:0.255231 224:0.432355 225:0.509995 226:1 227:0.593484 228:-0.0465176 229:-0.382048 230:-0.497677 231:0.208561 232:-0.102523 233:0.223403 234:-0.281538 235:0.115068 236:-0.28675 237:-0.0337221 238:0.43093 239:0.144354 240:0.629695 241:0.172837 242:-0.0476947 243:0.154902 244:-0.268123 245:0.217617 246:-0.770777 247:0.218549 248:0.208325 249:0.169267 250:-0.193128 251:-0.359332 252:-0.705228 253:-0.12538 254:-0.646932 255:-0.347159 256:-0.543215 257:0.681553 258:-0.287006 259:-0.52727 260:-0.154705 261:0.0255848 262:0.591202 263:-0.523796 264:-0.0928798 265:-0.205785 266:-0.860451 267:0.054409 268:-0.29891 269:-0.857245 270:0.46563 
2.155697848497274 1:0.142511 2:-0.107455 3:0.988169 4:0.0763939 5:-0.10235 6:0.996733 7:0.142049 8:-0.101991 9:0.988862 10:0.720245 11:-0.170012 12:0.685329 13:1 14:-0.120809 15:0.00392757 16:0.889997 17:0.0175382 18:-0.488253 19:0.482314 20:0.253342 21:-0.843555 22:0.0390452 23:0.474173 24:-0.871575 25:-0.077268 26:0.324207 27:-0.971892 28:-0.305159 29:-0.800688 30:-0.577436 31:-0.0103745 32:-0.947509 33:-0.478058 34:-0.68544 35:-0.499376 36:0.54579 37:0.265377 38:-0.340139 39:0.90406 40:-0.656729 41:-0.64402 42:0.364065 43:0.342901 44:-0.65267 45:0.665187 46:0.262998 47:-0.987067 48:0.126312 49:0.289482 50:-0.670312 51:0.68777 52:0.316837 53:-0.663501 54:0.687947 55:0.334897 56:-0.682819 57:0.677097 58:0.198714 59:-0.364025 60:0.91447 61:0.147534 62:-0.24875 63:0.95993 64:0.130865 65:-0.219386 66:0.969452 67:0.11255 68:-0.175742 69:0.97804 70:0.0967216 71:-0.155971 72:0.984173 73:0.0851433 74:-0.140185 75:0.98734 76:0.0812216 77:-0.138595 78:0.988467 79:0.0752524 80:-0.128775 81:0.990099 82:0.0729618 83:-0.118208 84:0.990611 85:0.0710316 86:-0.112599 87:0.991019 88:0.068183 89:-0.109724 90:0.991737 91:0.226641 92:0.171291 93:-0.805927 94:-0.115001 95:0.0229309 96:0.233934 97:-0.0616797 98:-0.0781943 99:-0.831838 100:-0.233405 101:0.0721755 102:-0.357773 103:-0.483291 104:0.0694342 105:-0.280011 106:-0.166847 107:0.237862 108:0.39985 109:0.0376945 110:-0.106289 111:0.417866 112:0.16027 113:-0.220233 114:0.115157 115:0.0680274 116:-0.219069 117:0.709879 118:0.331957 119:1 120:-0.273406 121:0.0608531 122:0.134251 123:-0.255598 124:0.191673 125:0.31024 126:-0.684773 127:0.410233 128:0.602331 129:-1 130:0.375622 131:-0.20684 132:-0.0548126 133:-0.245007 134:0.433117 135:-0.584632 136:0.0640302 137:0.530279 138:-0.0828078 139:-0.0674631 140:0.322429 141:0.480395 142:0.146676 143:0.29326 144:0.0568757 145:-0.360649 146:0.453138 147:-0.0757441 148:-0.00487575 149:-0.24522 150:-0.423246 151:-0.131679 152:-0.41873 153:-0.319519 154:0.0377038 155:-0.390285 156:-0.254437 157:0.0503758 158:-0.44785 159:-0.158998 160:-0.0117049 161:-0.396681 162:-0.487703 163:0.442907 164:0.112259 165:0.0305743 166:0.281541 167:-0.156553 168:-0.0183987 169:0.183212 170:0.188841 171:-0.356782 172:0.468718 173:0.0267598 174:-0.384377 175:0.564187 176:-0.0175794 177:-0.231994 178:0.642625 179:0.487786 180:0.0955695 181:0.626837 182:-0.415807 183:-0.444052 184:0.00635309 185:0.253118 186:0.21949 187:-0.350417 188:-0.809308 189:0.00322907 190:-0.192305 191:-0.731758 192:0.133152 193:-0.283381 194:-0.965021 195:0.666794 196:0.472869 197:-0.408326 198:0.153358 199:-0.189675 200:-0.49164 201:-0.0969763 202:-0.768172 203:-0.185426 204:-0.188078 205:-0.0048677 206:-0.859952 207:0.00579402 208:1 209:1 210:0.254139 211:-0.259846 212:-0.622724 213:0.0785594 214:0.553644 215:-0.533227 216:0.161852 217:0.371785 218:-0.154629 219:-0.332421 220:0.688506 221:-0.969941 222:-0.35154 223:0.758589 224:-0.159029 225:-0.386406 226:0.101103 227:-0.261441 228:-0.273033 229:-0.12222 230:-0.119082 231:-0.0195435 232:-0.252059 233:-0.283936 234:0.142063 235:0.153296 236:-0.153729 237:-0.128219 238:0.492353 239:0.152407 240:0.62369 241:0.166155 242:0.0345138 243:0.154745 244:-0.269355 245:0.213404 246:-0.771374 247:0.215667 248:0.206787 249:0.168516 250:-0.193254 251:-0.359447 252:-0.705745 253:-0.126367 254:-0.647702 255:-0.352554 256:-0.543431 257:0.681045 258:-0.290526 259:-0.52976 260:-0.156574 261:0.0238304 262:0.591318 263:-0.52401 264:-0.0872734 265:-0.205785 266:-0.861702 267:0.0537836 268:-0.291331 269:-0.856769 270:0.46563 
2.851893870954963 1:0.18926 2:-0.255801 3:0.960732 4:0.261115 5:-0.264106 6:0.943648 7:0.108015 8:-0.202508 9:0.981505 10:-0.162994 11:-0.162345 12:0.982734 13:-0.279157 14:-0.099524 15:0.959602 16:-0.438718 17:0.00681148 18:0.897753 19:-0.530067 20:0.0918618 21:0.843043 22:-0.54617 23:0.155616 24:0.813701 25:-0.513452 26:0.237111 27:0.824716 28:-0.499867 29:0.156624 30:0.874631 31:-0.426808 32:0.0491552 33:0.909124 34:-0.558653 35:0.833714 36:-0.0714798 37:-0.164418 38:0.114823 39:-1 40:-0.205738 41:-0.869918 42:-0.4458 43:-0.416667 44:-0.911729 45:-0.0434339 46:-0.569925 47:-0.858472 48:0.187196 49:-0.76254 50:-0.0240201 51:0.663923 52:0.576939 53:-0.134472 54:0.804086 55:-0.333265 56:0.488138 57:0.818896 58:-0.72634 59:0.662817 60:-0.289904 61:-0.894436 62:-0.225779 63:-0.394051 64:-0.50357 65:-0.148305 66:0.852779 67:-0.696874 68:0.549068 69:0.486543 70:-0.743945 71:0.662983 72:0.204779 73:-0.951055 74:-0.290998 75:-0.1317 76:-0.608423 77:-0.25391 78:-0.756787 79:-0.627103 80:-0.255852 81:-0.740839 82:-0.627186 83:-0.248206 84:-0.740573 85:-0.627148 86:-0.244672 87:-0.740484 88:-0.62711 89:-0.246264 90:-0.739774 91:0.0459184 92:0.130881 93:-0.508813 94:-0.0406348 95:-0.0120255 96:0.306339 97:0.0391131 98:-0.121994 99:0.248236 100:0.448323 101:0.111893 102:-0.600501 103:0.288481 104:0.0852965 105:-0.848159 106:0.419628 107:0.306855 108:-0.331925 109:0.387358 110:0.0230731 111:-0.545864 112:0.131037 113:-0.0736446 114:-0.625413 115:-0.163052 116:-0.221254 117:-0.0270758 118:-0.205286 119:-0.00886566 120:0.0516255 121:-0.031155 122:-0.680633 123:0.363269 124:-0.0422861 125:-0.0585944 126:0.785327 127:-0.239897 128:-0.102291 129:0.366512 130:0.0774802 131:-0.06167 132:0.084246 133:0.190253 134:0.396574 135:-0.134687 136:0.19587 137:0.667805 138:-1 139:0.223456 140:0.331673 141:0.149759 142:0.336491 143:0.194107 144:-0.160109 145:0.169322 146:-0.47901 147:0.118894 148:0.223577 149:-0.19494 150:0.00306926 151:-0.36943 152:0.15888 153:-0.533948 154:0.36498 155:-0.132549 156:0.223369 157:-1 158:-1 159:-0.686142 160:0.209055 161:0.747191 162:-0.310087 163:0.500418 164:0.788072 165:1 166:0.209431 167:0.390519 168:-0.0273435 169:0.0698479 170:0.587657 171:-0.394284 172:0.221058 173:0.564329 174:-0.479443 175:0.278941 176:0.624746 177:-0.349348 178:0.416255 179:0.845724 180:-0.0379262 181:0.52664 182:-0.433412 183:-0.545769 184:-0.0196421 185:0.0800309 186:0.381424 187:-0.202225 188:-0.216732 189:0.421273 190:0.276278 191:0.101266 192:0.540506 193:0.254975 194:-0.385433 195:0.877642 196:0.680235 197:0.192256 198:0.343351 199:0.186465 200:-0.174698 201:-0.0308069 202:-0.689132 203:0.284223 204:-0.181411 205:-0.0495507 206:-0.598565 207:-0.0104647 208:-0.493783 209:0.125568 210:0.00271051 211:1 212:0.439209 213:-0.177673 214:1 215:0.561614 216:-0.200864 217:1 218:0.162179 219:-0.123389 220:-0.00926104 221:0.45422 222:0.0400925 223:0.767066 224:-0.117318 225:0.266967 226:0.213746 227:0.0761682 228:0.633415 229:0.235059 230:-1 231:0.157952 232:-0.359964 233:-0.19785 234:0.351131 235:1 236:0.441775 237:0.350524 238:0.895768 239:0.374059 240:1 241:-0.0862049 242:-0.0797734 243:-0.671556 244:-0.19134 245:0.919655 246:-0.729736 247:1 248:1 249:0.668558 250:-0.233906 251:-1 252:-0.051501 253:0.707802 254:-0.533297 255:-0.00725004 256:-0.609767 257:0.609104 258:-0.277781 259:-0.528515 260:-0.156234 261:0.025 262:0.591202 263:-0.52351 264:-0.0872734 265:-0.206957 266:-0.858886 267:0.0562852 268:-0.294173 269:-0.855817 270:0.466448 
2.708069817156656 1:0.608318 2:0.804277 3:-0.0930695 4:0.158435 5:0.256647 6:-0.945281 7:0.121176 8:0.418818 9:-0.893936 10:0.151898 11:0.526969 12:-0.826522 13:0.183767 14:0.59816 15:-0.771487 16:-0.495994 17:0.438563 18:-0.740041 19:-0.752601 20:0.354508 21:-0.560254 22:-0.935388 23:0.237169 24:-0.236196 25:-1 26:0.164583 27:0.0598973 28:-0.915902 29:-0.0143319 30:0.510759 31:0.711796 32:0.512056 33:0.523755 34:0.835802 35:0.380794 36:0.406728 37:0.752834 38:-0.0452178 39:0.65643 40:0.603941 41:0.420699 42:-0.724746 43:0.553601 44:0.402813 45:-0.744705 46:0.343631 47:0.281215 48:-0.933476 49:0.370255 50:0.298446 51:-0.942387 52:0.191735 53:0.249947 54:-0.958836 55:0.123464 56:0.211082 57:-0.97264 58:0.0914749 59:0.203187 60:-0.981402 61:0.0694069 62:0.176965 63:-0.987529 64:0.0622195 65:0.164089 66:-0.988455 67:0.0518639 68:0.156629 69:-0.990807 70:0.0460409 71:0.14184 72:-0.992036 73:0.0426226 74:0.135827 75:-0.992751 76:0.0372712 77:0.112683 78:-0.993774 79:0.034873 80:0.106652 81:-0.994692 82:0.0326824 83:0.108468 84:-0.994999 85:0.030748 86:0.106875 87:-0.995408 88:0.0259575 89:0.0948823 90:-0.995818 91:0.214532 92:-0.230097 93:1 94:0.0140194 95:0.0217519 96:-0.103045 97:-0.0199678 98:-0.0744324 99:-0.274665 100:0.220058 101:-0.0266381 102:-0.0157682 103:0.0224752 104:-0.00350857 105:-0.25839 106:0.540834 107:0.469057 108:-0.407371 109:0.562037 110:0.314519 111:-0.725469 112:0.319087 113:0.210168 114:-0.907595 115:0.0981623 116:0.0520433 117:-0.574253 118:-0.020874 119:0.125528 120:-0.640026 121:-0.768037 122:-0.445297 123:-0.421662 124:-1 125:-0.0113714 126:-0.634072 127:-0.838277 128:-0.432764 129:-0.111527 130:-0.876079 131:-0.343521 132:0.275695 133:-0.230922 134:0.271795 135:0.0493657 136:0.149989 137:0.170311 138:0.32645 139:0.098047 140:0.247577 141:0.752995 142:0.632617 143:0.327245 144:0.240358 145:0.0583697 146:0.548187 147:0.0223754 148:0.20604 149:-0.0690161 150:-0.13696 151:-0.0666555 152:-0.175503 153:-0.145076 154:0.0439878 155:-0.0849561 156:-0.000751018 157:-0.00812513 158:-0.206885 159:-0.0192057 160:-0.0527175 161:-0.155633 162:-0.436854 163:0.41785 164:0.210798 165:0.0575829 166:0.253594 167:-0.0337273 168:-0.00167261 169:0.168995 170:0.252457 171:-0.348737 172:0.445546 173:0.107171 174:-0.376373 175:0.563178 176:0.0655849 177:-0.224818 178:0.625768 179:0.509735 180:0.0993969 181:0.502641 182:-0.534122 183:-0.411888 184:-0.0585767 185:0.0998271 186:0.428043 187:-0.187075 188:-0.317353 189:0.289412 190:0.20196 191:-0.0263367 192:0.331097 193:0.222176 194:-0.484461 195:0.724122 196:0.72971 197:-0.201415 198:0.0816747 199:0.295621 200:-0.365387 201:-0.221741 202:-0.649259 203:0.0525274 204:-0.343163 205:-0.0119196 206:-0.698299 207:-0.202909 208:-0.462281 209:0.0528217 210:-0.184668 211:0.576721 212:0.141064 213:-0.423118 214:0.266812 215:0.304081 216:0.287529 217:0.449293 218:0.251984 219:-0.616062 220:-0.373631 221:0.218742 222:-0.347047 223:0.586246 224:-0.217519 225:-0.393492 226:0.0555089 227:-0.000874266 228:-0.290218 229:-0.117806 230:-0.00310813 231:-0.0212207 232:-0.245445 233:-0.249369 234:0.14283 235:0.153834 236:-0.156002 237:-0.128964 238:0.492272 239:0.151269 240:0.623368 241:0.165767 242:0.0333492 243:0.153722 244:-0.268803 245:0.213257 246:-0.77091 247:0.220296 248:0.20894 249:0.168766 250:-0.192247 251:-0.359371 252:-0.706004 253:-0.125216 254:-0.647702 255:-0.35188 256:-0.544296 257:0.681197 258:-0.288827 259:-0.526492 260:-0.156064 261:0.0245614 262:0.591898 263:-0.524296 264:-0.089516 265:-0.207348 266:-0.859199 267:0.0531582 268:-0.300805 269:-0.859148 270:0.46563 
4.478490707085179 1:0.0449066 2:0.0244922 3:-0.997348 4:0.0617106 5:0.0830625 6:-0.991629 7:-0.0345998 8:0.202929 9:-0.975885 10:0.0942621 11:0.16309 12:-0.977523 13:0.0352592 14:0.0105353 15:-0.99847 16:-0.14014 17:0.0288013 18:-0.989785 19:0.210674 20:0.333013 21:-0.918399 22:0.0931632 23:0.362886 24:-0.919836 25:0.0399374 26:0.413576 27:-0.93808 28:0.0730155 29:0.306416 30:-0.977705 31:-0.204689 32:0.347367 33:-0.95793 34:-0.837237 35:0.241426 36:-0.498308 37:-1 38:0.122145 39:0.0431781 40:-0.84174 41:-0.0245448 42:0.535945 43:-0.185905 44:-0.426241 45:0.88159 46:0.106026 47:0.0206614 48:0.992168 49:0.130934 50:-0.92077 51:0.402343 52:0.0931633 53:-1 54:-0.202656 55:-0.17905 56:-0.883021 57:-0.498749 58:-0.23861 59:-0.931772 60:-0.378296 61:-0.224132 62:-0.91173 63:-0.430747 64:-0.318237 65:-0.934216 66:-0.309665 67:-0.206589 68:-1 69:0.046014 70:-0.239688 71:-0.844773 72:0.533262 73:-0.218517 74:-0.687533 75:0.718224 76:-0.190333 77:-0.571878 78:0.808328 79:-0.175283 80:-0.509904 81:0.849852 82:-0.164228 83:-0.453455 84:0.878043 85:-0.159655 86:-0.43358 87:0.886825 88:-0.144984 89:-0.383214 90:0.912884 91:0.2776 92:0.204689 93:-0.0550713 94:0.0326644 95:-0.0704433 96:0.245743 97:-0.241554 98:-0.190112 99:0.259679 100:0.0924423 101:0.0137827 102:0.386292 103:0.264528 104:0.248224 105:-0.0833745 106:0.00193589 107:0.211635 108:0.169926 109:0.0244765 110:-0.00148736 111:0.141808 112:-0.0289199 113:-0.154297 114:0.177993 115:-0.289798 116:-0.236615 117:0.747128 118:-0.388347 119:-0.179427 120:-0.202974 121:0.0779768 122:0.124524 123:-0.84147 124:0.459027 125:0.212424 126:-0.875593 127:0.674143 128:-0.187662 129:-0.729895 130:0.50774 131:-0.0569401 132:-1 133:0.206917 134:0.470335 135:-1 136:-0.0596125 137:0.452961 138:-0.9086 139:-0.326311 140:-0.0131036 141:-0.0803641 142:0.0947725 143:0.351047 144:0.318816 145:-0.301636 146:0.396792 147:0.329045 148:-0.429538 149:0.291422 150:0.447267 151:-0.748023 152:0.0656825 153:1 154:-0.00764266 155:0.542136 156:0.870192 157:0.190026 158:0.152116 159:0.115099 160:-0.103711 161:0.12885 162:-0.589759 163:0.361174 164:0.261077 165:-0.379941 166:0.223807 167:-0.136237 168:-0.498582 169:0.222648 170:0.0300116 171:-0.717829 172:0.383446 173:-0.231215 174:-0.72983 175:0.41715 176:-0.345673 177:-0.468277 178:0.544852 179:0.28729 180:-0.185224 181:0.581667 182:-0.3593 183:-0.435367 184:-0.182841 185:0.0920999 186:0.272167 187:-0.0685921 188:-0.324698 189:0.309075 190:0.623583 191:-0.12808 192:0.287449 193:0.268423 194:-0.7145 195:0.740467 196:0.696228 197:0.317236 198:0.117596 199:0.1446 200:-0.288158 201:-0.205854 202:-0.609151 203:0.256314 204:-0.300876 205:0.0553545 206:-0.550601 207:-0.173052 208:-0.415614 209:0.0215559 210:-0.274881 211:0.188828 212:-0.127498 213:-0.30459 214:0.376668 215:0.144632 216:-0.474852 217:0.378338 218:-0.220534 219:-0.477279 220:-0.209315 221:-0.342067 222:-0.381642 223:0.36143 224:-0.341657 225:-0.408168 226:0.342407 227:-0.232216 228:0.0890296 229:-0.999221 230:-0.0398719 231:-0.0729235 232:-0.930679 233:-0.30676 234:0.32199 235:-0.703254 236:-0.286523 237:0.417372 238:-0.107469 239:-0.288357 240:0.553805 241:0.16398 242:-0.19369 243:0.0287467 244:-0.0543044 245:0.224574 246:-0.775812 247:0.345443 248:-0.165573 249:0.134396 250:-0.148701 251:-0.330107 252:-0.694617 253:-0.112554 254:-0.732851 255:-0.35188 256:-0.545592 257:0.675913 258:-0.288463 259:-0.529137 260:-0.155271 261:0.0238304 262:0.592943 263:-0.521651 264:-0.0842833 265:-0.212038 266:-0.85826 267:0.054409 268:-0.276172 269:-0.8739 270:0.469722 
2.421198350325865 1:0.0405896 2:-0.37628 3:0.946045 4:-0.0288531 5:-0.327188 6:0.963555 7:-0.362192 8:-0.258561 9:0.910898 10:-0.639801 11:-0.208775 12:0.760727 13:-0.805537 14:-0.167656 15:0.585514 16:-0.9206 17:-0.131778 18:0.396425 19:-1 20:-0.0854454 21:0.172929 22:-1 23:-0.0511069 24:-0.0843558 25:-0.924296 26:0.319454 27:-0.282477 28:-0.711331 29:0.688909 30:0.290818 31:-0.0149393 32:0.682323 33:0.774416 34:0.979398 35:0.0564332 36:0.225003 37:0.344072 38:0.196391 39:-0.937139 40:0.0452318 41:0.193082 42:-1 43:-0.309979 44:0.275846 45:-0.923442 46:-0.171894 47:0.32727 48:-0.980053 49:-0.16072 50:0.33424 51:-1 52:0.0163265 53:0.0886873 54:-1 55:-0.0461523 56:-0.0149143 57:-1 58:-0.0685169 59:-0.0403165 60:-1 61:-0.0750166 62:-0.0572158 63:-0.999898 64:-0.0797634 65:-0.0676907 66:-0.998263 67:-0.0834821 68:-0.0630612 69:-0.99714 70:-0.0848927 71:-0.0723544 72:-0.996324 73:-0.0868767 74:-0.0743969 75:-0.995712 76:-0.0886657 77:-0.0828473 78:-0.994897 79:-0.0896299 80:-0.0841179 81:-0.994896 82:-0.0903992 83:-0.0781218 84:-0.994591 85:-0.0910203 86:-0.076412 87:-0.994285 88:-0.0916416 89:-0.0787103 90:-0.993369 91:0.284116 92:0.143546 93:-0.655756 94:0.464774 95:-0.135345 96:-0.078931 97:0.153985 98:-0.0994895 99:-0.86152 100:0.567821 101:-0.0016309 102:-0.477145 103:0.396274 104:0.0110564 105:-0.678655 106:0.520031 107:0.249497 108:-0.0755034 109:0.435927 110:0.0211662 111:-0.112298 112:0.154002 113:-0.0639613 114:-0.126428 115:-0.690653 116:-0.0625956 117:-0.0388087 118:-0.174876 119:-0.614432 120:0.211675 121:-0.42086 122:-0.411896 123:-0.260033 124:-0.636412 125:-0.0491708 126:0.0726882 127:-1 128:-0.541389 129:0.259073 130:-0.857774 131:-0.683585 132:0.25079 133:0.0337257 134:0.319436 135:0.207323 136:0.303119 137:0.0496409 138:0.39526 139:0.18276 140:0.204048 141:0.426949 142:0.555134 143:0.30968 144:-0.0842228 145:-0.120383 146:0.714365 147:-0.126897 148:0.064407 149:0.141155 150:-0.300387 151:-0.239717 152:-0.0687431 153:-0.155148 154:-0.0945992 155:0.0230687 156:-0.0657338 157:-0.0758684 158:-0.121899 159:-0.0375568 160:-0.0753108 161:-0.126754 162:-0.440299 163:0.40377 164:0.203051 165:0.0509825 166:0.239563 167:-0.0565662 168:-0.00625409 169:0.149709 170:0.239776 171:-0.351943 172:0.430346 173:0.0827841 174:-0.379847 175:0.53947 176:0.0370183 177:-0.228669 178:0.623119 179:0.508363 180:0.098701 181:0.585777 182:-0.318504 183:-0.524123 184:0.0217404 185:0.530044 186:0.474354 187:-0.150737 188:-0.134072 189:0.343679 190:0.246288 191:0.270097 192:0.377123 193:0.24976 194:-0.274432 195:0.763457 196:0.693406 197:0.304246 198:0.19142 199:0.244639 200:-0.112065 201:-0.137805 202:-0.65414 203:0.412013 204:-0.273382 205:-0.153145 206:-0.709716 207:0.17518 208:-0.862876 209:0.0300618 210:0.24477 211:0.271983 212:-0.48789 213:0.436901 214:0.351996 215:-1 216:-0.503095 217:0.201311 218:0.399886 219:-0.463368 220:-0.260808 221:0.190064 222:-0.330163 223:0.551921 224:-0.117 225:-0.414849 226:0.0812749 227:-0.0218923 228:-0.286471 229:-0.116247 230:-0.00549416 231:-0.0208561 232:-0.245834 233:-0.250403 234:0.143788 235:0.155757 236:-0.155911 237:-0.128144 238:0.491139 239:0.150715 240:0.623408 241:0.167398 242:0.0313377 243:0.154037 244:-0.268378 245:0.214237 246:-0.771109 247:0.218811 248:0.203814 249:0.168432 250:-0.193002 251:-0.360437 252:-0.70911 253:-0.130149 254:-0.646162 255:-0.357613 256:-0.539542 257:0.6814 258:-0.290162 259:-0.526492 260:-0.156347 261:0.0241228 262:0.589693 263:-0.524225 264:-0.0883947 265:-0.205003 266:-0.857947 267:0.0494059 268:-0.283752 269:-0.862955 270:0.467267 
1.260875604224451 1:-0.228218 2:-0.068546 3:-0.975521 4:-0.220351 5:-0.0596196 6:-0.976928 7:-0.182356 8:0.00210726 9:-0.986001 10:-0.187651 11:0.0281668 12:-0.982734 13:-0.197585 14:0.0613402 15:-0.976027 16:-0.182941 17:0.159775 18:-0.965781 19:-0.229921 20:0.223719 21:-0.946964 22:-0.196049 23:0.157256 24:-0.963395 25:-0.503754 26:-0.0220064 27:-0.898875 28:-0.818654 29:-0.0238866 30:-0.673874 31:-0.897189 32:-0.0143802 33:-0.503964 34:-0.94947 35:-0.0285803 36:-0.3253 37:-0.998358 38:-0.0190255 39:-0.155091 40:-1 41:0.0529029 42:0.0533279 43:-0.983745 44:0.212676 45:-0.182259 46:-0.957589 47:0.348089 48:-0.269908 49:0.577929 50:0.717725 51:-0.458689 52:0.318776 53:-0.371398 54:0.871604 55:-0.211994 56:0.963165 57:-0.3154 58:-0.764298 59:0.219121 60:0.613632 61:-0.890968 62:-0.467085 63:-0.0726771 64:-0.75714 65:-0.680403 66:-0.0421945 67:-0.759294 68:-0.655553 69:-0.104949 70:-0.76281 71:-0.663302 72:-0.113085 73:-0.762619 74:-0.662557 75:-0.115978 76:-0.762708 77:-0.652196 78:-0.11533 79:-0.908127 80:-0.0275248 81:-0.419414 82:-0.103044 83:0.0417265 84:-0.995305 85:-0.0639947 86:0.0371582 87:-0.998775 88:-0.0348309 89:0.0143296 90:-1 91:0.337472 92:0.20288 93:0.173994 94:0.145958 95:0.0373733 96:0.351212 97:-0.00259877 98:-0.0763133 99:0.13514 100:0.212302 101:-0.0123117 102:0.168156 103:0.0359308 104:0.0115871 105:-0.11298 106:0.102339 107:0.207862 108:0.13365 109:0.0856484 110:0.00736051 111:0.518244 112:-0.206086 113:-0.0621775 114:0.163208 115:-0.0581664 116:-0.119728 117:-0.85937 118:0.188016 119:-0.00428605 120:-0.919016 121:0.174074 122:0.183006 123:-0.925019 124:0.302556 125:0.197473 126:-0.736717 127:0.413264 128:-0.267367 129:-0.431058 130:0.299057 131:-0.272694 132:-0.42718 133:0.180466 134:0.214659 135:-0.125879 136:-0.717692 137:-0.891141 138:0.536692 139:-0.603946 140:-0.103168 141:-0.140345 142:-1 143:-0.136829 144:-0.850643 145:-0.795099 146:-0.260948 147:0.153427 148:0.41782 149:0.0476676 150:-0.778569 151:0.38692 152:0.345156 153:-0.0563679 154:0.554688 155:1 156:0.0987786 157:0.772496 158:0.808739 159:0.108083 160:0.578078 161:1 162:-0.970952 163:0.754683 164:0.654427 165:-0.214931 166:0.217941 167:0.0608153 168:-0.209367 169:-0.440227 170:-0.2365 171:0.0071677 172:-0.346927 173:-0.369101 174:0.00124589 175:-0.267339 176:-0.302231 177:0.0285289 178:0.34714 179:0.537065 180:0.142426 181:0.564474 182:-0.373119 183:-0.42356 184:-0.138311 185:0.136108 186:0.401653 187:-0.239983 188:-0.32196 189:0.266471 190:0.218492 191:-0.05527 192:0.32269 193:0.172636 194:-0.486588 195:0.716831 196:0.683611 197:0.092423 198:0.116644 199:0.296648 200:-0.237889 201:-0.206082 202:-0.637556 203:0.245841 204:-0.358102 205:0.0283325 206:-1 207:-0.13545 208:-0.429219 209:0.0929429 210:-0.124919 211:0.223192 212:0.0489934 213:-0.151186 214:0.449678 215:0.321343 216:-0.333763 217:0.48945 218:-0.0945879 219:-0.404294 220:0.0567575 221:-0.197295 222:-0.349053 223:0.563561 224:-0.147458 225:-0.409079 226:-0.26707 227:0.0638928 228:1 229:-0.611686 230:1 231:1 232:1 233:0.878975 234:-0.0856979 235:0.472656 236:1 237:1 238:0.0704054 239:0.527488 240:0.365186 241:1 242:0.00619343 243:-0.231901 244:-0.221042 245:0.310504 246:-0.758985 247:0.460635 248:0.237851 249:0.180445 250:-0.264867 251:-0.370154 252:-0.703416 253:-0.123736 254:-0.653399 255:-0.352217 256:-0.544512 257:0.680791 258:-0.289434 259:-0.527892 260:-0.155781 261:0.0222222 262:0.591782 263:-0.524225 264:-0.0898897 265:-0.205394 266:-0.859199 267:0.0525328 268:-0.287541 269:-0.848204 270:0.463993 
3.950593748437424 1:-0.117873 2:-0.288601 3:-0.964812 4:-0.0495944 5:-0.303426 6:-0.968761 7:0.00786592 8:-0.207565 9:-0.986819 10:-0.0813171 11:-0.256696 12:-0.976808 13:-0.146205 14:-0.259319 15:-0.967661 16:-0.159473 17:-0.298686 18:-0.95904 19:-0.284228 20:-0.490108 21:-0.86567 22:-0.312516 23:-0.632249 24:-0.787219 25:-0.341606 26:-0.572683 27:-0.790904 28:-0.391908 29:-0.66004 30:-0.701146 31:-0.256043 32:-0.579966 33:-0.827781 34:-0.253421 35:-0.513199 36:-0.839914 37:-0.265685 38:-0.45718 39:-0.872218 40:-0.269042 41:-0.368065 42:-0.886576 43:-0.295988 44:-0.335878 45:-0.892411 46:-0.359338 47:-0.333999 48:-0.936609 49:-0.462199 50:-0.392852 51:-0.8738 52:-0.374184 53:-0.883991 54:0.337283 55:-0.459942 56:-0.700865 57:-0.579501 58:-0.635529 59:-0.740135 60:-0.300736 61:-0.409863 62:-0.789961 63:0.505673 64:-0.617911 65:-0.632627 66:-0.503269 67:-0.385894 68:-0.548543 69:-0.751392 70:-0.581196 71:-0.509137 72:-0.652525 73:-0.545019 74:-0.491019 75:-0.69464 76:-0.548055 77:-0.483921 78:-0.692999 79:-0.548078 80:-0.482842 81:-0.693171 82:-0.548055 83:-0.474472 84:-0.693014 85:-0.350365 86:-0.267161 87:-0.898969 88:-0.266255 89:-0.191198 90:-0.945527 91:0.291615 92:0.216677 93:0.243205 94:0.0486763 95:0.177611 96:0.741703 97:-0.0807592 98:-0.0532715 99:0.659377 100:0.241703 101:0.112532 102:0.781351 103:0.178767 104:0.128755 105:0.288914 106:0.229452 107:0.369182 108:0.278813 109:0.210298 110:0.257694 111:-0.0777729 112:0.024418 113:0.256418 114:-0.427273 115:-0.382064 116:-0.0025288 117:0.800049 118:-0.077414 119:0.0882457 120:0.411874 121:-0.0835484 122:0.200586 123:-0.871548 124:0.0792473 125:0.163359 126:-0.649842 127:0.15025 128:-0.336594 129:-0.310509 130:0.0925226 131:-0.341216 132:-0.352675 133:0.163272 134:0.236391 135:-0.313087 136:0.244518 137:0.0664964 138:-0.224586 139:0.0939824 140:0.175328 141:0.230901 142:0.396583 143:-0.0635143 144:-0.755279 145:-0.160749 146:0.312343 147:-0.265397 148:0.255819 149:-0.462146 150:-0.700547 151:-0.806686 152:0.164521 153:-0.862569 154:0.388587 155:-0.519452 156:-0.204791 157:-0.346232 158:0.00721092 159:0.00418297 160:0.191906 161:-0.461776 162:-1 163:0.544565 164:0.420547 165:-0.0382369 166:0.364462 167:0.279113 168:-0.116792 169:0.287922 170:0.458734 171:-0.403176 172:0.69024 173:0.265225 174:-0.414958 175:0.360151 176:-0.051217 177:-0.12453 178:0.0328718 179:0.380256 180:0.129204 181:0.626086 182:-0.329579 183:-0.481577 184:-0.0526316 185:0.12161 186:0.351132 187:-0.238326 188:-0.365961 189:0.271097 190:0.363616 191:-0.188596 192:0.351732 193:0.180184 194:-0.512428 195:0.727826 196:0.697667 197:0.104996 198:0.156371 199:0.297804 200:-0.179806 201:-0.146803 202:-0.692543 203:0.244436 204:-0.358102 205:0.102409 206:-0.578983 207:-0.0979071 208:-0.385527 209:0.142114 210:-0.194626 211:0.181078 212:0.153234 213:-0.142018 214:0.416315 215:0.427709 216:-0.321318 217:0.453006 218:-0.0254202 219:-0.394788 220:-0.0186374 221:-0.137095 222:-0.339194 223:0.514193 224:-0.133025 225:-0.386305 226:0.0735451 227:-0.0344532 228:-0.244734 229:-0.102159 230:-0.0366696 231:0.00364618 232:-1 233:-0.479347 234:0.187404 235:-0.6991 236:-0.23256 237:0.00599918 238:-0.29368 239:0.0239568 240:0.801951 241:0.857037 242:-0.437563 243:-1 244:-0.522606 245:0.982902 246:-0.855543 247:0.0215274 248:-0.558848 249:0.209143 250:-0.0409666 251:-0.262436 252:-0.724379 253:-0.139357 254:-0.68481 255:-0.352892 256:-0.540622 257:0.681349 258:-0.289191 259:-0.528204 260:-0.155668 261:0.0233918 262:0.592827 263:-0.52401 264:-0.0928798 265:-0.21282 266:-0.858886 267:0.054409 268:-0.289436 269:-0.853914 270:0.45581 
1.805806928512432 1:-0.157462 2:-0.0414277 3:-0.988781 4:-0.170962 5:-0.024988 6:-0.986524 7:-0.170017 8:-0.00463597 9:-0.988249 10:-0.147994 11:0.0934455 12:-0.98304 13:-0.142623 14:0.276753 15:-0.94277 16:-0.194521 17:0.410459 18:-0.882329 19:-0.258219 20:0.304673 21:-0.915122 22:-0.0716601 23:0.00114785 24:-1 25:-0.591762 26:-0.280091 27:-0.797957 28:-0.84803 29:-0.475625 30:-0.419816 31:-0.827057 32:-0.624911 33:-0.0448163 34:-0.452263 35:-0.783621 36:0.463952 37:-0.0572 38:-0.839753 39:0.553586 40:0.768634 41:-0.560771 42:-0.274638 43:0.496296 44:0.911729 45:0.0478232 46:-0.170742 47:0.222859 48:0.964493 49:0.618575 50:-0.0114606 51:0.775351 52:0.483878 53:-0.587193 54:0.65526 55:0.437503 56:-0.501088 57:0.760298 58:0.387786 59:-0.843439 60:0.437257 61:0.506961 62:-0.896735 63:-0.0365941 64:0.181559 65:-0.747352 66:-0.675828 67:0.245958 68:-0.989289 69:0.0666462 70:0.456585 71:-0.866128 72:-0.317711 73:0.360049 74:-0.808481 75:-0.518632 76:0.472901 77:-0.729417 78:-0.51929 79:0.467931 80:-0.739672 81:-0.50689 82:0.529598 83:-0.805926 84:-0.283054 85:0.556473 86:-0.803936 87:0.212879 88:0.509511 89:-0.71914 90:0.476997 91:0.292476 92:0.196019 93:0.245142 94:0.160831 95:0.0175666 96:0.552766 97:0.00483569 98:-0.0573022 99:0.220063 100:0.318813 101:-0.00623581 102:0.273581 103:0.0391838 104:-0.0855323 105:-0.0484703 106:0.142895 107:0.0733962 108:0.388394 109:0.207915 110:-0.129858 111:0.439453 112:-0.361484 113:-0.163726 114:-0.324931 115:-0.140779 116:0.0939402 117:-0.821218 118:0.0463283 119:0.201973 120:-0.855229 121:0.142229 122:0.477176 123:-1 124:0.285208 125:0.499553 126:-1 127:0.267252 128:0.0344533 129:-0.693854 130:-0.0930797 131:0.0848948 132:-0.800284 133:-0.156461 134:0.505781 135:-0.807007 136:-1 137:0.765555 138:-0.176149 139:-0.341578 140:-1 141:0.229423 142:0.092607 143:0.475275 144:-0.826256 145:-0.511467 146:-0.278243 147:-0.486073 148:-0.0384555 149:-0.211254 150:-0.685067 151:0.258881 152:1 153:-0.248165 154:0.0211447 155:0.602226 156:0.0830468 157:-0.065001 158:0.538072 159:0.497414 160:1 161:-0.678137 162:1 163:0.308794 164:1 165:-0.0120628 166:-0.388154 167:0.122826 168:1 169:-0.908641 170:-0.00993342 171:1 172:-0.171008 173:0.185473 174:1 175:-0.0479193 176:-0.00878972 177:1 178:0.623119 179:0.598375 180:1 181:0.592539 182:-0.441552 183:-0.405035 184:-0.0879524 185:0.0581006 186:0.414078 187:-0.171924 188:-0.342325 189:0.271869 190:0.0470339 191:-0.0441418 192:0.279891 193:0.0194868 194:-0.54457 195:0.691724 196:0.804754 197:0.0653622 198:0.239553 199:0.559394 200:-0.162463 201:-0.192415 202:-0.548283 203:0.248651 204:-0.339903 205:0.0690215 206:-0.767075 207:-0.228272 208:-0.421515 209:-0.00485493 210:-0.226209 211:0.193508 212:-0.0921904 213:-0.253835 214:0.415453 215:0.158751 216:-0.435001 217:0.444179 218:-0.200337 219:-0.468747 220:1 221:-0.0736047 222:-1 223:1 224:-0.81435 225:-0.814161 226:0.50703 227:0.0033008 228:-0.745574 229:-0.154228 230:0.105174 231:-0.410632 232:-0.460217 233:-0.285218 234:-0.0268405 235:-0.101146 236:-0.163458 237:-0.257145 238:-1 239:0.156901 240:0.79518 241:0.631172 242:1 243:-0.0274097 244:-0.549673 245:-0.125514 246:-0.877141 247:0.493821 248:0.525733 249:0.0692417 250:-0.634133 251:-0.464078 252:-0.711957 253:-0.0429993 254:-0.0535068 255:-0.358961 256:-0.58038 257:0.625616 258:-0.288827 259:-0.525714 260:-0.154875 261:0.0232456 262:0.588997 263:-0.52401 264:-0.0887685 265:-0.21282 266:-0.861076 267:0.0556598 268:-0.300805 269:-0.848204 270:0.462357 
3.445985667152531 1:0.0652277 2:-0.152688 3:0.992044 4:0.0393264 5:-0.0902019 6:0.99949 7:-0.0439566 8:0.0360341 9:0.999489 10:-0.0144347 11:0.12699 12:0.989273 13:0.0224656 14:0.210225 15:0.971028 16:0.0538124 17:0.273049 18:0.952911 19:0.0745943 20:0.318255 21:0.937238 22:0.0711456 23:0.358295 24:0.920041 25:0.0189781 26:0.414402 27:0.906239 28:0.478976 29:0.821441 30:-0.321305 31:-0.0894284 32:-0.873913 33:0.558365 34:0.166607 35:-0.633652 36:-0.781971 37:0.429231 38:-0.493581 39:-0.778339 40:0.748315 41:-0.368065 42:-0.538714 43:0.873765 44:0.096899 45:0.479916 46:0.847322 47:0.0636665 48:0.509791 49:0.849519 50:0.071223 51:0.50459 52:0.850918 53:0.0939168 54:0.521144 55:0.599674 56:0.0271217 57:0.800827 58:0.4486 59:0.0420276 60:0.893726 61:0.397624 62:0.0432841 63:0.916999 64:0.274174 65:0.0479873 66:0.960768 67:0.238513 68:0.0577054 69:0.970175 70:0.20053 71:0.0521674 72:0.978659 73:0.174059 74:0.0516527 75:0.983767 76:0.154948 77:0.0399009 78:0.986936 79:0.135821 80:0.0370942 81:0.989895 82:0.121399 83:0.0409063 84:0.991733 85:0.112845 86:0.0418605 87:0.992856 88:0.11051 89:0.0401228 90:0.993165 91:0.111138 92:0.222783 93:-0.988121 94:-0.00284657 95:0.0946711 96:0.227533 97:0.061877 98:-0.141341 99:-0.840783 100:0.32224 101:-0.0710882 102:-0.616611 103:0.0802898 104:-0.0822302 105:-0.965802 106:0.190012 107:0.144591 108:-0.426174 109:0.0711239 110:-0.0922543 111:-0.663905 112:-0.0682964 113:-0.134675 114:-0.66498 115:-0.215736 116:-0.272455 117:-0.143584 118:-0.498724 119:-0.609735 120:0.656606 121:-0.173307 122:0.543276 123:-0.00896248 124:-0.300243 125:-0.280337 126:1 127:-0.0450301 128:0.0929356 129:0.564351 130:-0.271996 131:0.0999939 132:0.415385 133:-0.304325 134:0.268799 135:0.624729 136:0.050511 137:0.179888 138:0.00921627 139:-0.0550709 140:0.160653 141:0.207717 142:0.34001 143:0.194043 144:-0.403896 145:-0.0670144 146:0.370084 147:-0.410852 148:0.191648 149:-0.171935 150:-0.653663 151:0.109251 152:-0.222192 153:-0.356289 154:0.243037 155:-0.126129 156:-0.272778 157:0.240605 158:-0.239677 159:-0.183736 160:0.124943 161:-0.200582 162:-0.507663 163:0.539792 164:0.183359 165:0.0242015 166:0.331685 167:-0.0701102 168:-0.0185441 169:0.207689 170:0.232484 171:-0.357024 172:0.504495 173:0.0756657 174:-0.384226 175:0.614124 176:0.0300879 177:-0.232257 178:0.686936 179:0.513322 180:0.0946416 181:0.601335 182:-0.392144 183:-0.425528 184:0.0800256 185:0.132207 186:0.333984 187:-0.0537965 188:-0.375376 189:0.158514 190:0.358203 191:-0.0923639 192:0.194378 193:0.343351 194:-0.548667 195:0.633926 196:0.734027 197:0.0202331 198:0.0151455 199:0.335688 200:-0.250853 201:-0.167815 202:-0.619619 203:0.220104 204:-0.379367 205:0.0137294 206:-0.594442 207:-0.248729 208:0.0370118 209:0.615761 210:0.404926 211:-0.341002 212:1 213:0.238015 214:0.544738 215:0.994861 216:-0.433131 217:0.222146 218:-0.062185 219:-0.545674 220:0.228913 221:0.712812 222:-0.185673 223:0.543742 224:-0.565717 225:-0.333873 226:-0.0152355 227:0.0955091 228:-0.285954 229:-0.108391 230:0.0693206 231:-0.0226063 232:-0.241878 233:-0.245814 234:0.143501 235:0.155142 236:-0.152638 237:-0.127995 238:0.492595 239:0.151795 240:0.623086 241:0.165378 242:0.0327669 243:0.15443 244:-0.268803 245:0.213943 246:-0.771175 247:0.217152 248:0.207505 249:0.168766 250:-0.193002 251:-0.359637 252:-0.706004 253:-0.127025 254:-0.647856 255:-0.35188 256:-0.543431 257:0.680841 258:-0.28907 259:-0.523535 260:-0.155894 261:0.0245614 262:0.591434 263:-0.522795 264:-0.0887685 265:-0.204612 266:-0.863267 267:0.0581614 268:-0.3027 269:-0.859148 270:0.468085 
1.334430199650811 1:0.0424849 2:-0.099523 3:0.997552 4:-0.0934388 5:-0.00751239 6:0.996325 7:0.0954707 8:0.26562 9:0.955244 10:0.49042 11:0.512593 12:0.693502 13:0.642495 14:0.723729 15:0.23999 16:0.513052 17:0.856154 18:-0.134219 19:0.136704 20:0.947813 21:-0.308078 22:-0.620762 23:0.713692 24:0.309918 25:-0.328571 26:0.205186 27:0.920655 28:0.0751365 29:-0.494016 30:0.868201 31:-0.702044 32:-0.660342 33:0.37081 34:-0.376313 35:-0.942943 36:-0.137935 37:-0.144206 38:-0.755298 39:-0.668178 40:-0.0592199 41:-0.894946 42:-0.441903 43:-0.0799383 44:-0.878471 45:-0.467667 46:-0.0546102 47:-0.917249 48:-0.507598 49:-0.0458165 50:-0.904862 51:-0.5239 52:0.0621429 53:-0.554216 54:-0.835444 55:-0.113468 56:0.277958 57:-0.958144 58:-0.136677 59:0.467223 60:-0.891478 61:-0.156918 62:0.59917 63:-0.808137 64:-0.165239 65:0.638665 66:-0.772272 67:-0.171401 68:0.669835 69:-0.748021 70:-0.176974 71:0.695283 72:-0.725839 73:-0.179973 74:0.707089 75:-0.714752 76:-0.182379 77:0.686574 78:-0.705858 79:-0.184562 80:0.690281 81:-0.699092 82:-0.186254 83:0.69961 84:-0.69332 85:-0.187293 86:0.70345 87:-0.689764 88:-0.188638 89:0.707165 90:-0.684586 91:0.13419 92:0.337002 93:-0.582672 94:-0.629804 95:-0.212391 96:0.262958 97:-0.0639166 98:-0.269179 99:-0.787749 100:-0.0758478 101:-0.24179 102:-0.288894 103:-0.267855 104:-0.246042 105:-0.247297 106:0.256751 107:0.022956 108:0.36554 109:0.684227 110:-0.0446589 111:0.138683 112:0.337322 113:0.173536 114:-0.489623 115:0.055477 116:0.165621 117:-0.243436 118:0.511789 119:-0.0766205 120:1 121:0.158688 122:0.312218 123:0.111287 124:0.116979 125:0.558463 126:-0.140402 127:-0.256158 128:0.924572 129:0.510084 130:-0.152453 131:0.337821 132:0.0341723 133:0.0679804 134:0.641658 135:0.12772 136:0.187141 137:0.552434 138:-0.0121267 139:-0.0190344 140:0.410339 141:0.203361 142:0.384334 143:-0.257685 144:0.172497 145:-0.177324 146:-0.25781 147:0.00914099 148:0.00825731 149:-0.65492 150:-0.200836 151:-0.159044 152:-0.627329 153:-0.125417 154:-0.024966 155:-0.499165 156:-0.0851022 157:-0.0355474 158:-0.380548 159:-0.120766 160:-0.070774 161:-0.275459 162:-0.476773 163:0.397208 164:0.149544 165:0.0205599 166:0.242438 167:-0.117514 168:-0.0289433 169:0.152429 170:0.206805 171:-0.36398 172:0.437575 173:0.0482468 174:-0.393287 175:0.53947 176:0.000676133 177:-0.242146 178:0.6236 179:0.494328 180:0.0847831 181:0.628782 182:-0.38088 183:-0.375585 184:0.144373 185:0.273798 186:0.40001 187:0.166479 188:-0.707285 189:0.227818 190:0.577646 191:-0.645594 192:0.200747 193:0.439687 194:-0.971797 195:0.603293 196:0.660146 197:-0.453372 198:-0.0486877 199:0.0392963 200:-0.504089 201:-0.288195 202:-0.783169 203:-0.120733 204:-0.370122 205:-0.157639 206:-0.811749 207:-0.216862 208:0.0176525 209:0.339302 210:-0.0798421 211:0.675473 212:0.393463 213:0.0146812 214:0.170566 215:1 216:-0.138832 217:0.624389 218:0.235086 219:-0.40434 220:-0.0404642 221:-0.157161 222:-0.348355 223:0.536818 224:-0.0765622 225:-0.414039 226:0.0852518 227:-0.0399486 228:-0.286213 229:-0.116637 230:-0.000941856 231:-0.0221687 232:-0.245963 233:-0.250072 234:0.143213 235:0.155526 236:-0.156275 237:-0.128368 238:0.492919 239:0.150919 240:0.623126 241:0.165844 242:0.0330845 243:0.153958 244:-0.26808 245:0.213257 246:-0.770877 247:0.218375 248:0.207812 249:0.168182 250:-0.191618 251:-0.359942 252:-0.70911 253:-0.130478 254:-0.646624 255:-0.350531 256:-0.540838 257:0.68074 258:-0.290769 259:-0.531627 260:-0.155894 261:0.0233918 262:0.592014 263:-0.523867 264:-0.0891422 265:-0.206957 266:-0.858573 267:0.0531582 268:-0.310279 269:-0.857245 270:0.463993 
3.016701605340939 1:-0.109555 2:0.771692 3:-0.629864 4:-0.0920012 5:0.814481 6:-0.56235 7:-0.195414 8:0.827205 9:-0.527819 10:-0.239842 11:0.890847 12:-0.388333 13:-0.318254 14:0.953794 15:0.0157613 16:-0.385991 17:0.888871 18:0.252094 19:-0.372347 20:0.907924 21:0.207536 22:-0.379906 23:0.92282 24:0.129755 25:-0.388425 26:0.922926 27:-0.0105274 28:-0.439207 29:0.918734 30:-0.0381086 31:-0.441747 32:0.974958 33:-0.0565256 34:-0.470199 35:0.889524 36:-0.0428674 37:-0.530703 38:0.859139 39:-0.0220528 40:-0.606392 41:0.887534 42:0.0599938 43:-0.696914 44:0.775244 45:0.023835 46:-0.476203 47:0.529678 48:0.726385 49:-0.611025 50:-0.00957664 51:-0.869896 52:0.251531 53:1 54:0.245863 55:0.758988 56:0.676556 57:0.0448675 58:0.841641 59:0.540798 60:-0.183119 61:0.683003 62:0.705945 63:-0.280691 64:0.461138 65:0.851271 66:-0.336432 67:0.0292213 68:0.971646 69:-0.349267 70:-0.621883 71:0.757756 72:-0.292796 73:-0.869685 74:0.507599 75:-0.0858601 76:-0.504002 77:0.812419 78:0.298836 79:0.135719 80:0.991254 81:0.0168419 82:0.130475 83:0.995181 84:-0.00658264 85:0.133344 86:0.994378 87:0.0246964 88:0.134071 89:0.994473 90:0.0178517 91:0.21988 92:-0.401689 93:-0.232488 94:-0.0283234 95:-0.299045 96:0.472281 97:0.0850357 98:-0.206906 99:0.214835 100:0.340999 101:-0.075949 102:0.0938692 103:0.175662 104:-0.0184863 105:-0.524482 106:0.289038 107:0.275409 108:0.0600555 109:0.240576 110:0.0724229 111:0.170955 112:-0.051201 113:-0.148882 114:-0.0556549 115:-0.208496 116:-0.132341 117:-0.856908 118:-0.157756 119:-0.0799084 120:-0.691001 121:-0.07629 122:0.124875 123:-0.614948 124:0.107583 125:0.172677 126:-0.449582 127:0.19056 128:-0.264266 129:-0.20476 130:0.169883 131:-0.206598 132:-0.191765 133:0.261539 134:0.352477 135:-0.111221 136:-0.395465 137:-0.310327 138:-0.761624 139:0.0336076 140:0.151723 141:0.893263 142:0.321807 143:1 144:-0.627659 145:-0.659213 146:0.263808 147:0.350159 148:-0.6215 149:0.54907 150:-0.218807 151:-1 152:0.0871066 153:0.26661 154:-0.451342 155:0.134432 156:0.29847 157:-0.156612 158:-0.192291 159:0.222687 160:0.43653 161:-0.559127 162:-0.441428 163:0.151175 164:-0.986038 165:0.153706 166:1 167:-0.983136 168:-0.514435 169:1 170:-0.38455 171:0.0825949 172:-0.0690518 173:-0.605985 174:0.187677 175:-0.233796 176:-0.301048 177:0.14737 178:-0.231066 179:0.383211 180:0.817096 181:0.554485 182:0.0533838 183:-0.395535 184:-0.107769 185:0.0424992 186:0.422293 187:-0.335267 188:-0.342325 189:0.23283 190:0.237364 191:-0.0460495 192:0.318784 193:0.0986689 194:-0.505495 195:0.684963 196:0.668613 197:0.0208993 198:0.137975 199:0.46385 200:-0.17311 201:-0.145094 202:-0.674547 203:0.544018 204:-0.277762 205:0.0994758 206:-0.692314 207:-0.150585 208:-0.374799 209:0.0804366 210:-0.148194 211:0.272568 212:0.0325901 213:-0.181687 214:0.475283 215:0.306127 216:-0.374129 217:0.511384 218:-0.108627 219:-0.438514 220:0.0667486 221:-0.213624 222:-0.383736 223:0.547384 224:-0.174377 225:-0.487626 226:-0.715174 227:1 228:0.653056 229:-1 230:0.00401859 231:0.547437 232:-0.21795 233:-0.220757 234:0.462998 235:0.504884 236:0.136863 237:0.00726609 238:0.413854 239:0.112547 240:0.524746 241:0.172138 242:0.0278439 243:-0.125565 244:-0.277386 245:0.224476 246:-1 247:0.156631 248:0.115235 249:-0.605156 250:1 251:-0.826402 252:1 253:-1 254:0.918239 255:0.094925 256:-0.605661 257:0.707463 258:-0.291619 259:-0.519956 260:-0.221435 261:0.0179825 262:0.617085 263:-0.568706 264:-0.0891422 265:-0.219074 266:-0.833229 267:0.0537836 268:-0.288489 269:-0.862955 270:0.476268 
2.0601616475148 1:0.216004 2:-0.199957 3:0.965322 4:0.234726 5:-0.223187 6:0.958348 7:0.0853941 8:-0.205247 9:0.983344 10:0.285766 11:-0.327831 12:0.919289 13:0.477611 14:-0.465854 15:0.780668 16:0.603515 17:-0.55409 18:0.646476 19:0.679671 20:-0.60539 21:0.520631 22:0.662843 23:-0.607434 24:0.559202 25:0.653389 26:-0.606881 27:0.495307 28:-0.766159 29:-0.589254 30:0.388604 31:0.398589 32:0.787851 33:-0.582612 34:0.0707733 35:0.911349 36:-0.431648 37:0.350639 38:0.222377 39:-0.928689 40:-0.260772 41:0.140018 42:-0.972003 43:-0.268107 44:-0.443288 45:-0.852294 46:-0.156814 47:-0.696546 48:-0.775364 49:-0.223291 50:-0.660893 51:-0.797299 52:-0.213061 53:-0.650907 54:-0.739019 55:-0.0802183 56:-0.296216 57:-0.956409 58:-0.0311719 59:-0.164261 60:-0.989373 61:-0.0155541 62:-0.131341 63:-0.996013 64:-0.0101999 65:-0.118962 66:-0.997037 67:-0.00566067 68:-0.0974009 69:-0.997753 70:0.0034161 71:-0.0827667 72:-0.999183 73:0.00448659 74:-0.0799235 75:-0.999081 76:0.00739306 77:-0.0784081 78:-0.999081 79:0.00887121 80:-0.0754746 81:-0.999592 82:0.0106562 83:-0.0648965 84:-0.999592 85:0.0116771 86:-0.0594429 87:-0.999592 88:0.0130042 89:-0.0579324 90:-0.99898 91:0.200086 92:0.0795386 93:-0.626574 94:-0.112724 95:-0.109054 96:0.288005 97:0.0672062 98:-0.0874647 99:-0.640673 100:0.139159 101:0.208916 102:-0.482325 103:-0.139287 104:0.24557 105:-0.596057 106:-0.0338944 107:0.537421 108:-0.0778755 109:-0.175485 110:0.360894 111:-0.184184 112:-0.198963 113:0.151303 114:-0.191747 115:-0.317795 116:-0.523524 117:0.246308 118:-0.00157681 119:-0.271019 120:0.110548 121:-0.685383 122:-1 123:0.0985873 124:1 125:0.656541 126:0.206025 127:0.0169854 128:-0.888328 129:0.328644 130:1 131:-0.696683 132:0.185236 133:-0.406626 134:0.482826 135:-0.383291 136:0.522248 137:0.80316 138:-0.284111 139:0.347824 140:0.692649 141:0.0655827 142:0.661242 143:0.84376 144:-0.465836 145:-0.0850182 146:0.83424 147:-0.350097 148:0.054341 149:-0.0442264 150:-0.317913 151:-0.163898 152:-0.308609 153:-0.0928948 154:-0.153278 155:-0.361866 156:-0.0102376 157:-0.185761 158:-0.484162 159:0.0116494 160:-0.162054 161:-0.458515 162:-0.399073 163:0.312731 164:0.0564119 165:0.0917988 166:0.20299 167:-0.165449 168:0.0023271 169:0.128446 170:0.1974 171:-0.349403 172:0.418296 173:0.0391511 174:-0.377581 175:0.518789 176:-0.00811359 177:-0.226481 178:0.598796 179:0.492218 180:0.100325 181:0.569468 182:-0.434264 183:-0.465427 184:0.0468031 185:0.232734 186:0.506598 187:-0.333018 188:-0.382186 189:0.247675 190:0.0533246 191:-0.188808 192:0.30248 193:0.0831618 194:-0.600032 195:0.719065 196:0.635684 197:-0.0207327 198:0.140354 199:0.179787 200:-0.242997 201:-0.172997 202:-0.647965 203:0.288182 204:-0.303406 205:-1 206:1 207:-0.0551023 208:-0.0887989 209:-0.838777 210:0.48848 211:0.623318 212:-1 213:-0.774329 214:0.31928 215:0.176262 216:0.0841501 217:0.16642 218:-0.281198 219:-0.758091 220:-0.546171 221:0.638882 222:-0.241558 223:0.851237 224:-0.531919 225:-0.344602 226:-0.0324315 227:-0.0415187 228:-0.265538 229:-0.0989125 230:-0.0146302 231:-0.02195 232:-0.244407 233:-0.250196 234:0.143597 235:0.154527 236:-0.156411 237:-0.127622 238:0.492514 239:0.151182 240:0.623408 241:0.165844 242:0.0336139 243:0.153093 244:-0.268335 245:0.213306 246:-0.770811 247:0.21689 248:0.206787 249:0.168516 250:-0.191744 251:-0.359409 252:-0.704969 253:-0.12538 254:-0.647702 255:-0.352554 256:-0.548185 257:0.681146 258:-0.288948 259:-0.527892 260:-0.155838 261:0.022807 262:0.592711 263:-0.52351 264:-0.0940011 265:-0.206957 266:-0.862641 267:0.0494059 268:-0.303648 269:-0.8601 270:0.463175 
1.691886807633294 1:0.545038 2:-0.870733 3:-0.300933 4:0.0544204 5:-0.254302 6:-0.979276 7:-0.139376 8:-0.169108 9:-0.983855 10:-0.110906 11:-0.188435 12:-0.985799 13:-0.0350545 14:-0.220172 15:-0.985106 16:0.00087878 17:-0.21963 18:-0.988662 19:0.00447357 20:-0.195166 21:-0.996417 22:0.041926 23:-0.308773 24:-0.975971 25:0.243483 26:-0.413679 27:-0.919203 28:0.218622 29:-0.484975 30:-0.877534 31:0.123042 32:-0.529881 33:-0.885187 34:0.0112233 35:-0.515693 36:-0.877038 37:-0.142974 38:-0.462026 39:-0.898083 40:-0.222585 41:-0.408346 42:-0.881346 43:-0.272222 44:-0.349997 45:-0.894044 46:-0.261218 47:-0.258714 48:-0.988721 49:0.454442 50:-0.531425 51:-0.780099 52:0.465918 53:-0.814194 54:-0.384678 55:-0.263705 56:-0.578366 57:-0.789393 58:-0.434008 59:-0.568281 60:-0.717658 61:-0.466265 62:-0.165692 63:-0.874067 64:-0.485618 65:0.229449 66:-0.84859 67:-0.376001 68:0.828826 69:-0.472244 70:0.121909 71:0.711538 72:-0.722571 73:-0.00591414 74:0.900733 75:-0.505972 76:-0.00545557 77:1 78:-0.0964483 79:0.00703579 80:0.996707 81:-0.0903338 82:0.00708714 83:0.99959 84:-0.0912895 85:0.00718984 86:0.999489 87:-0.0912338 88:0.00729257 89:0.999488 90:-0.0907885 91:0.0985985 92:0.395808 93:0.737104 94:0.0153003 95:0.114772 96:0.738533 97:0.231225 98:-0.174056 99:0.564927 100:0.412698 101:0.0671869 102:0.7649 103:0.0507171 104:0.110594 105:0.357168 106:0.15241 107:0.376981 108:0.604953 109:0.0102594 110:0.308264 111:0.437782 112:-0.294071 113:0.171816 114:-0.021965 115:-0.409302 116:-0.0239456 117:-0.706925 118:-0.235846 119:0.0176139 120:-0.732931 121:-0.0622332 122:0.175681 123:-0.680267 124:0.163434 125:0.172466 126:-0.451504 127:0.316038 128:-0.300885 129:-0.169312 130:0.28107 131:-0.307077 132:-0.0396483 133:0.27946 134:0.233986 135:0.0184053 136:0.738716 137:0.51419 138:-0.617352 139:-0.471399 140:-0.217465 141:0.147736 142:-0.2584 143:0.071915 144:-0.222127 145:0.0673001 146:0.273501 147:-0.312794 148:0.684964 149:-0.58584 150:-0.484454 151:0.24683 152:-0.584781 153:-0.063103 154:0.194209 155:-0.562251 156:-0.261631 157:-0.331099 158:-0.480642 159:-0.0522197 160:-0.206424 161:-0.486579 162:-0.404954 163:0.00119318 164:-0.0678718 165:-1 166:-0.160897 167:-0.422122 168:-1 169:-0.194338 170:0.0851738 171:-1 172:0.200482 173:-0.133272 174:-1 175:0.551324 176:-0.0486815 177:-0.646276 178:0.325467 179:1 180:0.571097 181:0.550507 182:-0.281306 183:-0.403135 184:-0.145655 185:0.0686242 186:0.478256 187:-0.261999 188:-0.440342 189:0.343101 190:0.231219 191:-0.00588204 192:0.314029 193:0.264032 194:-0.45799 195:0.703895 196:0.667617 197:0.0457119 198:0.0877805 199:0.391807 200:-0.220245 201:-0.187689 202:-0.473006 203:0.410033 204:-0.277762 205:0.0935472 206:-0.6344 207:-0.277699 208:-0.407129 209:0.0735231 210:-0.273349 211:0.220901 212:0.0182553 213:-0.305249 214:0.422025 215:0.291808 216:-0.496647 217:0.442134 218:-0.12043 219:-0.516925 220:-0.0926488 221:-0.204241 222:-0.446471 223:0.423514 224:-0.150401 225:-0.623969 226:-1 227:0.00719039 228:-0.258819 229:0.841974 230:-0.374984 231:-0.28885 232:-0.568057 233:-1 234:-1 235:-1 236:-0.850613 237:-0.390021 238:0.122117 239:0.149139 240:0.672941 241:-0.185657 242:0.0303319 243:0.252979 244:-1 245:0.17524 246:-0.712379 247:0.17925 248:0.512405 249:0.308835 250:-0.672393 251:-0.768332 252:-0.550983 253:-0.208255 254:-0.0947725 255:-0.344799 256:-0.539326 257:0.670071 258:-0.289191 259:-0.529293 260:-0.158217 261:0.0233918 262:0.591434 263:-0.524797 264:-0.091011 265:-0.205394 266:-0.860138 267:0.0512821 268:-0.289436 269:-0.858197 270:0.459083 
3.825334673290206 1:-0.157357 2:0.0437858 3:-0.985823 4:-0.172605 5:0.0697427 6:-0.980297 7:-0.197985 8:0.0915604 9:-0.9766 10:-0.250937 11:0.136894 12:-0.956069 13:-0.244563 14:0.120809 15:-0.958072 16:-0.0921685 17:0.0758917 18:-0.99142 19:0.073866 20:0.0604213 21:-1 22:0.182262 23:0.0360208 24:-0.985072 25:0.306465 26:0.0646761 27:-0.984546 28:0.382788 29:0.0541943 30:-0.948774 31:0.50887 32:0.0406255 33:-0.891094 34:0.522472 35:0.0165246 36:-0.865039 37:0.523008 38:0.24991 39:-0.833471 40:0.831427 41:0.277834 42:-0.520972 43:-1 44:0.208702 45:-0.0552748 46:0.692759 47:0.0992061 48:-0.745601 49:-0.477505 50:0.180491 51:0.868102 52:-0.666837 53:-0.151547 54:0.728294 55:-0.992758 56:-0.124144 57:0.0219999 58:-0.876027 59:0.0426692 60:0.482628 61:-0.750115 62:0.0206317 63:0.661147 64:-0.582415 65:-0.156886 66:-0.802513 67:-0.589984 68:-0.153059 69:-0.79521 70:-0.364911 71:-0.128028 72:-0.925257 73:-0.238707 74:-0.111808 75:-0.967126 76:-0.183705 77:-0.113199 78:-0.978975 79:-0.145202 80:-0.109328 81:-0.986118 82:-0.127008 83:-0.100267 84:-0.988672 85:-0.117842 86:-0.09563 87:-0.989795 88:-0.106839 89:-0.0940635 90:-0.990513 91:0.305754 92:0.0337002 93:0.606043 94:0.179974 95:-0.0602452 96:0.768552 97:0.146353 98:-0.183394 99:0.667916 100:0.467352 101:-0.0733267 102:0.824899 103:0.274952 104:0.0348793 105:0.838691 106:-0.0800932 107:0.198679 108:0.658933 109:-0.0844957 110:0.2027 111:-0.815017 112:-0.244209 113:0.112506 114:-0.924986 115:-0.509499 116:-0.0379944 117:-0.592222 118:-0.499099 119:-0.0143847 120:-0.584324 121:-0.310399 122:0.17404 123:-0.567614 124:-0.0863793 125:0.199368 126:-0.360106 127:-0.00892334 128:-0.382728 129:-0.0461595 130:-0.778583 131:-0.347584 132:-0.216986 133:0.708835 134:0.269981 135:-0.380004 136:-0.172238 137:0.19668 138:0.0326381 139:0.279419 140:0.197272 141:-0.643068 142:0.99418 143:0.229682 144:-0.285236 145:1 146:0.687727 147:-0.987566 148:0.546398 149:-0.0614326 150:-0.321383 151:0.273275 152:-0.505866 153:-1 154:0.00237772 155:0.0344532 156:0.340764 157:-0.264981 158:-0.103357 159:0.370215 160:-0.544415 161:-0.153537 162:-0.157479 163:-0.193533 164:0.220886 165:0.326379 166:-0.173893 167:-0.032665 168:0.216348 169:-0.157869 170:0.204058 171:-0.27204 172:0.107053 173:0.045083 174:-0.333258 175:0.166204 176:-0.00270453 177:-0.188413 178:0.417219 179:0.494856 180:0.120158 181:0.559479 182:-0.399243 183:-0.485852 184:-0.177945 185:0.0682562 186:0.416337 187:-0.295141 188:-0.324965 189:0.260205 190:0.294126 191:-0.0396905 192:0.377972 193:0.372307 194:-0.263875 195:0.713362 196:0.704142 197:0.190591 198:0.111252 199:0.285091 200:-0.167743 201:-0.193725 202:-0.629146 203:0.329629 204:-0.318151 205:0.0325761 206:-0.539422 207:-0.174175 208:-0.416492 209:0.213811 210:-0.159802 211:0.242201 212:0.176612 213:-0.184024 214:0.439586 215:0.372431 216:-0.440095 217:0.483881 218:1 219:-0.373829 220:0.0456135 221:1 222:-0.358782 223:0.611736 224:0.977852 225:-0.375171 226:0.465188 227:0.965101 228:-0.0894172 229:-0.0669047 230:0.640054 231:-0.172245 232:-0.178588 233:-0.274468 234:0.304448 235:0.061303 236:-0.406587 237:-0.0680777 238:0.389172 239:0.212693 240:0.633282 241:0.22505 242:0.056429 243:0.15734 244:-0.268548 245:0.206692 246:-0.770546 247:0.216803 248:0.210785 249:0.168349 250:-0.19703 251:-0.359218 252:-0.706004 253:-0.12242 254:-0.648934 255:-0.35188 256:-0.547969 257:0.680638 258:-0.289434 259:-0.527426 260:-0.155781 261:0.0236842 262:0.591318 263:-0.52351 264:-0.0898897 265:-0.213211 266:-0.860451 267:0.0525328 268:-0.293226 269:-0.855817 270:0.468085 
1.412764196679503 1:0.689287 2:-0.776944 3:0.237697 4:-0.00195092 5:-0.19058 6:-0.991323 7:-0.043751 8:-0.0944052 9:-0.999183 10:-0.073509 11:-0.064693 12:-0.998978 13:-0.108029 14:0.0114979 15:-0.993369 16:-0.00739209 17:-0.128882 18:-0.999387 19:0.216708 20:-0.470538 21:-0.895157 22:0.0269047 23:-0.657393 24:-0.832822 25:-0.132534 26:-0.710611 27:-0.740704 28:-0.208123 29:-0.738737 30:-0.690154 31:-0.288308 32:-0.943682 33:-0.390809 34:-0.243479 35:-0.973186 36:-0.216901 37:-0.154158 38:-1 39:0.0449299 40:0.0369614 41:-0.973468 42:0.224182 43:-0.193621 44:-0.83329 45:-0.515847 46:-0.492539 47:0.461963 48:-0.806485 49:-0.70152 50:0.751112 51:-0.085048 52:0.134592 53:0.762113 54:0.693054 55:0.745831 56:0.66074 57:0.203614 58:0.67369 59:-0.430328 60:-0.612405 61:-0.832832 62:-0.287461 63:0.479096 64:-0.442166 65:0.689513 66:0.600429 67:0.491866 68:0.401103 69:-0.784383 70:0.474736 71:0.324798 72:0.823148 73:-0.102478 74:0.991391 75:0.293109 76:0.0621527 77:0.994941 78:0.122576 79:-0.0387478 80:1 81:-0.0122486 82:-0.0500178 83:1 84:-0.070572 85:-0.049513 86:1 87:-0.0706195 88:-0.0494161 89:1 90:-0.0701826 91:0.144763 92:0.449261 93:0.409258 94:0.054583 95:0.183624 96:0.720012 97:0.0860884 98:-0.0513906 99:0.480062 100:0.320346 101:-0.00591602 102:0.612626 103:-0.184533 104:0.0153021 105:1 106:0.08239 107:0.258868 108:0.862532 109:-0.0342363 110:0.232829 111:-0.0859863 112:-0.115309 113:0.227942 114:-1 115:-0.186774 116:0.137086 117:-0.678454 118:-0.00946088 119:0.187999 120:-0.697647 121:0.066987 122:0.406329 123:-0.819353 124:0.20531 125:0.379363 126:-0.662616 127:0.19683 128:-0.116778 129:-0.355321 130:-0.0442119 131:-0.144988 132:-0.389269 133:0.17868 134:0.137353 135:0.0550187 136:0.326911 137:-0.832083 138:0.227981 139:0.0328145 140:-0.759379 141:0.0615373 142:-0.267535 143:-0.774582 144:-0.59626 145:-0.865757 146:-1 147:-1 148:-1 149:-0.164989 150:0.0826921 151:-0.262061 152:-0.516308 153:-0.488017 154:-1 155:-1 156:-0.712479 157:-0.724152 158:-0.0281569 159:0.623802 160:-0.347155 161:0.652751 162:-0.90739 163:0.871734 164:-0.0341377 165:0.0106972 166:0.912938 167:-0.77108 168:0.436259 169:0.644332 170:0.189792 171:-0.358839 172:1 173:0.0945162 174:-0.857364 175:0.877175 176:-0.0228195 177:-0.704209 178:0.725707 179:0.524614 180:-0.340408 181:0.566065 182:-0.386275 183:-0.393906 184:-0.165122 185:0.101888 186:0.40956 187:-0.293484 188:-0.337918 189:0.248349 190:0.147831 191:-0.0695777 192:0.303074 193:0.128173 194:-0.47288 195:0.770101 196:0.857107 197:0.128393 198:0.184759 199:0.532811 200:-0.0500762 201:-0.167872 202:-0.525759 203:0.0838842 204:-0.307835 205:0.125312 206:-0.692512 207:-0.176185 208:-0.360414 209:0.0695615 210:-0.179247 211:0.267547 212:0.014888 213:-0.227409 214:0.463719 215:0.295201 216:-0.421911 217:0.487063 218:-0.114235 219:-0.469999 220:0.0123352 221:-0.222886 222:-0.408778 223:-0.111841 224:-0.119068 225:-0.0471178 226:-0.486977 227:-0.0949025 228:0.313994 229:-0.613374 230:-0.188057 231:0.479837 232:-0.344011 233:-0.557288 234:1 235:0.514499 236:-0.630714 237:0.404777 238:0.182973 239:-1 240:0.331332 241:-1 242:-1 243:1 244:0.585026 245:-1 246:-0.522541 247:0.480721 248:-1 249:-1 250:0.260839 251:1 252:0.0742754 253:-0.159747 254:1 255:-0.684707 256:1 257:1 258:1 259:1 260:-1 261:0.0858187 262:1 263:-1 264:-0.246496 265:-0.207739 266:-0.835419 267:0.0556598 268:-0.296068 269:-0.858672 270:0.466448 
0.8488500543802623 1:-0.0168992 2:-0.0479661 3:-1 4:0.0339871 5:-0.0118813 6:-1 7:0.0453961 8:0.0219155 9:-0.999387 10:0.0309755 11:0.00527128 12:-1 13:0.0367944 14:0.0129953 15:-0.998368 16:0.0580512 17:0.0939126 18:-0.992748 19:0.0531627 20:0.130147 21:-0.992423 22:0.188436 23:0.089478 24:-0.978119 25:0.333055 26:0.0853394 27:-0.973967 28:0.524789 29:0.18313 30:-0.856898 31:0.793962 32:0.326371 33:-0.565826 34:0.898324 35:0.367699 36:-0.270536 37:0.906428 38:0.43109 39:0.00216406 40:0.836124 41:0.555293 42:0.268075 43:0.602469 44:0.527375 45:0.627826 46:0.249175 47:0.48478 48:0.832802 49:-0.16827 50:0.507876 51:0.850797 52:-0.596531 53:0.860939 54:0.0107252 55:-0.845173 56:-0.0668224 57:-0.53152 58:-0.121575 59:-0.824083 60:0.597486 61:0.444643 62:-0.718494 63:-0.573853 64:-0.148307 65:-0.703602 66:-0.725889 67:0.122342 68:-0.973431 69:-0.284 70:0.290369 71:-0.893965 72:0.422576 73:0.105333 74:-0.88511 75:0.515773 76:-0.179524 77:-0.697724 78:0.70943 79:0.48343 80:-0.192674 81:0.856078 82:-0.669301 83:0.434591 84:0.602796 85:-0.0876549 86:0.658574 87:-0.751097 88:0.0240196 89:0.988639 90:0.170254 91:0.268994 92:0.200769 93:0.368326 94:0.00604896 95:0.0278236 96:0.558421 97:-0.0169413 98:-0.0604595 99:0.271238 100:0.266053 101:0.0323942 102:0.40115 103:0.0275765 104:0.0508005 105:-0.0391436 106:0.139023 107:0.275283 108:0.140303 109:-0.0441499 110:0.102551 111:0.410089 112:-0.215261 113:0.13716 114:0.161451 115:-0.459228 116:-0.177235 117:-0.76764 118:-0.475972 119:-0.155766 120:-0.772875 121:-0.348685 122:-0.000703194 123:-0.892754 124:-0.171 125:0.0263754 126:-0.857167 127:-0.142463 128:-0.427792 129:-0.582852 130:-0.0684866 131:-0.405615 132:-0.591828 133:0.23727 134:0.228922 135:-0.812529 136:0.585108 137:0.0871828 138:-0.808745 139:1 140:0.0365285 141:-1 142:1 143:-0.229937 144:0.463576 145:-0.0669429 146:0.692678 147:-0.15275 148:-0.595785 149:0.562261 150:0.556781 151:-0.237792 152:0.323972 153:0.400643 154:0.195737 155:-0.138027 156:-1 157:-0.247207 158:0.165765 159:-1 160:0.0728609 161:-0.436623 162:-0.593858 163:-0.361771 164:-1 165:0.33389 166:0.33433 167:-1 168:-0.212348 169:0.0958091 170:-1 171:0.172055 172:0.139494 173:-0.549433 174:0.00924982 175:0.586885 176:-0.236815 177:-0.782708 178:0.675617 179:0.471218 180:-0.892484 181:0.570838 182:-0.358448 183:-0.444867 184:-0.0630064 185:0.101225 186:0.419418 187:-0.172989 188:-0.315617 189:0.30281 190:0.221271 191:-0.0539982 192:0.325153 193:0.226156 194:-0.497381 195:0.723593 196:0.639669 197:0.0819317 198:0.0967409 199:0.219982 200:-0.237417 201:-0.165594 202:-0.557633 203:0.197944 204:-0.327251 205:-0.0682726 206:-0.447219 207:-0.149403 208:-0.500414 209:0.311842 210:-0.147958 211:0.16163 212:0.315006 213:-0.186421 214:0.406331 215:0.598483 216:-0.381029 217:0.448422 218:0.0968972 219:-0.443522 220:-0.0104907 221:0.00166545 222:-0.389713 223:0.537653 224:0.0318297 225:-0.510805 226:0.0457066 227:0.151926 228:-0.429901 229:1 230:0.151199 231:-0.167651 232:0.811231 233:-0.409882 234:-0.268884 235:0.795939 236:-0.702998 237:-1 238:0.573278 239:-0.272016 240:0.725173 241:0.128084 242:0.224763 243:0.390932 244:0.103297 245:0.815452 246:-0.771804 247:0.939566 248:-0.180234 249:0.187119 250:0.799132 251:-0.216903 252:-0.168219 253:1 254:0.137886 255:1 256:-1 257:-1 258:-1 259:0.426126 260:1 261:1 262:-1 263:1 264:-1 265:-1 266:1 267:-0.704816 268:0.160587 269:-0.705924 270:0.518003 
2.493007721734258 1:0.0591208 2:0.00155421 3:-0.997654 4:-0.00472328 5:0.00868453 6:-0.999796 7:0.00560382 8:0.0338215 9:-1 10:0.0251194 11:0.0719344 12:-0.995403 13:0.0981014 14:0.0687203 15:-0.990003 16:0.1084 17:0.0711719 18:-0.991522 19:-0.325635 20:-0.00524008 21:-0.952903 22:-0.563352 23:-0.103252 24:-0.828834 25:-0.75391 26:-0.148569 27:-0.685111 28:-0.889072 29:-0.24241 30:-0.530565 31:-0.873223 32:-0.295095 33:-0.461893 34:-0.734228 35:0.545105 36:-0.415137 37:0.885703 38:-0.161433 39:0.437139 40:-0.686849 41:-0.677211 42:0.223362 43:0.0937243 44:0.945615 45:0.430205 46:0.795382 47:0.605384 48:0.0394235 49:-0.116765 50:0.37171 51:-0.991875 52:0.241429 53:0.813127 54:-0.608172 55:-0.517874 56:0.717212 57:-0.508039 58:-0.707464 59:0.726232 60:0.174739 61:-0.52532 62:0.579177 63:0.645916 64:-0.420033 65:0.545657 66:0.738353 67:-0.394156 68:0.555684 69:0.748634 70:-0.38245 71:0.558967 72:0.752387 73:-0.0694402 74:0.0951217 75:0.993772 76:-0.0405343 77:0.0460951 78:0.997959 79:-0.0218211 80:0.0117817 81:0.999694 82:-0.0121858 83:-0.000615132 84:1 85:-0.00474224 86:-0.00894454 87:1 88:0.000866949 89:-0.0150461 90:1 91:0.157487 92:0.1299 93:0.499387 94:0.136991 95:0.00288847 96:0.666625 97:0.0190467 98:-0.0289534 99:0.46978 100:0.0782828 101:0.0508139 102:0.806 103:-0.0444329 104:0.139723 105:0.517275 106:0.271647 107:0.213899 108:-0.519324 109:0.320115 110:0.120323 111:-0.924626 112:0.217939 113:0.0860674 114:-0.950011 115:0.108299 116:-0.0328744 117:-0.621103 118:0.136882 119:0.0167919 120:-0.506286 121:0.0604953 122:0.168005 123:-0.355613 124:-0.540081 125:-1 126:-0.840097 127:-0.228252 128:-0.832465 129:-0.172236 130:-0.0145251 131:-0.903584 132:-0.410699 133:-0.174845 134:0.439024 135:0.702228 136:1 137:-0.634605 138:1 139:-0.047239 140:0.269655 141:0.974716 142:0.824328 143:0.358111 144:0.542891 145:0.39287 146:0.741353 147:-0.635407 148:0.740327 149:0.0195641 150:-0.361416 151:0.08515 152:-0.0570408 153:-0.296766 154:0.0799932 155:0.0847849 156:-0.262263 157:0.0676417 158:0.00540819 159:-0.275851 160:-0.256783 161:0.323319 162:-0.620411 163:0.0628803 164:0.478412 165:-0.0799636 166:0.00184014 167:0.295578 168:-0.0892299 169:-0.0505625 170:0.466554 171:-0.40124 172:0.225137 173:0.273398 174:-0.415487 175:0.434805 176:0.111224 177:-0.231994 178:0.573992 179:0.530523 180:0.0981211 181:0.621577 182:-0.350213 183:-0.459049 184:-0.133298 185:0.0573647 186:0.409663 187:-0.203646 188:-0.290779 189:0.231481 190:0.181333 191:-0.0630067 192:0.34409 193:0.324139 194:-0.354945 195:0.760929 196:0.744099 197:-0.316819 198:-0.127666 199:0.230127 200:-0.36294 201:-0.362337 202:-0.712303 203:0.048057 204:-0.457567 205:-0.110771 206:-0.699885 207:-0.331796 208:-0.560833 209:0.082495 210:-0.304284 211:0.0736986 212:0.0597205 213:-0.316335 214:0.328365 215:0.370535 216:-0.498001 217:-0.25393 218:0.0375163 219:1 220:0.302002 221:-0.446299 222:1 223:0.220249 224:-0.109286 225:-0.803128 226:-0.211841 227:-0.77005 228:0.116682 229:0.0730726 230:-0.68969 231:0.276307 232:0.620323 233:1 234:0.358608 235:-0.525267 236:-0.819153 237:-0.117711 238:0.591325 239:-0.108141 240:0.601604 241:0.294744 242:-0.175427 243:0.164812 244:-0.276026 245:0.197041 246:-0.772434 247:0.220471 248:0.143428 249:0.168599 250:-0.190233 251:-0.355789 252:-0.702122 253:-0.12242 254:-0.651859 255:-0.35424 256:-0.544296 257:0.67952 258:-0.287734 259:-0.525714 260:-0.156007 261:0.024269 262:0.591666 263:-0.522795 264:-0.0906373 265:-0.199531 266:-0.861702 267:0.0512821 268:-0.289436 269:-0.855817 270:0.463993 
2.55619044975469 1:0.131772 2:-0.247227 3:0.971544 4:0.0166342 5:-0.11226 6:0.998979 7:-0.094134 8:0.0299231 9:0.99673 10:-0.011558 11:0.192695 12:0.976911 13:0.0366921 14:0.291085 15:0.948279 16:0.0909279 17:0.393189 18:0.906231 19:0.144819 20:0.523046 21:0.831269 22:0.16899 23:0.619678 24:0.758078 25:0.172471 26:0.680752 27:0.706373 28:0.125086 29:-0.352545 30:0.927516 31:0.80776 32:-0.20783 33:0.560541 34:0.13965 35:0.0331532 36:-1 37:-0.849279 38:0.174117 39:0.508038 40:0.835512 41:-0.110049 42:0.527125 43:-0.122531 44:-0.945406 45:0.302812 46:0.202262 47:-0.642816 48:-0.798026 49:0.452167 50:-0.391805 51:-0.864303 52:0.547755 53:-0.283458 54:-0.786619 55:0.290224 56:-0.293456 57:-0.915573 58:0.307688 59:-0.267137 60:-0.917842 61:0.320516 62:-0.270977 63:-0.914546 64:0.315279 65:-0.278602 66:-0.914181 67:0.31664 68:-0.264899 69:-0.913998 70:0.513384 71:-0.590629 72:-0.64599 73:0.631488 74:-0.740355 75:-0.310362 76:0.683577 77:-0.746658 78:0.0162278 79:0.68655 80:-0.646962 81:0.357354 82:0.655331 83:-0.527066 84:0.545134 85:0.6298 86:-0.464043 87:0.622921 88:0.604263 89:-0.418526 90:0.679282 91:0.119437 92:0.213359 93:-0.662212 94:0.053729 95:-0.0891889 96:0.204599 97:0.000230271 98:-0.139594 99:-0.883129 100:0.209506 101:-0.0591283 102:-0.509535 103:-0.00946326 104:-0.0569331 105:-0.756023 106:0.0966302 107:0.190881 108:-0.142039 109:-0.0687416 110:-0.0871439 111:-0.235281 112:-0.164715 113:-0.158502 114:-0.220408 115:-0.341723 116:-0.315288 117:0.403676 118:0.504505 119:0.142144 120:0.213936 121:-0.642753 122:0.320598 123:0.046453 124:-0.0736091 125:0.25433 126:0.94246 127:-0.167752 128:-0.221447 129:-0.0859466 130:0.0719089 131:-0.138136 132:0.0196398 133:0.197527 134:0.592455 135:0.240781 136:0.200181 137:0.338547 138:0.561638 139:0.126747 140:0.25 141:0.842306 142:0.456674 143:0.234328 144:0.301675 145:-0.256555 146:0.342748 147:0.570466 148:0.0231205 149:-0.157596 150:0.441039 151:-0.144316 152:-0.240796 153:0.287786 154:-0.0193614 155:-0.127584 156:0.257915 157:-0.238371 158:-0.00300455 159:-0.00346332 160:-0.332819 161:0.236099 162:-0.644291 163:0.0496361 164:0.467436 165:-0.451559 166:0.00333525 167:0.113132 168:-0.66737 169:-0.00197799 170:0.226461 171:-0.871465 172:0.316711 173:-0.0183232 174:-0.962774 175:0.498865 176:-0.186105 177:-0.809574 178:0.710295 179:0.322851 180:-0.530851 181:0.500785 182:-0.344534 183:-0.527448 184:0.0532144 185:0.11484 186:0.432356 187:0.14837 188:-0.308339 189:0.303195 190:0.427694 191:-0.0773144 192:0.293988 193:0.421298 194:-0.549139 195:0.703954 196:0.764244 197:0.02398 198:0.10927 199:0.410299 200:-0.257936 201:-0.200216 202:-0.588626 203:0.194814 204:-0.327348 205:0.0489266 206:-0.613589 207:-0.187478 208:-0.430633 209:0.158931 210:-0.173826 211:-1 212:0.285711 213:-0.199664 214:0.482681 215:-0.659898 216:-0.458795 217:0.39353 218:-0.818338 219:-0.490541 220:-0.161588 221:-1 222:-0.310182 223:-1 224:-0.969224 225:-0.0669568 226:0.247129 227:-0.279212 228:-0.583409 229:-0.558968 230:0.0381452 231:-0.137752 232:-0.142468 233:-0.210378 234:0.25163 235:0.458657 236:-0.553474 237:-0.121884 238:0.0916889 239:0.260257 240:0.611116 241:0.217124 242:0.191361 243:0.158677 244:-0.255673 245:0.156771 246:-0.770711 247:0.215842 248:0.218782 249:0.1691 250:-0.19124 251:-0.359066 252:-0.70471 253:-0.128833 254:-0.649858 255:-0.353229 256:-0.544296 257:0.680943 258:-0.289555 259:-0.526959 260:-0.155668 261:0.0239766 262:0.591086 263:-0.524296 264:-0.0865259 265:-0.205003 266:-0.859512 267:0.0556598 268:-0.303648 269:-0.860576 270:0.46072 
2.471093559540453 1:0.166518 2:-0.267592 3:0.96216 4:0.170962 5:-0.265811 6:0.963555 7:-0.0497147 8:-0.0987251 9:0.998978 10:-0.146145 11:0.130611 12:0.978647 13:-0.145694 14:0.439435 15:0.87748 16:-0.133316 17:0.609869 18:0.771399 19:-0.14253 20:0.866645 21:0.477322 22:-0.168167 23:0.966548 24:0.237628 25:-0.276434 26:0.954851 27:-0.131359 28:-0.465401 29:0.62963 30:-0.677918 31:-0.160286 32:-1 33:-0.328325 34:0.418336 35:-0.438786 36:-0.816121 37:-0.858308 38:0.522248 39:-0.103669 40:-0.62865 41:0.870562 42:0.0398933 43:0.209259 44:0.855462 45:0.546777 46:0.22153 47:0.921455 48:0.341653 49:0.136002 50:0.664451 51:0.738736 52:0.164898 53:0.505123 54:0.871604 55:0.226274 56:0.385595 57:0.901894 58:0.15188 59:0.265747 60:0.957899 61:0.123566 62:0.189727 63:0.976285 64:0.0948592 65:0.146716 66:0.98539 67:0.0748126 68:0.12985 69:0.990297 70:0.0604191 71:0.107841 72:0.993057 73:0.0470072 74:0.0922521 75:0.995304 76:0.0395146 77:0.0725236 78:0.996224 79:0.0334455 80:0.0649792 81:0.996938 82:0.0285015 83:0.0659217 84:0.997449 85:0.0257509 86:0.0654741 87:0.997653 88:0.0236116 89:0.0617195 90:0.997858 91:0.121527 92:0.229192 93:-0.689457 94:0.125605 95:-0.0865951 96:0.241206 97:0.130235 98:-0.243047 99:-0.738317 100:0.447872 101:-0.204886 102:-0.543178 103:0.170117 104:-0.208126 105:-0.75892 106:0.265216 107:-0.0407547 108:-0.111953 109:0.171566 110:-0.312688 111:-0.197558 112:0.0270963 113:-0.230872 114:-0.134062 115:-0.0906458 116:-0.0748338 117:0.93149 118:0.227962 119:0.2874 120:-0.110342 121:-0.208935 122:0.138119 123:0.378642 124:0.170951 125:-0.058647 126:-0.57054 127:-0.209854 128:-0.687916 129:0.746842 130:-0.154841 131:-0.724334 132:-0.348463 133:-0.414826 134:0.133598 135:0.525932 136:0.163775 137:0.00922586 138:0.243226 139:-0.0632002 140:0.38485 141:0.151159 142:0.303333 143:0.518361 144:-0.312037 145:-0.236265 146:0.701883 147:-0.342833 148:0.00849324 149:0.11885 150:-0.408033 151:-0.129169 152:-0.0492394 153:-0.27019 154:-0.0140115 155:0.0367644 156:-0.154591 157:-0.00294536 158:-0.129882 159:-0.102685 160:-0.0316668 161:-0.112198 162:-0.459487 163:0.435032 164:0.225325 165:0.0443821 166:0.27073 167:-0.0284159 168:-0.00967202 169:0.1753 170:0.255522 171:-0.353758 172:0.468162 173:0.102821 174:-0.381583 175:0.582598 176:0.0584855 177:-0.229719 178:0.660686 179:0.525352 180:0.0970772 181:0.576584 182:-0.460767 183:-0.460609 184:-0.0267529 185:0.303455 186:0.463162 187:0.113807 188:-0.213861 189:0.393609 190:0.731549 191:0.0371469 192:0.304433 193:0.701112 194:-0.515264 195:0.710363 196:0.877086 197:0.0450458 198:0.115375 199:0.663157 200:-0.250724 201:-0.199647 202:-0.469713 203:0.197241 204:-0.32944 205:0.181228 206:-0.629128 207:-0.202318 208:-0.303116 209:0.137608 210:-0.201167 211:0.125414 212:0.686798 213:-0.321968 214:0.304879 215:-0.346538 216:-0.414238 217:0.376103 218:-0.588036 219:-0.317305 220:0.313991 221:-0.779917 222:-0.248364 223:0.0235501 224:1 225:-0.403715 226:0.363356 227:-0.190608 228:-0.0503941 229:-0.430157 230:0.165955 231:-0.103697 232:0.234615 233:-0.118338 234:0.201304 235:0.21283 236:-0.117632 237:-0.135447 238:0.526908 239:0.165363 240:0.625262 241:0.158152 242:0.0287968 243:0.154666 244:-0.270502 245:0.212277 246:-0.77091 247:0.217327 248:0.206684 249:0.1691 250:-0.195268 251:-0.359485 252:-0.702899 253:-0.124229 254:-0.648934 255:-0.352217 256:-0.543215 257:0.680689 258:-0.289677 259:-0.526647 260:-0.155951 261:0.0229532 262:0.592595 263:-0.524296 264:-0.0861521 265:-0.200313 266:-0.860451 267:0.0562852 268:-0.283752 269:-0.858197 270:0.471358 
0.3672171726420734 1:-0.101974 2:-0.405434 3:0.932072 4:-0.108019 5:-0.220949 6:0.981114 7:-0.144209 8:0.416711 9:0.893527 10:0.0111471 11:0.938661 12:0.349203 13:0.0313699 14:0.943847 15:-0.342311 16:-0.012458 17:0.724108 18:-0.685189 19:-0.175094 20:0.180088 21:-0.968568 22:-0.496579 23:-0.192129 24:-0.862372 25:-0.346611 26:-0.808761 27:0.507857 28:0.397529 29:-0.63713 30:0.659667 31:0.807138 32:-0.268194 33:-0.567898 34:0.918823 35:-0.403554 36:-0.145831 37:0.88006 38:-0.468007 39:-0.142725 40:0.874209 41:-0.418873 42:-0.199159 43:0.882819 44:-0.434817 45:-0.131833 46:0.880831 47:-0.472267 48:-0.157746 49:0.882615 50:-0.462348 51:-0.169463 52:0.496633 53:-0.542476 54:-0.683044 55:0.355092 56:-0.433682 57:-0.837885 58:0.29524 59:-0.365415 60:-0.889843 61:0.255342 62:-0.319685 63:-0.920474 64:0.23929 65:-0.302542 66:-0.930221 67:0.21332 68:-0.257653 69:-0.945559 70:0.193596 71:-0.239482 72:-0.956093 73:0.171306 74:-0.207992 75:-0.966718 76:0.159537 77:-0.195478 78:-0.971219 79:0.149587 80:-0.18259 81:-0.975299 82:0.138021 83:-0.159422 84:-0.979487 85:0.131508 86:-0.147968 87:-0.981631 88:0.123872 89:-0.138383 90:-0.983372 91:0.00577821 92:0.0122889 93:-0.527536 94:-0.267364 95:-0.216812 96:0.270603 97:0.0923386 98:-0.418447 99:-0.319044 100:0.359578 101:-0.46065 102:-0.218762 103:0.111119 104:-0.303299 105:-0.0393556 106:0.261607 107:0.0816981 108:0.428547 109:0.263247 110:0.238549 111:0.380142 112:-0.0212269 113:0.166274 114:-0.0732875 115:-0.305313 116:0.516968 117:-0.462996 118:0.541072 119:0.404533 120:-0.0177795 121:-0.799474 122:0.349956 123:0.0680845 124:-0.0741874 125:0.155567 126:-0.122993 127:-0.107459 128:-0.28613 129:0.110385 130:-0.125234 131:-0.215936 132:0.00895114 133:0.0414628 134:0.267196 135:-0.38099 136:0.193581 137:0.129641 138:-0.317026 139:0.0373748 140:0.184033 141:-0.0221721 142:0.670783 143:0.234519 144:-0.0377873 145:0.123098 146:0.401116 147:0.0730356 148:0.271469 149:-0.134527 150:0.0426582 151:0.123813 152:-0.279563 153:0.0860385 154:0.241593 155:-0.262658 156:0.230009 157:0.27402 158:-0.371877 159:0.307156 160:0.182288 161:-0.376652 162:-0.255554 163:0.633815 164:0.0531838 165:0.203475 166:0.402185 167:-0.273669 168:0.0842121 169:0.277043 170:0.0880271 171:-0.310873 172:0.557698 173:-0.0470604 174:-0.351757 175:0.655233 176:-0.11883 177:-0.204603 178:0.731005 179:0.450958 180:0.118882 181:0.63824 182:-0.390156 183:-0.34505 184:0.564376 185:0.133532 186:0.513991 187:0.450317 188:-0.414703 189:0.325943 190:1 191:-0.13836 192:0.3277 193:0.98957 194:-0.598613 195:0.698133 196:1 197:-0.0916736 198:0.0677187 199:1 200:-1 201:-0.450145 202:-0.909727 203:-1 204:-0.597518 205:-0.426423 206:-0.799778 207:-0.759489 208:-0.286 209:0.354333 210:0.083024 211:0.42869 212:-0.335498 213:-0.127157 214:0.330915 215:0.434295 216:-0.32235 217:0.489109 218:-0.0309917 219:-0.408142 220:0.0261692 221:-0.13612 222:-0.351496 223:0.539265 224:-0.127179 225:-0.414545 226:0.0799305 227:-0.0193588 228:-0.284662 229:-0.11839 230:-0.00461509 231:-0.0216583 232:-0.245055 233:-0.250196 234:0.14283 235:0.156219 236:-0.156048 237:-0.128666 238:0.493485 239:0.151678 240:0.623408 241:0.166 242:0.0331904 243:0.154037 244:-0.268633 245:0.213649 246:-0.771175 247:0.21951 248:0.206889 249:0.169183 250:-0.192499 251:-0.359485 252:-0.707557 253:-0.121927 254:-0.645238 255:-0.350868 256:-0.54019 257:0.681502 258:-0.288827 259:-0.526647 260:-0.156121 261:0.0236842 262:0.588881 263:-0.525012 264:-0.0872734 265:-0.205003 266:-0.855444 267:0.0537836 268:-0.27712 269:-0.8601 270:0.462357 
2.103404046349624 1:0.111029 2:-0.988424 3:0.412005 4:0.142417 5:-0.969418 6:0.444337 7:0.15809 8:-0.929828 9:0.463649 10:0.199158 11:-0.955274 12:0.438598 13:0.177729 14:-0.923525 15:0.510737 16:0.18015 17:-0.927595 18:0.514607 19:0.187266 20:-0.944177 21:0.475581 22:0.102114 23:-0.820388 24:0.696728 25:0.079562 26:-0.621655 27:0.793393 28:0.0302773 29:-0.504495 30:0.866024 31:0.0254176 32:-0.392312 33:0.927569 34:0.0191155 35:-0.289129 36:0.96226 37:0.0191351 38:-0.164527 39:0.987737 40:0.0564631 41:-0.958 42:-0.285817 43:0.032716 44:0.0157402 45:-1 46:0.525839 47:0.121287 48:0.830505 49:-0.710828 50:0.403213 51:0.597552 52:0.613163 53:0.326894 54:0.734321 55:-0.860778 56:0.0330662 57:-0.508856 58:-0.632876 59:-0.0830927 60:-0.773043 61:-0.900862 62:-0.0979475 63:-0.426965 64:-0.94033 65:-0.0924788 66:-0.332448 67:-0.928604 68:-0.0859543 69:-0.362954 70:-0.781879 71:0.603485 72:-0.233165 73:-0.748241 74:0.529387 75:0.427361 76:-0.525723 77:0.485469 78:0.697183 79:-0.522892 80:0.464938 81:0.711646 82:-0.493703 83:0.401579 84:0.771496 85:-0.551272 86:0.400051 87:0.733136 88:-0.519302 89:0.387103 90:0.76242 91:0.150418 92:0.675965 93:-0.949254 94:-0.178195 95:0.398078 96:0.0993163 97:-0.123261 98:0.37935 99:0.0197206 100:0.142316 101:0.382943 102:0.22622 103:-0.0297205 104:0.24557 105:-0.0651452 106:0.0896742 107:0.404906 108:0.460657 109:-0.11708 110:0.0986614 111:0.614333 112:0.0659601 113:-0.118175 114:-0.898143 115:-0.0880254 116:-0.238051 117:-0.825402 118:-0.0224508 119:-0.243483 120:-0.783769 121:0.0134178 122:-0.0790507 123:-0.748261 124:0.168157 125:-0.0238484 126:-0.550362 127:0.235556 128:-0.499318 129:-0.284197 130:0.0985714 131:0.0112182 132:0.396167 133:-0.205991 134:0.00949447 135:1 136:-0.632531 137:-0.865539 138:-0.261035 139:0.20685 140:0.439912 141:-0.572351 142:0.155067 143:0.150449 144:-0.753564 145:0.0806601 146:0.569735 147:0.501893 148:0.307093 149:-0.0758348 150:1 151:0.441818 152:-0.0898071 153:0.525514 154:0.705248 155:0.0319709 156:0.445433 157:0.680886 158:-0.00643832 159:0.60725 160:0.164504 161:-0.771761 162:-0.209992 163:0.486935 164:-0.253652 165:-0.208027 166:-0.092697 167:-0.435799 168:-0.598066 169:-0.320806 170:0.22551 171:-0.84715 172:-0.0432848 173:-0.29014 174:-0.894363 175:0.74401 176:-1 177:-0.695108 178:0.482962 179:0.334142 180:-0.362793 181:0.641113 182:-0.364789 183:-0.455792 184:-0.00495425 185:0.213379 186:0.460697 187:-0.212049 188:-0.335514 189:0.255868 190:0.13642 191:-0.0018547 192:0.358696 193:0.245094 194:-0.466341 195:0.741643 196:0.600266 197:0.106495 198:0.124653 199:0.74573 200:-0.184443 201:-0.14908 202:-0.558398 203:0.283584 204:-0.32146 205:0.0958562 206:-0.564792 207:-0.175476 208:-0.376262 209:0.194314 210:-0.160156 211:0.272129 212:0.161027 213:-0.183785 214:0.476073 215:0.421473 216:-0.3691 217:-1 218:-0.0519949 219:-0.46207 220:-0.657995 221:0.969575 222:0.066181 223:-0.211653 224:0.927156 225:-1 226:0.0934297 227:-1 228:-0.732265 229:-0.422561 230:0.163632 231:-0.0614016 232:-0.318202 233:-0.227496 234:0.0652799 235:0.119914 236:0.0336644 237:-0.126728 238:0.490329 239:0.191042 240:0.623811 241:0.218911 242:0.0448362 243:0.145857 244:-0.291408 245:0.214188 246:-0.771307 247:0.215842 248:0.18823 249:0.168182 250:-0.2037 251:-0.361771 252:-0.720238 253:-0.116994 254:-0.662176 255:-0.491148 256:-0.543215 257:0.673576 258:-0.39807 259:-0.46954 260:-0.180593 261:-0.0241228 262:0.616737 263:-0.505489 264:-0.0850308 265:-0.211647 266:-0.865457 267:0.0594121 268:-0.279015 269:-0.84059 270:0.48036 
1.832504848748327 1:0.244854 2:0.100595 3:0.96216 4:0.152377 5:0.342426 6:0.917309 7:0.0822066 8:0.556 9:0.821284 10:0.0730981 11:0.616421 12:0.775644 13:0.0782457 14:0.577411 15:0.804132 16:0.10778 17:0.453366 18:0.875894 19:0.227528 20:0.227783 21:0.941743 22:0.403467 23:-0.0760317 24:0.91953 25:0.237748 26:0.155595 27:0.959654 28:0.0900896 29:0.36847 30:0.921605 31:0.0710655 32:0.483405 33:0.892234 34:0.0469943 35:0.480461 36:0.876628 37:0.0294978 38:0.484609 39:0.876134 40:0.0318562 41:0.5554 42:0.878166 43:0.0242798 44:0.505622 45:0.88404 46:0.0189015 47:0.457021 48:0.889405 49:0.0328886 50:0.456068 51:0.891421 52:0.065102 53:0.435005 54:0.916752 55:0.157836 56:0.201635 57:0.969374 58:-0.0861691 59:0.560903 60:0.845596 61:-0.108675 62:0.658513 63:0.768987 64:-0.0328437 65:0.508051 66:0.870351 67:0.141925 68:0.232344 69:0.965579 70:0.125886 71:0.405015 72:0.913004 73:-0.0079535 74:0.621639 75:0.803267 76:0.12711 77:0.450885 78:0.882425 79:0.209136 80:0.321809 81:0.921609 82:0.144241 83:0.500615 84:0.854161 85:-0.0152465 86:0.646103 87:0.765282 88:0.0423785 89:0.474411 90:0.880241 91:0.224674 92:0.226779 93:-0.670605 94:0.118204 95:-0.1222 96:-0.448229 97:-0.0642455 98:-0.31889 99:-0.537452 100:0.27877 101:-0.0630296 102:-0.210565 103:0.0922667 104:-0.0447268 105:-0.652865 106:0.183975 107:0.232075 108:-0.214244 109:0.148127 110:-0.0407688 111:-0.0412124 112:0.00333362 113:0.328024 114:0.48514 115:-0.117746 116:0.12822 117:0.85535 118:-0.202733 119:-0.152184 120:-0.371313 121:-0.158331 122:0.236742 123:-0.0453593 124:0.0565019 125:0.179363 126:-0.00960886 127:0.126753 128:-0.277096 129:0.0397643 130:0.0433364 131:-0.27985 132:-0.0527591 133:0.106269 134:0.274496 135:-0.0460133 136:0.188737 137:0.13992 138:0.0392904 139:0.0215624 140:0.209029 141:0.32908 142:0.313077 143:0.120346 144:-0.802649 145:-0.133457 146:0.732775 147:0.439291 148:-0.0755741 149:-0.55608 150:-1 151:-0.407925 152:-0.550695 153:-0.744736 154:-0.266304 155:-0.444554 156:-0.770505 157:1 158:0.382093 159:1 160:-0.0678704 161:-0.387132 162:-0.481347 163:-0.420117 164:-0.289646 165:-0.694409 166:-0.282576 167:-0.272474 168:-0.301942 169:0.450983 170:0.729367 171:-0.0400726 172:0.704143 173:0.591221 174:0.370333 175:0.32913 176:-0.826572 177:-1 178:-1 179:-0.0673772 180:-1 181:0.676294 182:-0.342168 183:-0.420981 184:0.213266 185:0.165103 186:0.374339 187:-0.0456294 188:-0.279362 189:0.31081 190:0.27306 191:0.00969742 192:0.363536 193:0.069576 194:-0.494938 195:0.72177 196:0.603641 197:0.013239 198:0.172389 199:-0.303968 200:-0.319067 201:-0.162291 202:-0.694601 203:0.155986 204:-0.280438 205:0.227409 206:-0.438538 207:-0.175712 208:-0.386307 209:0.181186 210:-0.149078 211:0.209008 212:0.184597 213:-0.156819 214:0.43639 215:0.424167 216:-0.338148 217:0.468955 218:-0.0251269 219:-0.410739 220:0.0185605 221:-0.140669 222:-0.351453 223:0.526192 224:-0.133104 225:-0.420416 226:0.0782502 227:-0.0239977 228:-0.280786 229:-0.133323 230:-0.00631044 231:-0.0150952 232:-0.353025 233:-0.264958 234:0.171108 235:0.0308438 236:-0.168913 237:-0.0617431 238:0.793073 239:0.227779 240:0.599508 241:0.230644 242:0.022868 243:0.154745 244:-0.353574 245:0.186949 246:-0.747822 247:-0.0898214 248:0.0575149 249:0.353133 250:0.105028 251:-0.374879 252:-1 253:0.461482 254:-0.492494 255:-0.847918 256:-0.715644 257:0.646954 258:-0.250834 259:-0.856687 260:-0.229309 261:0.187427 262:0.583193 263:-0.558551 264:-0.296206 265:1 266:-0.389237 267:-1 268:0.24396 269:-0.397097 270:-1 
2.635712703129999 1:0.341722 2:0.132751 3:0.929012 4:0.161413 5:0.390271 6:0.895768 7:-0.0577348 8:0.50353 9:0.85715 10:-0.184774 11:0.537937 12:0.815182 13:-0.23965 14:0.541473 15:0.797093 16:-0.273404 17:0.529847 18:0.791726 19:-0.380046 20:0.515453 21:0.758984 22:-0.540408 23:0.492758 24:0.665951 25:-0.34463 26:0.297035 27:0.888192 28:-0.259028 29:-0.0170031 30:0.97532 31:-0.992945 32:0.265351 33:-0.00585462 34:-0.794803 35:0.475785 36:-0.386217 37:-0.678141 38:0.645476 39:-0.387469 40:-0.66214 41:0.738117 42:-0.378833 43:-0.427778 44:0.857345 45:0.412545 46:-0.328132 47:0.64576 48:0.708736 49:-0.337057 50:0.648543 51:0.696001 52:-0.19 53:0.410032 54:0.909499 55:-0.108063 56:0.250783 57:0.965596 58:-0.0849446 59:0.220404 60:0.976293 61:-0.0667551 62:0.184197 63:0.982827 64:-0.0525296 65:0.157415 66:0.987025 67:-0.0321791 68:0.134051 69:0.992135 70:-0.0243206 71:0.117828 72:0.993567 73:-0.00927909 74:0.0972473 75:0.995916 76:-0.00249834 77:0.0768595 78:0.996632 79:0.00142755 80:0.0712559 81:0.99704 82:0.00678122 83:0.0714579 84:0.997449 85:0.0112692 86:0.0689497 87:0.997755 88:0.0141262 89:0.0647902 90:0.997858 91:-0.15761 92:-0.30285 93:-0.689715 94:0.0245517 95:-0.135994 96:0.200932 97:0.212474 98:-0.0649604 99:-0.883419 100:0.641685 101:0.0694253 102:-0.533728 103:0.380305 104:0.108648 105:-0.814668 106:0.467402 107:0.399497 108:-0.308378 109:0.422709 110:0.248923 111:-0.533653 112:1 113:0.594636 114:0.358136 115:-0.156225 116:-0.0220099 117:-0.158599 118:0.74358 119:-0.459958 120:-0.046761 121:-0.650523 122:-0.354234 123:1 124:0.0390574 125:0.129982 126:0.467499 127:-0.223566 128:-0.447839 129:0.558139 130:0.0839269 131:-0.317082 132:1 133:0.0710885 134:0.247067 135:0.137317 136:0.0780285 137:0.23435 138:0.00512785 139:-0.0618122 140:0.271091 141:0.202349 142:0.244866 143:0.450773 144:-0.509155 145:-0.300422 146:0.656555 147:-0.473454 148:-0.212174 149:0.0838644 150:-0.59121 151:-0.382652 152:-0.0476791 153:-0.318791 154:-0.21357 155:0.0846137 156:-0.151666 157:-0.199777 158:-0.0503906 159:-0.13435 160:-0.174576 161:-0.00541485 162:-0.478496 163:0.297339 164:0.272698 165:0.0292087 166:0.176538 167:0.0188554 168:-0.0163624 169:0.102238 170:0.282997 171:-0.35648 172:0.370841 173:0.127867 174:-0.383849 175:0.467844 176:0.0884043 177:-0.231819 178:0.568934 179:0.535377 180:0.0956855 181:0.590418 182:-0.40814 183:-0.452534 184:0.288221 185:0.359826 186:0.32772 187:-0.111677 188:-0.26307 189:0.15861 190:0.292956 191:-0.0202957 192:0.210513 193:0.28791 194:-0.517076 195:0.64692 196:0.714104 197:0.0462948 198:0.0344937 199:0.332734 200:-0.206379 201:-0.24822 202:-0.777405 203:0.420953 204:-0.235669 205:-0.279955 206:-0.58703 207:0.0013007 208:-0.478617 209:0.140211 210:-0.223145 211:0.546257 212:0.725329 213:-0.286493 214:0.366648 215:0.551487 216:-0.271989 217:0.570178 218:-0.106098 219:-0.225726 220:0.0967221 221:-0.236778 222:-0.355466 223:0.539444 224:-0.268137 225:-0.415355 226:0.07741 227:0.00479954 228:-0.284274 229:-0.117741 230:0.000219766 231:-0.0201998 232:-0.24525 233:-0.250734 234:0.143117 235:0.15468 236:-0.156138 237:-0.128442 238:0.491058 239:0.151707 240:0.62369 241:0.165844 242:0.0337727 243:0.153958 244:-0.268718 245:0.213159 246:-0.771175 247:0.21689 248:0.205762 249:0.168182 250:-0.19187 251:-0.359599 252:-0.707298 253:-0.126367 254:-0.647702 255:-0.355589 256:-0.544512 257:0.680384 258:-0.289555 259:-0.528982 260:-0.155951 261:0.0236842 262:0.592711 263:-0.523581 264:-0.0883947 265:-0.204612 266:-0.858886 267:0.0562852 268:-0.300805 269:-0.855341 270:0.463993 
